4.777914378792047501e-03
-1.595484763383865356e-01
-7.505362629890441895e-01
-1.296789884567260742e+00
-8.046813607215881348e-01
2.450794130563735962e-01
6.988166272640228271e-02
1.827592551708221436e-01
-5.979886054992675781e-01
-4.801408052444458008e-01
-1.756417900323867798e-01
1.917856931686401367e-02
6.432215124368667603e-02
2.762453258037567139e-01
2.159991115331649780e-01
1.046120002865791321e-01
2.788479253649711609e-02
2.009680569171905518e-01
1.147492229938507080e-01
-1.409818828105926514e-01
2.438712678849697113e-02
-1.859279535710811615e-02
3.412451967597007751e-02
2.117485105991363525e-01
2.837648056447505951e-02
1.476788669824600220e-01
2.068973928689956665e-01
3.372215926647186279e-01
-5.138921737670898438e-01
1.708559691905975342e-02
-2.119957841932773590e-02
2.714750170707702637e-01
5.834219455718994141e-01
-9.822324514389038086e-01
5.956157296895980835e-02
-1.203540265560150146e-01
2.431143969297409058e-01
1.111421704292297363e+00
-1.397695660591125488e+00
2.003097087144851685e-01
5.400997772812843323e-02
3.080633878707885742e-01
9.039729833602905273e-01
-1.117735505104064941e+00
-2.194108068943023682e-01
-3.473010612651705742e-03
3.468160033226013184e-01
5.074847936630249023e-01
-6.389122605323791504e-01
-2.107529044151306152e-01
2.223329544067382812e-01
-1.039530150592327118e-02
-5.506752729415893555e-01
-1.314473152160644531e-01
4.002178907394409180e-01
-2.920364737510681152e-01
-5.499958395957946777e-01
-8.351098299026489258e-01
-7.618321105837821960e-03
5.428573489189147949e-01
6.289283186197280884e-02
-2.848031520843505859e-01
-2.963559627532958984e-01
3.869736790657043457e-01
1.992292553186416626e-01
1.115955933928489685e-01
-1.925641894340515137e-01
-2.608948349952697754e-01
1.316999047994613647e-01
2.921346127986907959e-01
8.104208856821060181e-03
-2.915894687175750732e-01
-1.670643538236618042e-01
2.250734344124794006e-02
1.196233779191970825e-01
3.267921507358551025e-01
5.534536242485046387e-01
5.090133547782897949e-01
2.723426818847656250e-01
4.559412971138954163e-02
2.499832957983016968e-01
6.644517183303833008e-01
3.832399249076843262e-01
5.496293902397155762e-01
3.780858814716339111e-01
7.216352038085460663e-03
-1.154763475060462952e-01
-1.082059368491172791e-01
5.001636967062950134e-02
-1.613533496856689453e-01
-2.332187592983245850e-01
-6.854586005210876465e-01
-8.688500523567199707e-01
-2.290449738502502441e-01
-2.525354921817779541e-01
6.147617101669311523e-02
-4.416724145412445068e-01
-6.818220019340515137e-01
-3.421748280525207520e-01
-4.654283076524734497e-02
-1.704099476337432861e-01
8.822551369667053223e-02
2.112183868885040283e-01
1.491766721010208130e-01
-2.463714480400085449e-01
3.286868035793304443e-01
-5.049855113029479980e-01
-8.538359999656677246e-01
-7.507210373878479004e-01
2.134680300951004028e-01
1.230001151561737061e-01
-4.787744581699371338e-01
-6.528688073158264160e-01
-2.673640549182891846e-01
3.280142843723297119e-01
-1.978760771453380585e-02
-1.702475175261497498e-02
-2.810931801795959473e-01
-1.553386300802230835e-01
5.526380240917205811e-02
8.090869337320327759e-02
-1.046132743358612061e-01
-3.219046592712402344e-01
-4.339212179183959961e-02
5.801106244325637817e-02
7.395620644092559814e-02
2.416852675378322601e-02
3.477362990379333496e-01
-6.887173652648925781e-02
-3.751897215843200684e-01
8.735391497611999512e-02
-3.251301944255828857e-01
2.624633908271789551e-01
6.669719815254211426e-01
-5.064603686332702637e-01
-1.398689448833465576e-01
6.428547203540802002e-02
9.106758236885070801e-02
8.059338927268981934e-01
-3.514260649681091309e-01
4.705581814050674438e-02
2.611838094890117645e-02
-2.287016622722148895e-02
8.628795295953750610e-02
3.230193853378295898e-01
-3.578230440616607666e-01
-1.442615836858749390e-01
-3.656519353389739990e-01
2.262630499899387360e-02
9.514371752738952637e-01
