-7.102769613265991211e-02
-3.176757097244262695e-01
4.722328484058380127e-01
1.992298811674118042e-01
8.931090831756591797e-01
-3.856818079948425293e-01
-3.718781471252441406e-01
-5.966275334358215332e-01
-4.095712602138519287e-01
-5.685446858406066895e-01
3.420552611351013184e-01
5.807119011878967285e-01
3.818790614604949951e-01
2.288786768913269043e-01
3.777616918087005615e-01
5.761596560478210449e-01
3.783535659313201904e-01
-6.687206029891967773e-02
3.296993374824523926e-01
7.323304563760757446e-02
4.140534624457359314e-02
4.688469693064689636e-02
5.334398895502090454e-02
-1.741101145744323730e-01
-4.334692284464836121e-02
3.731808960437774658e-01
1.528539657592773438e-01
2.975278794765472412e-01
8.911589384078979492e-01
2.796060740947723389e-01
4.460027441382408142e-02
1.443209350109100342e-01
6.846935153007507324e-01
-1.856821179389953613e-01
1.009082719683647156e-01
4.508827328681945801e-01
2.005196921527385712e-02
4.062563776969909668e-01
2.389016151428222656e-01
5.465908050537109375e-01
2.558831572532653809e-01
1.208315864205360413e-01
-7.172722369432449341e-02
-5.891795754432678223e-01
4.660548567771911621e-01
2.174373120069503784e-01
-3.853390216827392578e-01
-2.215524762868881226e-01
6.382741779088973999e-02
-5.716650933027267456e-02
6.937391757965087891e-01
-3.716251850128173828e-01
2.041128277778625488e-01
1.780839264392852783e-01
1.737656444311141968e-01
2.711175382137298584e-01
7.863329648971557617e-01
-3.306328654289245605e-01
9.585204720497131348e-02
1.065357029438018799e-01
7.912344485521316528e-02
-2.873543500900268555e-01
7.422283291816711426e-01
9.311561286449432373e-02
3.055628836154937744e-01
1.476578265428543091e-01
6.191822886466979980e-01
3.770686089992523193e-01
8.151378035545349121e-01
-1.427914053201675415e-01
8.804855495691299438e-02
4.635851383209228516e-01
-4.523368775844573975e-01
-4.975512996315956116e-02
6.625595688819885254e-01
-1.016028150916099548e-01
3.318772912025451660e-01
-1.463606357574462891e-01
1.172013878822326660e-01
3.895730972290039062e-01
1.621649116277694702e-01
6.471121311187744141e-02
1.992197036743164062e-01
2.404926270246505737e-01
-1.385280210524797440e-02
3.800760209560394287e-01
2.757290005683898926e-01
3.800186812877655029e-01
6.570477485656738281e-01
-5.697258114814758301e-01
-3.599363267421722412e-01
5.400092005729675293e-01
5.705455541610717773e-01
-1.927826553583145142e-01
-3.164358809590339661e-02
2.959250807762145996e-01
3.464668691158294678e-01
-2.120807766914367676e-01
-3.642998337745666504e-01
5.193510651588439941e-01
-2.389728277921676636e-01
-5.918908119201660156e-01
-1.399762183427810669e-01
1.182246953248977661e-01
5.006986260414123535e-01
-5.430995821952819824e-01
3.951824903488159180e-01
1.292112618684768677e-01
-1.664968766272068024e-02
-4.813276827335357666e-01
3.201123774051666260e-01
1.870380938053131104e-01
1.668918430805206299e-01
7.856430113315582275e-02
-4.298146963119506836e-01
-4.267065525054931641e-01
2.465046495199203491e-01
-1.477543860673904419e-01
-6.162312999367713928e-02
1.730378866195678711e-01
