5.681153014302253723e-02
1.389606040902435780e-03
-4.640934169292449951e-01
-6.813372671604156494e-02
-1.505205780267715454e-01
2.806960642337799072e-01
3.117534220218658447e-01
-1.478997617959976196e-01
1.953315436840057373e-01
-2.505425810813903809e-01
1.630096286535263062e-01
5.801767483353614807e-02
1.541894376277923584e-01
1.841990649700164795e-01
2.020727545022964478e-01
-1.575123369693756104e-01
8.332692086696624756e-02
4.804211203008890152e-03
-2.677486538887023926e-01
-2.039430439472198486e-01
-6.613647937774658203e-01
-2.696555852890014648e-01
2.697221338748931885e-01
6.873652935028076172e-01
-4.602745473384857178e-01
4.189844429492950439e-01
1.719078794121742249e-02
-6.131592988967895508e-01
1.912507414817810059e-01
5.129255652427673340e-01
-9.463782906532287598e-01
1.706433147192001343e-01
-2.098373770713806152e-01
4.026272147893905640e-02
-1.894418597221374512e-01
5.449404194951057434e-02
-1.970963180065155029e-01
4.561688303947448730e-01
-6.251618266105651855e-02
4.605550467967987061e-01
-3.931470513343811035e-01
-2.279001027345657349e-01
4.027655720710754395e-01
4.271064698696136475e-01
2.204960286617279053e-01
1.724771559238433838e-01
1.538608670234680176e-01
1.891079843044281006e-01
6.461525801569223404e-03
-3.260802924633026123e-01
2.874160706996917725e-01
-9.785537421703338623e-02
-7.394921779632568359e-01
7.342478632926940918e-02
-1.738207101821899414e+00
2.082042247056961060e-01
3.417385518550872803e-01
-1.003980159759521484e+00
-2.504014223814010620e-02
2.199025750160217285e-01
1.166029796004295349e-01
-4.977973401546478271e-01
1.805888265371322632e-01
-4.449706971645355225e-01
4.307568371295928955e-01
-3.306907787919044495e-02
-5.610423162579536438e-02
-2.024576961994171143e-01
1.103725060820579529e-01
1.313795655732974410e-04
-2.317405194044113159e-01
-2.125163748860359192e-02
8.373010754585266113e-01
3.572869896888732910e-01
3.870635032653808594e-01
-8.244001120328903198e-02
7.133424282073974609e-01
-7.548602819442749023e-01
2.110029160976409912e-01
1.651975065469741821e-01
6.243247985839843750e-01
1.734120249748229980e-01
1.686968654394149780e-01
1.281172782182693481e-01
-1.151181757450103760e-01
9.317417144775390625e-01
-6.973207592964172363e-01
-2.865007221698760986e-01
1.657537221908569336e-01
-1.223387956619262695e+00
-6.016640365123748779e-02
4.351386725902557373e-01
9.884302020072937012e-01
5.282314419746398926e-01
1.476721882820129395e+00
2.413904108107089996e-02
-2.514636516571044922e-01
-2.975368872284889221e-03
-1.449612021446228027e+00
1.311305880546569824e+00
-2.043233066797256470e-01
-1.089466571807861328e+00
-3.291882807388901711e-03
2.406175481155514717e-03
7.562533020973205566e-01
-6.489734649658203125e-01
-4.404307529330253601e-02
-3.517038822174072266e-01
6.565523743629455566e-01
-1.829739212989807129e-01
2.401569187641143799e-01
-2.812598943710327148e-01
5.926312208175659180e-01
8.756534010171890259e-02
-8.008198142051696777e-01
-1.041587591171264648e-01
1.537564635276794434e+00
-5.332903861999511719e-01
-7.247371077537536621e-01
-2.605400383472442627e-01
4.643049091100692749e-03
7.842420935630798340e-01
-1.725334972143173218e-01
5.273503065109252930e-01
-2.348346449434757233e-02
3.426853120326995850e-01
-1.096476912498474121e+00
8.644948601722717285e-01
2.875776290893554688e-01
-1.725162386894226074e+00
-2.683207094669342041e-01
-6.839854270219802856e-02
-8.813741616904735565e-03
3.347914516925811768e-01
-4.491074942052364349e-03
-3.791075348854064941e-01
-9.269955754280090332e-02
-4.128923639655113220e-02
1.479103267192840576e-01
6.567296981811523438e-01
-5.560594797134399414e-01
-3.903309255838394165e-02
3.530216962099075317e-02
4.883533418178558350e-01
2.214029580354690552e-01
1.530161201953887939e-01
-1.361701488494873047e-01
-3.414876759052276611e-01
-1.745913922786712646e-01
3.387426435947418213e-01
-4.123221710324287415e-02
2.854607105255126953e-01
-3.463729843497276306e-02
-1.111370325088500977e-01
7.802881598472595215e-01
4.782753288745880127e-01
2.764531075954437256e-01
2.775854170322418213e-01
4.708696007728576660e-01
-6.740682125091552734e-01
1.236338764429092407e-01
3.461253270506858826e-02
-8.004798889160156250e-01
6.618229150772094727e-01
-1.081053689122200012e-01
7.515819668769836426e-01
4.887095093727111816e-01
-3.462530970573425293e-01
2.080883085727691650e-01
6.681114435195922852e-01
-9.614310413599014282e-02
1.024911999702453613e+00
5.938128829002380371e-01
4.610849022865295410e-01
-1.200550556182861328e+00
1.367655098438262939e-01
-9.110782742500305176e-01
-3.123878240585327148e-01
-6.682547926902770996e-01
-1.037937626242637634e-01
-7.864064723253250122e-02
-3.612523674964904785e-01
-4.324880838394165039e-01
5.300752818584442139e-02
-8.413029462099075317e-02
-1.904755644500255585e-02
4.721667170524597168e-01
3.034118115901947021e-01
-2.865029871463775635e-01
5.512176752090454102e-01
-2.251796871423721313e-01
3.504812344908714294e-02
-5.849395990371704102e-01
-6.992505490779876709e-02
-7.032594680786132812e-01
4.238086938858032227e-01
-2.165597081184387207e-01
-7.261104136705398560e-02
-5.012483522295951843e-02
-1.095869764685630798e-01
-1.167916040867567062e-02
-2.814843058586120605e-01
1.208535552024841309e+00
-1.189018338918685913e-01
-3.151202797889709473e-01
-3.289434015750885010e-01
4.624160230159759521e-01
2.131668478250503540e-01
2.290876060724258423e-01
1.283467888832092285e+00
-7.120178546756505966e-03
-1.453454047441482544e-01
6.699330210685729980e-01
8.731181174516677856e-02
2.623089849948883057e-01
-9.652986377477645874e-02
4.285727161914110184e-03
1.362183392047882080e-01
-1.602618098258972168e+00
4.147892594337463379e-01
2.248107939958572388e-01
8.706519007682800293e-02
-7.180530577898025513e-02
5.824605226516723633e-01
-3.249256908893585205e-01
3.157800734043121338e-01
-2.314004674553871155e-02
6.101863384246826172e-01
6.441151499748229980e-01
2.453123033046722412e-01
-4.971502423286437988e-01
-6.891375035047531128e-02
-2.516684122383594513e-02
1.389502584934234619e-01
1.086107373237609863e+00
-3.185662031173706055e-01
-2.894033789634704590e-01
7.614754438400268555e-01
-3.387030214071273804e-02
-3.191121220588684082e-01
2.842969596385955811e-01
-1.914107613265514374e-02
-8.441944122314453125e-01
-1.960781775414943695e-02
-1.212640166282653809e+00
6.645159125328063965e-01
-8.437072038650512695e-01
-5.449931621551513672e-01
-3.302258253097534180e-01
2.303197681903839111e-01
9.066765010356903076e-02
-3.040469884872436523e-01
-3.107450902462005615e-01
1.003853157162666321e-01
6.593874692916870117e-01
-3.909024894237518311e-01
-3.975356519222259521e-01
4.554050862789154053e-01
-5.128406882286071777e-01
1.249900758266448975e-01
-5.665236711502075195e-02
-2.512690722942352295e-01
6.284795701503753662e-02
5.554484128952026367e-01
7.594017386436462402e-01
2.645882964134216309e-01
1.554223597049713135e-01
-3.121423721313476562e-01
8.517289534211158752e-03
6.752499341964721680e-01
7.249807119369506836e-01
4.185421764850616455e-01
-2.458148747682571411e-01
6.068676337599754333e-02
6.312227249145507812e-01
1.746653318405151367e-01
-3.959222733974456787e-01
5.400911569595336914e-01
1.266482621431350708e-01
6.373542547225952148e-01
1.513359397649765015e-01
-7.432656288146972656e-01
6.432035565376281738e-01
-1.249781027436256409e-01
5.392050743103027344e-01
1.538272351026535034e-01
-6.005596518516540527e-01
-1.792524755001068115e-01
-5.273039340972900391e-01
-7.494760751724243164e-01
-2.031539529561996460e-01
1.418622285127639771e-01
-2.615189552307128906e-01
2.174199521541595459e-01
-1.073227286338806152e+00
1.066725403070449829e-01
1.851856559514999390e-01
-3.553582429885864258e-01
-1.427133232355117798e-01
1.182047009468078613e+00
-5.635734274983406067e-02
2.230540812015533447e-01
2.774057984352111816e-01
2.389038056135177612e-01
1.983719617128372192e-01
-3.391296565532684326e-01
3.988315761089324951e-01
2.332983762025833130e-01
-1.366108953952789307e-01
-6.482339501380920410e-01
-4.057280719280242920e-01
1.226991713047027588e-01
-5.935125946998596191e-01
-5.731796622276306152e-01
4.494678080081939697e-01
1.614423692226409912e-01
6.294516324996948242e-01
3.268368542194366455e-01
2.076639682054519653e-01
3.880241215229034424e-01
3.593452274799346924e-01
-2.633442282676696777e-01
-8.583996891975402832e-01
3.773314654827117920e-01
-5.869643762707710266e-02
4.716191813349723816e-02
-1.197392269968986511e-01
-6.142258644104003906e-01
-9.486874938011169434e-02
-1.443306207656860352e-01
-5.284212902188301086e-02
4.106886386871337891e-01
2.804000675678253174e-01
1.408353149890899658e-01
3.368067741394042969e-01
1.506667137145996094e-01
-4.839364886283874512e-01
5.295453667640686035e-01
-3.991703093051910400e-01
2.125705331563949585e-01
4.563869535923004150e-01
-1.616538286209106445e+00
1.807144880294799805e-01
-5.617783069610595703e-01
8.263395726680755615e-02
-2.454510927200317383e-01
6.325760483741760254e-02
-4.083113670349121094e-01
1.771100759506225586e-01
-4.664466977119445801e-01
-4.899018704891204834e-01
-9.772078990936279297e-01
2.493549436330795288e-01
7.309032678604125977e-01
6.647978425025939941e-01
1.638500094413757324e-01
1.490264654159545898e+00
1.408813595771789551e-01
-5.133581757545471191e-01
-5.180484801530838013e-02
3.992048501968383789e-01
1.027500182390213013e-01
1.068636178970336914e-01
3.435954749584197998e-01
3.702707290649414062e-01
-3.016357719898223877e-01
1.331274062395095825e-01
1.345040351152420044e-01
-3.817293420433998108e-02
-2.367522418498992920e-01
-8.538378030061721802e-02
-5.368415117263793945e-01
-1.742012351751327515e-01
-5.542132854461669922e-01
4.749708622694015503e-02
4.760435521602630615e-01
-2.279157191514968872e-01
1.786756813526153564e-01
-3.837312459945678711e-01
3.615159392356872559e-01
8.085187077522277832e-01
1.238452456891536713e-02
-8.434932678937911987e-02
5.355122685432434082e-01
6.417891979217529297e-01
1.795001029968261719e-01
3.157048523426055908e-01
-5.366889834403991699e-01
-1.734952479600906372e-01
-2.394379675388336182e-01
-2.494274079799652100e-02
6.255166977643966675e-02
-7.083014119416475296e-03
-6.801451742649078369e-02
-5.158817768096923828e-01
4.809431731700897217e-01
9.685000181198120117e-01
1.449628360569477081e-02
1.273780763149261475e-01
-3.298951983451843262e-01
4.119425639510154724e-02
-5.126928538084030151e-02
7.031899094581604004e-01
2.205780297517776489e-01
5.492689013481140137e-01
-8.614268302917480469e-01
-2.062452398240566254e-02
5.654388070106506348e-01
-2.916743457317352295e-01
-4.590183198451995850e-01
-1.587081253528594971e-01
-2.184005826711654663e-02
-1.263363659381866455e-02
3.834528326988220215e-01
-3.040527999401092529e-01
-5.831553936004638672e-01
-8.108138293027877808e-02
-1.018927320837974548e-01
-5.001717805862426758e-01
1.075261756777763367e-01
-4.371025413274765015e-02
1.716744713485240936e-02
4.312290810048580170e-03
-1.544304043054580688e-01
-1.607876569032669067e-01
-3.658813536167144775e-01
5.069585442543029785e-01
7.773512005805969238e-01
-6.232596635818481445e-01
-4.398358464241027832e-01
-2.321616560220718384e-02
7.225422859191894531e-01
-5.261077284812927246e-01
2.446907460689544678e-01
3.896254301071166992e-01
7.087040543556213379e-01
-4.973673224449157715e-01
5.137230157852172852e-01
-3.369199931621551514e-01
5.285685062408447266e-01
-3.827259540557861328e-01
-1.200134456157684326e-01
-7.816005349159240723e-01
3.310315608978271484e-01
8.189629316329956055e-01
-2.152191102504730225e-01
-1.791854947805404663e-02
-2.487614005804061890e-02
6.251484751701354980e-01
-1.245733574032783508e-01
2.479016035795211792e-01
-1.351865530014038086e-01
7.175827026367187500e-02
-8.405629545450210571e-02
2.322736755013465881e-02
7.703664302825927734e-01
-1.475240439176559448e-01
4.490505754947662354e-01
7.352502942085266113e-01
4.282609820365905762e-01
-5.703011751174926758e-01
3.675939440727233887e-01
4.931921660900115967e-01
2.738460004329681396e-01
-6.683389842510223389e-02
6.485327333211898804e-02
1.094161495566368103e-01
-4.934594631195068359e-01
-3.145433068275451660e-01
3.547585606575012207e-01
-5.703897476196289062e-01
-4.601599276065826416e-01
3.440458327531814575e-02
3.618857860565185547e-01
6.854916810989379883e-01
-2.093650698661804199e-01
-8.987314701080322266e-01
-1.762698143720626831e-01
4.212870597839355469e-01
2.321538031101226807e-01
-4.064761996269226074e-01
-6.095408648252487183e-02
1.948697119951248169e-01
-1.857502162456512451e-01
1.015043929219245911e-01
2.901667263358831406e-03
-4.087789356708526611e-01
3.480907082557678223e-01
-2.403478026390075684e-01
7.095579504966735840e-01
4.194811284542083740e-01
4.644660651683807373e-01
-7.204793691635131836e-01
3.513074815273284912e-01
-2.423468977212905884e-02
3.418917357921600342e-01
3.199411630630493164e-01
-7.811248302459716797e-01
1.363058388233184814e-01
-7.848451137542724609e-01
-6.112403273582458496e-01
6.517966389656066895e-01
2.921296358108520508e-01
-7.883752137422561646e-02
-7.145847082138061523e-01
2.271005213260650635e-01
6.062023639678955078e-01
7.378590293228626251e-03
3.600111901760101318e-01
-2.805766165256500244e-01
-2.666865289211273193e-01
-5.007492899894714355e-01
2.253277897834777832e-01
4.035782217979431152e-01
-1.074856445193290710e-01
-3.859674334526062012e-01
-3.726641833782196045e-01
1.945641264319419861e-02
-1.183177828788757324e-01
6.399708241224288940e-02
-7.035916298627853394e-02
4.228290021419525146e-01
-2.630464732646942139e-01
1.302975714206695557e-01
-1.027260899543762207e+00
-5.684625729918479919e-02
1.001450717449188232e-01
4.652459621429443359e-01
8.620304465293884277e-01
-4.692561924457550049e-01
6.410636305809020996e-01
-3.769293427467346191e-01
4.365956187248229980e-01
-7.879094034433364868e-02
6.298118233680725098e-01
2.513616085052490234e-01
-4.385016486048698425e-02
1.120816990733146667e-01
3.497428596019744873e-01
-4.588387608528137207e-01
2.195114642381668091e-01
-1.104148626327514648e-01
4.301394820213317871e-01
-6.011248752474784851e-02
2.817941308021545410e-01
3.161472976207733154e-01
-2.808947265148162842e-01
1.465615481138229370e-01
2.311012744903564453e-01
8.260608315467834473e-01
-1.770835816860198975e-01
-1.546855829656124115e-02
2.086976766586303711e-01
5.707957148551940918e-01
-7.752113342285156250e-01
-6.665275096893310547e-01
3.958127647638320923e-02
-3.606866002082824707e-01
-5.089434385299682617e-01
-7.908475995063781738e-01
-2.720710262656211853e-02
1.794382929801940918e-01
1.072688698768615723e+00
-3.705838024616241455e-01
-5.304534435272216797e-01
5.446491837501525879e-01
2.632982134819030762e-01
-2.533022761344909668e-01
-1.621946841478347778e-01
4.198890924453735352e-01
-5.833500623703002930e-01
-1.099671006202697754e+00
6.119729205965995789e-02
1.078788638114929199e+00
-4.866372421383857727e-02
-2.001549452543258667e-01
-5.324557423591613770e-01
2.593059837818145752e-01
-2.942242026329040527e-01
3.108914196491241455e-01
6.505906581878662109e-02
2.598825097084045410e-01
1.355019807815551758e-01
6.542704701423645020e-01
2.364096604287624359e-02
5.245995894074440002e-02
1.942062526941299438e-01
6.488085389137268066e-01
-1.038509532809257507e-01
7.717822492122650146e-02
1.819117963314056396e-01
5.611435174942016602e-01
-2.896066606044769287e-01
-3.165185451507568359e-01
-4.075162112712860107e-01
-2.695898711681365967e-01
-3.752545118331909180e-01
9.987092018127441406e-02
-1.129340752959251404e-01
1.153937820345163345e-02
6.071783304214477539e-01
-1.153940930962562561e-01
-3.639720976352691650e-01
-2.594199776649475098e-01
4.310887679457664490e-02
6.302513480186462402e-01
9.202513098716735840e-01
-2.095529884099960327e-01
9.134742617607116699e-02
8.411952257156372070e-01
4.866680502891540527e-01
2.423072755336761475e-01
-7.259730100631713867e-01
-8.307463526725769043e-01
-1.065244004130363464e-01
-8.856946229934692383e-01
-1.000959038734436035e+00
6.747173517942428589e-02
-6.315565109252929688e-01
4.002295136451721191e-01
-4.184618964791297913e-02
4.539064168930053711e-01
-1.957429349422454834e-01
3.943690657615661621e-01
-2.764967083930969238e-02
-2.042704522609710693e-01
-8.392705321311950684e-01
-3.291339427232742310e-02
-4.161980152130126953e-01
1.042402088642120361e-01
3.954886496067047119e-01
-1.980618685483932495e-01
3.215502500534057617e-01
1.336314201354980469e+00
-3.168695569038391113e-01
-2.422787994146347046e-01
8.832252025604248047e-02
-3.153300285339355469e-01
2.379364669322967529e-01
1.527984347194433212e-02
1.559850666671991348e-02
-2.967402637004852295e-01
4.058122038841247559e-01
8.609669804573059082e-01
7.876495122909545898e-01
-1.462257057428359985e-01
-3.484704792499542236e-01
6.540569067001342773e-01
-5.694930553436279297e-01
-2.713125050067901611e-01
-4.699660837650299072e-01
5.667653307318687439e-02
6.643739342689514160e-01
-3.513736128807067871e-01
-8.924141526222229004e-02
-2.373832017183303833e-01
-4.120054543018341064e-01
4.005785584449768066e-01
1.216615915298461914e+00
5.648890733718872070e-01
1.821352839469909668e-01
2.521529197692871094e-01
-3.392415642738342285e-01
-6.421691179275512695e-02
7.077147364616394043e-01
1.588401794433593750e-01
-4.425632581114768982e-02
2.687343358993530273e-01
-6.715713739395141602e-01
-7.522465288639068604e-02
4.380114376544952393e-02
5.650531053543090820e-01
-8.165669441223144531e-01
3.037317469716072083e-02
-9.708174318075180054e-02
-1.215196996927261353e-01
1.079820543527603149e-01
6.003959178924560547e-01
-2.595356106758117676e-01
1.334734857082366943e-01
2.165787070989608765e-01
2.679517865180969238e-01
-4.948374629020690918e-02
3.142815232276916504e-01
-1.074946075677871704e-01
3.305930495262145996e-01
-3.995994925498962402e-01
2.756204307079315186e-01
2.970061898231506348e-01
-2.592144310474395752e-01
2.291130572557449341e-01
-1.189577430486679077e-01
1.275545209646224976e-01
3.842856287956237793e-01
8.395035266876220703e-01
2.371685653924942017e-01
-2.407386898994445801e-01
-2.443786151707172394e-02
1.101080060005187988e+00
-3.083159029483795166e-01
2.651556730270385742e-01
-7.014448642730712891e-01
9.270544648170471191e-01
4.591203331947326660e-01
2.726843953132629395e-01
3.048855066299438477e-01
2.489547245204448700e-02
-7.452263832092285156e-01
1.537469625473022461e-01
2.240009903907775879e-01
4.736246764659881592e-01
-2.313942611217498779e-01
2.431728839874267578e-01
-4.307567179203033447e-01
5.277464911341667175e-02
5.536383390426635742e-01
2.550841867923736572e-01
1.291481107473373413e-01
-4.030094146728515625e-01
-1.230008378624916077e-01
1.940417736768722534e-01
1.493956595659255981e-01
3.767497241497039795e-01
8.686038255691528320e-01
4.786742478609085083e-02
6.451619267463684082e-01
6.793928146362304688e-01
7.268030941486358643e-02
-1.831471920013427734e-01
-6.106131672859191895e-01
8.684772253036499023e-02
-6.579352915287017822e-02
3.138608038425445557e-01
-4.903475046157836914e-01
1.212401967495679855e-02
4.005517661571502686e-01
-1.045437812805175781e+00
-5.074242502450942993e-02
1.345441579818725586e+00
-1.578587591648101807e-01
1.515997052192687988e+00
8.399915695190429688e-02
-2.652861736714839935e-02
-3.366705402731895447e-02
3.842599093914031982e-01
-3.798861056566238403e-02
-9.009860157966613770e-01
-3.651406764984130859e-01
-5.746842622756958008e-01
7.070732116699218750e-02
-1.316642165184020996e-01
-2.055007219314575195e-01
-1.754009574651718140e-01
2.825722098350524902e-02
9.754084050655364990e-02
-4.265080690383911133e-01
7.830752730369567871e-01
-2.381555587053298950e-01
2.717444300651550293e-01
-3.698244094848632812e-01
-6.386731863021850586e-01
-2.327195703983306885e-01
7.395774126052856445e-02
-3.779470920562744141e-01
2.603089064359664917e-02
-3.628963530063629150e-01
-3.771816492080688477e-01
-8.561757206916809082e-01
2.737218439579010010e-01
4.143067300319671631e-01
-1.823594421148300171e-01
6.670736670494079590e-01
-1.195575371384620667e-01
7.637853175401687622e-02
6.142602562904357910e-01
4.225803166627883911e-02
2.951853573322296143e-01
1.304453849792480469e+00
-6.224093437194824219e-01
4.366354048252105713e-01
1.008512750267982483e-01
6.201357841491699219e-01
8.930983394384384155e-02
-3.820646703243255615e-01
7.447643280029296875e-01
-3.108807206153869629e-01
-4.044986069202423096e-01
-3.448728322982788086e-01
-1.934782713651657104e-01
-3.838379383087158203e-01
-2.811141908168792725e-01
1.100183874368667603e-01
-2.613315582275390625e-01
-1.098153710365295410e+00
-5.219428539276123047e-01
3.791486024856567383e-01
-2.069090306758880615e-01
-1.476484984159469604e-01
-1.837775707244873047e-01
-3.826829493045806885e-01
3.372109234333038330e-01
1.502857059240341187e-01
-2.381403446197509766e-01
-2.784984409809112549e-01
3.121223859488964081e-02
-5.698663368821144104e-02
-3.109426796436309814e-01
2.444017380475997925e-01
-3.283396065235137939e-01
6.327638626098632812e-01
-1.547020196914672852e+00
-4.043161273002624512e-01
2.499000579118728638e-01
1.485006064176559448e-01
-3.148735687136650085e-02
-1.326452195644378662e-01
-3.229914903640747070e-01
2.069644182920455933e-01
6.241654753684997559e-01
2.399289235472679138e-02
5.632348060607910156e-01
1.419602274894714355e+00
4.724893867969512939e-01
4.365420341491699219e-01
3.266196548938751221e-01
1.589847505092620850e-01
-5.014196783304214478e-02
-7.244382500648498535e-01
-3.251205980777740479e-01
5.015058517456054688e-01
1.748685725033283234e-02
4.056727290153503418e-01
-6.678433157503604889e-03
5.968669056892395020e-01
1.123814433813095093e-01
-4.066179692745208740e-01
2.090659588575363159e-01
-2.234882712364196777e-01
7.909991145133972168e-01
7.413967698812484741e-02
7.167356461286544800e-02
-3.928306400775909424e-01
-2.579105496406555176e-01
-2.597953379154205322e-01
7.021680474281311035e-01
-4.271278679370880127e-01
2.613776028156280518e-01
-4.080885648727416992e-02
-1.261767745018005371e-01
6.617635488510131836e-01
-4.559303522109985352e-01
4.317038655281066895e-01
-1.039018183946609497e-01
3.855704665184020996e-01
1.041172295808792114e-01
3.356493413448333740e-01
-3.479235768318176270e-01
-6.482264399528503418e-01
3.109090588986873627e-02
-2.390229851007461548e-01
-2.712855041027069092e-01
-8.011074066162109375e-01
7.545243501663208008e-01
2.801804617047309875e-02
1.343976408243179321e-01
-1.385331451892852783e-01
4.700889065861701965e-02
-7.257359623908996582e-01
-4.099621623754501343e-02
-2.939561009407043457e-01
9.343155622482299805e-01
5.352790355682373047e-01
8.090437054634094238e-01
-5.289093255996704102e-01
1.549878716468811035e-01
-4.754033684730529785e-01
-5.450869798660278320e-01
2.945375144481658936e-01
-4.027929902076721191e-01
3.521587252616882324e-01
-2.070602774620056152e-01
7.464016079902648926e-01
7.841923832893371582e-01
-5.941799283027648926e-01
4.351468682289123535e-01
3.469892963767051697e-02
1.079579234123229980e+00
2.273657321929931641e-01
4.665513336658477783e-01
2.517806291580200195e-01
3.907294273376464844e-01
1.011339873075485229e-01
8.638889193534851074e-01
3.000147407874464989e-03
1.639069914817810059e-01
3.472622334957122803e-01
2.341671586036682129e-01
-3.153417706489562988e-01
5.371879786252975464e-02
2.024411112070083618e-01
-4.637570381164550781e-01
-6.363227963447570801e-01
4.615125805139541626e-02
1.566497981548309326e-01
2.357175201177597046e-01
-3.874982893466949463e-02
-1.618303954601287842e-01
1.423102170228958130e-01
1.179418563842773438e-01
-2.972178757190704346e-01
-4.369698166847229004e-01
-8.853679299354553223e-01
-3.475683927536010742e-02
1.101261258125305176e+00
4.943249523639678955e-01
-5.491706728935241699e-01
7.660199403762817383e-01
2.168230712413787842e-01
-8.261080086231231689e-02
3.720477521419525146e-01
-2.660007178783416748e-01
4.071892499923706055e-01
9.190665483474731445e-01
-5.518342833966016769e-03
-5.438184142112731934e-01
1.437639832496643066e+00
-5.614049434661865234e-01
4.880843460559844971e-01
1.741302013397216797e-01
-2.492464520037174225e-02
3.754162490367889404e-01
-7.348420470952987671e-02
2.356750369071960449e-01
6.442599743604660034e-02
-6.397085189819335938e-01
2.353974282741546631e-01
5.831924453377723694e-02
-4.052039682865142822e-01
-1.647810935974121094e-01
4.854045808315277100e-01
-1.672083735466003418e+00
-4.950294792652130127e-01
4.336632192134857178e-01
-1.389943808317184448e-01
3.857028186321258545e-01
9.579492732882499695e-03
6.913102418184280396e-02
5.932606458663940430e-01
-5.316657945513725281e-02
6.946110725402832031e-02
-3.912529721856117249e-02
-5.044444799423217773e-01
-5.282904952764511108e-02
2.487979829311370850e-01
-3.853702545166015625e-01
-5.699410662055015564e-02
-2.277543097734451294e-01
-2.964534163475036621e-01
-9.820784628391265869e-02
2.379389554262161255e-01
-1.337490230798721313e-01
4.977440088987350464e-02
3.869163570925593376e-03
1.031403895467519760e-02
-7.666859775781631470e-02
1.070733547210693359e+00
-5.052214264869689941e-01
2.988845109939575195e-01
3.314093351364135742e-01
6.500180810689926147e-02
2.001339010894298553e-02
-6.915923207998275757e-02
9.318205714225769043e-01
6.468936800956726074e-02
-1.388040482997894287e-01
3.712231814861297607e-01
-2.358478121459484100e-02
-4.922756552696228027e-01
-4.180992841720581055e-01
-3.323172628879547119e-01
7.595043778419494629e-01
2.122270464897155762e-01
-4.072502627968788147e-02
-4.154205322265625000e-01
-4.405241608619689941e-01
8.850564956665039062e-01
-2.061525732278823853e-01
-5.642837882041931152e-01
6.214686483144760132e-02
-6.953607797622680664e-01
-1.521449983119964600e-01
-2.737952470779418945e-01
-1.639800965785980225e-01
2.304964959621429443e-01
4.670216739177703857e-01
-1.598990708589553833e-01
2.665801942348480225e-01
3.909277915954589844e-01
-2.830449044704437256e-01
-3.809508681297302246e-01
-2.511475980281829834e-01
1.477845828048884869e-03
9.728646874427795410e-01
4.990939795970916748e-01
1.000038608908653259e-01
5.200511217117309570e-01
2.150695621967315674e-01
-2.880030274391174316e-01
3.027211129665374756e-01
-3.438146710395812988e-01
4.979958534240722656e-01
-4.112943112850189209e-01
3.090370595455169678e-01
-1.590136885643005371e-01
2.270318418741226196e-01
1.817993819713592529e-01
-1.540119171142578125e+00
-2.323528826236724854e-01
3.012572526931762695e-01
-5.599468350410461426e-01
-1.530746649950742722e-02
3.703041672706604004e-01
-1.515937596559524536e-01
-4.716391563415527344e-01
2.320633381605148315e-01
1.242188885807991028e-01
-1.141008883714675903e-01
-1.147120356559753418e+00
5.696101188659667969e-01
-1.131974235177040100e-01
-3.336785361170768738e-02
-1.190707758069038391e-01
-6.385872364044189453e-01
-1.974180340766906738e-01
-9.701427221298217773e-01
-5.044129863381385803e-02
1.082855939865112305e+00
-5.322400927543640137e-01
9.186710119247436523e-01
-5.025378987193107605e-02
-1.958245337009429932e-01
5.961872339248657227e-01
5.450620055198669434e-01
2.873637154698371887e-02
5.077716894447803497e-03
4.599467813968658447e-01
-5.922057628631591797e-01
-1.214675083756446838e-01
-1.414774917066097260e-02
-1.524742096662521362e-01
-2.431050091981887817e-01
3.084873557090759277e-01
6.038206219673156738e-01
5.171548724174499512e-01
4.021707773208618164e-01
6.464629173278808594e-01
-2.926941215991973877e-01
-5.954282879829406738e-01
-2.148739844560623169e-01
8.462651968002319336e-01
-6.921239942312240601e-02
-6.323543787002563477e-01
-2.502323985099792480e-01
-1.571106016635894775e-01
5.324494838714599609e-01
-2.765377052128314972e-02
1.632552295923233032e-01
-2.294403016567230225e-01
-6.992260366678237915e-02
3.723671138286590576e-01
4.792020618915557861e-01
-1.781303808093070984e-02
1.630682349205017090e-01
3.805542588233947754e-01
-7.337549924850463867e-01
2.209283970296382904e-02
2.020396105945110321e-02
-1.231251209974288940e-01
1.177863031625747681e-01
1.212844401597976685e-01
6.084484234452247620e-02
7.151363790035247803e-02
4.138827621936798096e-01
3.933117985725402832e-01
-7.492470741271972656e-02
3.077772855758666992e-01
-8.779487609863281250e-01
5.971672944724559784e-03
4.156807661056518555e-01
7.571100443601608276e-02
2.224288284778594971e-01
-4.696653783321380615e-01
-2.807155251502990723e-01
6.897370517253875732e-02
1.982658654451370239e-01
-1.561853010207414627e-02
2.460168153047561646e-01
2.038100808858871460e-01
1.914961612783372402e-03
-7.254762202501296997e-02
-3.200092613697052002e-01
-6.440269947052001953e-01
5.779539942741394043e-01
5.756374597549438477e-01
-3.689956068992614746e-01
4.867551326751708984e-01
8.917372226715087891e-01
-6.662679910659790039e-01
1.182180270552635193e-02
-4.626269340515136719e-01
-2.997403144836425781e-01
-8.107067346572875977e-01
-4.765633344650268555e-01
-1.103263348340988159e-01
-1.267384141683578491e-01
-1.420319378376007080e-01
1.457646489143371582e-01
-3.382513225078582764e-01
2.098657339811325073e-01
2.348931431770324707e-01
-1.222296804189682007e-01
1.044296503067016602e+00
4.454254806041717529e-01
9.631841182708740234e-01
1.243705153465270996e-01
3.300742805004119873e-02
-9.226834774017333984e-02
8.910978436470031738e-01
-2.847671210765838623e-01
2.074692726135253906e+00
-3.953608572483062744e-01
-5.687606930732727051e-01
-4.056228697299957275e-01
6.084733083844184875e-02
9.297607094049453735e-02
1.029981207102537155e-02
-5.370835065841674805e-01
-2.494730800390243530e-01
-7.719824314117431641e-01
-2.145522385835647583e-01
3.082508742809295654e-01
3.796796128153800964e-02
1.119974404573440552e-01
-1.386990547180175781e-01
-1.664293855428695679e-01
-4.572821781039237976e-02
-5.318794250488281250e-01
6.951222661882638931e-03
-1.938387304544448853e-01
-1.280857622623443604e-02
6.353908777236938477e-01
-4.001004621386528015e-02
-6.748507022857666016e-01
5.923990011215209961e-01
-5.844272971153259277e-01
-2.644753456115722656e-01
1.951968818902969360e-01
1.220677345991134644e-01
2.940993607044219971e-01
-1.881888210773468018e-01
-4.951335489749908447e-01
2.753865122795104980e-01
-5.287593603134155273e-01
1.561003774404525757e-01
3.319284319877624512e-02
-1.411964744329452515e-01
-7.205905914306640625e-01
-6.222869753837585449e-01
8.162305951118469238e-01
5.592231824994087219e-02
7.126254439353942871e-01
-8.745099902153015137e-01
7.226496338844299316e-01
-5.248138904571533203e-01
-2.753883004188537598e-01
1.098401546478271484e+00
-4.450048133730888367e-02
-3.064287006855010986e-01
-2.007202059030532837e-01
3.301994502544403076e-01
3.364898860454559326e-01
-1.055030748248100281e-01
6.971368789672851562e-01
-2.699872292578220367e-02
-5.620846748352050781e-01
6.741424202919006348e-01
4.804817140102386475e-01
-9.466119855642318726e-02
-2.470821738243103027e-01
-4.423650503158569336e-01
6.740953028202056885e-02
2.773334980010986328e-01
1.629370748996734619e-01
5.101479887962341309e-01
-6.970651447772979736e-02
-4.010786712169647217e-01
-6.596668362617492676e-01
-4.163565933704376221e-01
3.862819373607635498e-01
3.546138405799865723e-01
-9.475586563348770142e-02
7.862840294837951660e-01
1.157305240631103516e+00
3.209489881992340088e-01
4.836535155773162842e-01
-6.537147164344787598e-01
-5.447733998298645020e-01
6.118451356887817383e-01
-3.148164749145507812e-01
-4.124038517475128174e-01
-8.325482159852981567e-02
-4.129457771778106689e-01
8.297424316406250000e-01
2.982526123523712158e-01
1.038464680314064026e-01
-5.234043672680854797e-02
4.692552089691162109e-01
-3.514633476734161377e-01
1.022574901580810547e+00
5.210378766059875488e-01
-8.338427543640136719e-01
1.716459244489669800e-01
2.475605607032775879e-01
2.756391465663909912e-01
3.276295661926269531e-01
-1.371649503707885742e-01
-3.554412424564361572e-01
-1.184286456555128098e-02
-2.642400264739990234e-01
-2.287898957729339600e-02
-2.761367857456207275e-01
-1.723349094390869141e-01
-9.568671882152557373e-02
-3.274786174297332764e-01
-4.631402194499969482e-01
3.897916376590728760e-01
8.195063471794128418e-01
-1.021672263741493225e-01
1.929381489753723145e-01
-1.055327057838439941e+00
-4.637748301029205322e-01
3.893046379089355469e-01
-9.086992144584655762e-01
6.511672139167785645e-01
1.552831530570983887e-01
-5.004766210913658142e-02
1.353708095848560333e-02
4.409686625003814697e-01
1.096865907311439514e-01
-4.101194441318511963e-02
2.214502170681953430e-02
4.542167186737060547e-01
3.111543357372283936e-01
4.907003045082092285e-01
7.269222736358642578e-01
2.240664809942245483e-01
7.774500250816345215e-01
7.796683311462402344e-01
-8.609413504600524902e-01
-4.830806255340576172e-01
6.594201922416687012e-02
1.031186897307634354e-02
4.813464879989624023e-01
-1.130372732877731323e-01
8.724504709243774414e-02
-2.723926901817321777e-01
2.188249230384826660e-01
1.465848386287689209e-01
-5.944581031799316406e-01
3.136108815670013428e-01
1.825277656316757202e-01
4.848719239234924316e-01
-2.611910104751586914e-01
-3.205344974994659424e-01
-4.222484230995178223e-01
5.886715650558471680e-01
-4.822389483451843262e-01
1.883787810802459717e-01
-6.261011362075805664e-01
-3.148059248924255371e-01
-3.329696133732795715e-02
-3.394347727298736572e-01
-1.284568943083286285e-02
1.293366104364395142e-01
3.140441179275512695e-01
-6.588522195816040039e-01
-9.950553625822067261e-02
-5.850380659103393555e-01
2.550210952758789062e-01
-1.122135296463966370e-02
8.602561354637145996e-01
-1.007784008979797363e+00
3.963205218315124512e-02
-4.305952787399291992e-01
1.920296102762222290e-01
1.257749199867248535e-01
3.033845126628875732e-01
-3.028948307037353516e-01
1.064417362213134766e+00
3.125524818897247314e-01
5.433011054992675781e-01
7.835947275161743164e-01
-2.249331027269363403e-01
1.073184981942176819e-01
-5.297492146492004395e-01
2.349408119916915894e-01
3.718510270118713379e-01
-3.718699812889099121e-01
7.660449296236038208e-02
1.869416385889053345e-01
-1.881740801036357880e-02
1.427271664142608643e-01
-1.632101386785507202e-01
-8.725373446941375732e-02
1.378651857376098633e-01
-6.260630488395690918e-02
-8.216038346290588379e-01
2.056968212127685547e-01
-6.244133114814758301e-01
1.790220141410827637e-01
-1.289391815662384033e-01
-1.497711706906557083e-02
-1.015141513198614120e-02
5.647844076156616211e-01
-1.204825758934020996e+00
4.270989894866943359e-01
6.770134568214416504e-01
1.603659391403198242e-01
4.290332794189453125e-01
-6.169298291206359863e-01
7.691463083028793335e-02
-5.117492079734802246e-01
1.056711673736572266e+00
-8.818600177764892578e-01
-1.086475327610969543e-01
-2.887719273567199707e-01
-5.324934124946594238e-01
2.025421708822250366e-02
3.349992930889129639e-01
7.432399392127990723e-01
9.154213666915893555e-01
5.206981301307678223e-01
-4.252009093761444092e-01
4.957145750522613525e-01
2.928345799446105957e-01
2.943067252635955811e-01
-5.726171731948852539e-01
-3.095485568046569824e-01
-2.137699723243713379e-01
5.451523065567016602e-01
-3.695666790008544922e-01
2.956449091434478760e-01
-8.123853802680969238e-01
5.180672407150268555e-01
-2.390940859913825989e-02
5.678138136863708496e-01
7.923632860183715820e-02
3.137850165367126465e-01
-4.730393886566162109e-01
3.275899887084960938e-01
-3.383777737617492676e-01
-5.016191005706787109e-01
8.959282040596008301e-01
8.905016779899597168e-01
5.826792120933532715e-01
2.643952369689941406e-01
4.078440368175506592e-01
2.049970328807830811e-01
-4.164048135280609131e-01
-2.206070721149444580e-02
-1.687386035919189453e-01
-5.086260437965393066e-01
-8.270242065191268921e-02
-1.674538105726242065e-02
-7.628092914819717407e-02
-2.721752272918820381e-03
-4.883456826210021973e-01
-2.636370658874511719e-01
5.478993654251098633e-01
-2.746450901031494141e-01
-7.925323843955993652e-01
3.150833845138549805e-01
-3.059991598129272461e-01
5.337468534708023071e-02
4.731422662734985352e-01
3.337202370166778564e-01
3.177378475666046143e-01
-2.408503592014312744e-01
-6.020874381065368652e-01
-4.515894949436187744e-01
-2.425415962934494019e-01
2.126786261796951294e-01
1.798948645591735840e-01
-2.118533104658126831e-01
-3.721366170793771744e-03
5.540119409561157227e-01
-1.893144217319786549e-03
-2.268034666776657104e-01
6.684135198593139648e-01
1.294274926185607910e-01
2.662491202354431152e-01
-1.288271397352218628e-01
-5.529766082763671875e-01
-1.672281175851821899e-01
6.875574588775634766e-01
5.332082882523536682e-02
-2.906897664070129395e-01
-1.169443204998970032e-01
4.722208157181739807e-02
8.444762229919433594e-02
-2.647116780281066895e-01
7.557635903358459473e-01
-3.435528874397277832e-01
-5.894739031791687012e-01
5.029923319816589355e-01
1.777419596910476685e-01
6.583600491285324097e-02
5.742074251174926758e-01
8.165723085403442383e-02
3.645732104778289795e-01
6.034428477287292480e-01
-4.016935229301452637e-01
-1.038018763065338135e-01
1.556428223848342896e-01
2.330514043569564819e-01
2.843438982963562012e-01
-4.692960977554321289e-01
-5.007676482200622559e-01
3.413842990994453430e-02
1.295689046382904053e-01
4.907874763011932373e-02
-4.295935481786727905e-02
3.767280876636505127e-01
4.414312541484832764e-01
5.477332472801208496e-01
-8.372198790311813354e-03
2.833732068538665771e-01
-8.740342259407043457e-01
3.792466223239898682e-01
3.076910674571990967e-01
-6.593236327171325684e-01
3.973514437675476074e-01
3.488623797893524170e-01
-2.453576922416687012e-01
-5.860250815749168396e-02
7.164413332939147949e-01
-1.155544281005859375e+00
6.740053296089172363e-01
5.404804944992065430e-01
-7.804198861122131348e-01
2.683610618114471436e-01
-4.671657085418701172e-01
8.212025165557861328e-01
2.603080868721008301e-01
-5.104600787162780762e-01
-1.332408636808395386e-01
-4.210434556007385254e-01
3.235932439565658569e-02
3.348614275455474854e-01
-2.668443880975246429e-02
-4.593263864517211914e-01
1.723586022853851318e-01
1.626470685005187988e-01
4.895416200160980225e-01
7.828921675682067871e-01
1.668399125337600708e-01
-5.345264077186584473e-01
6.698137521743774414e-02
-3.169776797294616699e-01
4.773267731070518494e-02
4.370175600051879883e-01
1.589638143777847290e-01
1.768386662006378174e-01
2.967598736286163330e-01
2.615414261817932129e-01
-2.227221578359603882e-01
-4.972956702113151550e-02
-6.594391912221908569e-02
3.962321579456329346e-01
-3.022729456424713135e-01
-2.642391920089721680e-01
2.291389703750610352e-01
-4.445097446441650391e-01
4.930395781993865967e-01
-2.243576645851135254e-01
3.983708024024963379e-01
3.790451958775520325e-02
-3.362661302089691162e-01
1.824911981821060181e-01
7.105992436408996582e-01
1.459826827049255371e-01
1.827413141727447510e-01
1.052207231521606445e+00
8.768283128738403320e-01
-8.468605279922485352e-01
-2.519311904907226562e-01
-4.974965453147888184e-01
1.378713101148605347e-01
1.981112360954284668e-01
3.107161074876785278e-02
-1.790447831153869629e-01
3.672473728656768799e-01
-4.185476303100585938e-01
4.887317121028900146e-01
-3.250816166400909424e-01
5.915869474411010742e-01
2.265617400407791138e-01
2.849137037992477417e-02
2.043307386338710785e-02
2.619560360908508301e-01
6.182479858398437500e-02
4.849815368652343750e-01
-1.329150199890136719e+00
-1.125663146376609802e-01
-6.255717277526855469e-01
7.244111895561218262e-01
-6.436417102813720703e-01
8.798401057720184326e-02
1.212882474064826965e-01
-3.747448325157165527e-01
2.879035100340843201e-02
-3.366048932075500488e-01
9.599782228469848633e-01
8.579045534133911133e-02
-2.372293472290039062e-01
-5.045683383941650391e-01
5.546618103981018066e-01
-7.528515905141830444e-02
-1.878940016031265259e-01
-1.268509402871131897e-02
-2.065890468657016754e-03
3.493061065673828125e-01
4.847222864627838135e-01
5.749619603157043457e-01
1.192085266113281250e+00
2.358486652374267578e-01
-2.077774703502655029e-01
-2.261107265949249268e-01
-6.758540272712707520e-01
4.137772321701049805e-01
7.075882554054260254e-01
-8.077840805053710938e-01
3.994792401790618896e-01
9.714999198913574219e-01
-3.448663651943206787e-01
7.518725991249084473e-01
3.365039527416229248e-01
3.456155657768249512e-01
5.479656904935836792e-02
-1.271547377109527588e-01
-3.219046816229820251e-02
6.439321488142013550e-02
3.487066626548767090e-01
-3.682659566402435303e-01
1.383080840110778809e+00
-2.837919592857360840e-01
8.075236529111862183e-02
6.821634173393249512e-01
-6.942898035049438477e-01
5.930981040000915527e-02
-7.568033039569854736e-02
-3.586466610431671143e-01
2.943302690982818604e-01
2.507377229630947113e-02
-4.746822118759155273e-01
-7.617315649986267090e-02
-5.251433849334716797e-01
-1.217535696923732758e-02
-3.564384877681732178e-01
4.705105721950531006e-01
-4.778808951377868652e-01
3.354659378528594971e-01
-9.061274677515029907e-02
-1.281282544136047363e+00
1.333459466695785522e-01
1.408108472824096680e-01
-5.048941075801849365e-02
4.489989876747131348e-01
-8.632637262344360352e-01
5.149155259132385254e-01
1.168585121631622314e-01
-1.401682347059249878e-01
3.716189861297607422e-01
-3.124475479125976562e-02
5.606325864791870117e-01
3.392905741930007935e-02
-6.061330437660217285e-01
-2.897343039512634277e-01
1.993503235280513763e-02
-9.272111058235168457e-01
7.985894083976745605e-01
1.870481222867965698e-01
3.598805069923400879e-01
-9.005712866783142090e-01
2.486571967601776123e-01
4.358439147472381592e-01
5.126353502273559570e-01
1.402795221656560898e-02
-6.726554036140441895e-02
5.358998179435729980e-01
-7.999179959297180176e-01
-5.192122980952262878e-02
1.145696520805358887e+00
4.921838343143463135e-01
2.593480050563812256e-01
-1.736050844192504883e-01
1.178987249732017517e-01
9.682619571685791016e-02
-2.191129028797149658e-01
-4.128957092761993408e-01
6.281433254480361938e-02
9.336428046226501465e-01
6.956330537796020508e-01
4.277906417846679688e-01
-1.979512721300125122e-01
-5.708359181880950928e-02
1.579637289047241211e+00
7.048062086105346680e-01
5.906763076782226562e-01
8.504894971847534180e-01
1.476380228996276855e-01
-3.141201138496398926e-01
1.774660497903823853e-02
3.985488787293434143e-02
-1.363958418369293213e-01
-8.108405470848083496e-01
1.784690022468566895e-01
-1.716521382331848145e-01
3.972155451774597168e-01
-1.096304893493652344e+00
-3.863955438137054443e-01
9.557483345270156860e-02
9.822824597358703613e-02
-3.961625993251800537e-01
2.966915369033813477e-01
4.250758886337280273e-01
1.825629770755767822e-01
6.226162314414978027e-01
-4.483483135700225830e-01
5.536568164825439453e-01
-1.672485768795013428e-01
7.144360244274139404e-02
-4.873273372650146484e-01
3.223705291748046875e-01
-7.686739414930343628e-02
3.329779207706451416e-01
-3.363467752933502197e-01
-9.405833669006824493e-03
1.877316236495971680e-01
1.059546694159507751e-02
1.153245568275451660e-01
-4.426794648170471191e-01
-5.195494294166564941e-01
-8.556488901376724243e-02
-2.417851924896240234e+00
1.879603117704391479e-01
7.578957080841064453e-02
-3.224928081035614014e-01
6.708332896232604980e-01
8.382777869701385498e-02
2.443034946918487549e-01
6.795747876167297363e-01
9.173977375030517578e-01
2.152252197265625000e-02
1.438220590353012085e-01
-3.233295679092407227e-01
1.811316609382629395e-01
5.396569967269897461e-01
-1.935221701860427856e-01
-1.165595650672912598e-01
-4.845663160085678101e-02
-4.907177686691284180e-01
-1.346694976091384888e-01
4.091655313968658447e-01
3.956419229507446289e-02
2.416719682514667511e-02
-1.188823580741882324e+00
1.419556587934494019e-01
1.166082262992858887e+00
-3.211863040924072266e-01
6.138260662555694580e-02
-1.617093384265899658e-01
-9.095044136047363281e-01
-2.668064236640930176e-01
8.187003433704376221e-02
5.210907012224197388e-02
5.936442017555236816e-01
-4.913692772388458252e-01
-1.779201924800872803e-01
3.567676842212677002e-01
-1.818254888057708740e-01
-4.886899888515472412e-01
-4.747015535831451416e-01
-6.414242386817932129e-01
-2.796769142150878906e-01
-2.202501744031906128e-01
1.427191644906997681e-01
-2.344468384981155396e-01
-3.365142345428466797e-01
2.741169333457946777e-01
4.053811132907867432e-01
-3.643417060375213623e-01
-5.099267885088920593e-02
3.390591442584991455e-01
1.138723790645599365e-01
9.805232286453247070e-02
-2.306969091296195984e-02
3.769875466823577881e-01
2.008873037993907928e-03
8.382849097251892090e-01
2.767785489559173584e-01
3.801957368850708008e-01
-2.864110171794891357e-01
-1.160336774773895741e-03
-3.423015177249908447e-01
5.878943204879760742e-01
6.977469921112060547e-01
-9.767298400402069092e-02
1.136232987046241760e-01
-6.016560364514589310e-04
-2.082002758979797363e-01
-2.102364301681518555e-01
8.371157050132751465e-01
-4.118469059467315674e-01
-2.356999665498733521e-01
-7.214685082435607910e-01
1.587850451469421387e-01
5.239045619964599609e-01
-7.754877209663391113e-01
2.580945193767547607e-01
3.719203174114227295e-02
3.488790392875671387e-01
4.774271249771118164e-01
-4.110505804419517517e-02
-3.431895282119512558e-03
-5.066787600517272949e-01
3.765470907092094421e-02
2.248385995626449585e-01
3.831625282764434814e-01
2.515754103660583496e-01
-2.757207751274108887e-01
2.171103060245513916e-01
7.056284695863723755e-02
3.900469541549682617e-01
-1.582440584897994995e-01
-4.973551928997039795e-01
4.453000426292419434e-01
-1.038288995623588562e-01
-7.361495494842529297e-01
-3.160327672958374023e-01
1.201814040541648865e-01
3.159458041191101074e-01
-5.051079988479614258e-01
1.711226999759674072e-01
6.048612594604492188e-01
5.859209299087524414e-01
3.184292018413543701e-01
5.516858100891113281e-01
-7.581881284713745117e-01
3.283230960369110107e-01
-6.360998749732971191e-02
-3.065581321716308594e-01
-4.248384237289428711e-01
2.898911237716674805e-01
1.104887500405311584e-01
9.238141775131225586e-02
-4.621134102344512939e-01
-6.275501847267150879e-01
2.681492269039154053e-01
2.283271402120590210e-01
6.057758927345275879e-01
-1.197271570563316345e-01
-4.340808987617492676e-01
-1.097092390060424805e+00
7.894898653030395508e-01
3.516327440738677979e-01
5.560399293899536133e-01
9.006149172782897949e-01
7.569546103477478027e-01
1.801387034356594086e-02
-3.166730105876922607e-01
2.543949782848358154e-01
1.995026171207427979e-01
1.011313870549201965e-02
-9.903136640787124634e-02
1.729936599731445312e-01
1.270367484539747238e-02
-3.106145858764648438e-01
-1.070049554109573364e-01
-1.637438982725143433e-01
-3.034088313579559326e-01
-5.156264901161193848e-01
-1.392319239675998688e-02
6.108850240707397461e-01
6.784120202064514160e-02
-1.315255910158157349e-01
-7.961065769195556641e-01
2.034857720136642456e-01
9.521834552288055420e-02
4.168367385864257812e-01
-2.201637774705886841e-01
-1.896620243787765503e-01
-5.445718392729759216e-02
-3.320769965648651123e-01
2.854606211185455322e-01
-2.967785298824310303e-01
2.788052260875701904e-01
-8.751358836889266968e-02
4.741219878196716309e-01
5.396724119782447815e-02
6.042974591255187988e-01
-7.072009891271591187e-02
2.406764924526214600e-01
1.533370167016983032e-01
-3.144728764891624451e-02
4.855014383792877197e-01
2.355168461799621582e-01
1.283634901046752930e-01
9.714674204587936401e-02
1.066681146621704102e-01
-4.062263667583465576e-01
2.229265123605728149e-01
1.609497070312500000e+00
-3.383462429046630859e-01
3.902867808938026428e-02
3.886293470859527588e-01
1.071284711360931396e-01
-4.690966010093688965e-01
5.988300442695617676e-01
-1.217293068766593933e-01
-7.581201940774917603e-02
-2.278122156858444214e-01
-2.887886762619018555e-01
2.446607202291488647e-01
-1.023093760013580322e-01
-2.368040196597576141e-02
-4.728310108184814453e-01
4.774974584579467773e-01
-5.812882184982299805e-01
6.636603474617004395e-01
-2.932853102684020996e-01
3.612391948699951172e-01
-6.030205488204956055e-01
5.617498159408569336e-01
1.919263899326324463e-01
5.711677074432373047e-01
2.355257235467433929e-02
-2.541940510272979736e-01
-1.273711323738098145e-01
3.269402980804443359e-01
-3.164413571357727051e-02
-1.488443166017532349e-01
-9.337063878774642944e-02
3.625578880310058594e-01
-9.767367839813232422e-01
3.882208466529846191e-01
-3.841012120246887207e-01
-2.341250926256179810e-01
9.063142538070678711e-01
-9.797507524490356445e-01
-6.646122336387634277e-01
-2.717473208904266357e-01
6.020257472991943359e-01
-2.965449094772338867e-01
5.793682932853698730e-01
1.429685652256011963e-01
-2.017535716295242310e-01
-2.929973304271697998e-01
2.328114211559295654e-01
-1.137458607554435730e-01
-5.684237480163574219e-01
-7.665249705314636230e-01
1.351591348648071289e-01
1.031553894281387329e-01
1.860022097826004028e-01
9.619305282831192017e-02
3.390146195888519287e-01
2.022183239459991455e-01
4.175229072570800781e-01
7.241673469543457031e-01
6.559337973594665527e-01
3.481268882751464844e-01
6.548441052436828613e-01
1.416799873113632202e-01
4.138869643211364746e-01
1.292395472526550293e+00
-7.053901553153991699e-01
-1.091135382652282715e+00
2.366201877593994141e-01
-4.466625750064849854e-01
7.021627575159072876e-02
2.211667776107788086e+00
9.035413265228271484e-01
2.081008255481719971e-01
2.719151675701141357e-01
3.221192955970764160e-01
-2.479585111141204834e-01
-5.829193592071533203e-01
-7.667428255081176758e-01
1.344102621078491211e+00
-6.580684781074523926e-01
-5.296091735363006592e-02
2.470870018005371094e-01
-3.839945495128631592e-01
5.248568654060363770e-01
-7.050703167915344238e-01
1.837257444858551025e-01
3.325549364089965820e-01
8.594614267349243164e-02
-6.796288490295410156e-01
-4.524668306112289429e-02
-1.854207813739776611e-01
3.391408026218414307e-01
3.126630485057830811e-01
-3.721822798252105713e-01
-8.364135771989822388e-02
-1.240391135215759277e-01
-7.993262410163879395e-01
-3.397052586078643799e-01
2.041622996330261230e-01
1.124587878584861755e-01
-1.718679368495941162e-01
6.758124232292175293e-01
-1.098401546478271484e+00
3.410734534263610840e-01
-7.003461569547653198e-02
-9.644314646720886230e-02
-2.224771231412887573e-01
3.579917550086975098e-02
4.121615588665008545e-01
-1.190393045544624329e-02
2.945548593997955322e-01
6.082674860954284668e-02
3.434337079524993896e-01
4.150816500186920166e-01
-7.286553978919982910e-01
-3.779814811423420906e-03
2.858875691890716553e-01
-2.969542145729064941e-01
-4.516094028949737549e-01
-4.134908616542816162e-01
-3.249933123588562012e-01
6.945305466651916504e-01
-8.319235444068908691e-01
-7.262258529663085938e-01
8.017862588167190552e-02
4.373255372047424316e-02
3.336233198642730713e-01
4.730085730552673340e-01
3.208363056182861328e-01
4.037201404571533203e-01
-3.866799175739288330e-02
-2.411510348320007324e-01
5.154711604118347168e-01
4.386923834681510925e-02
-4.920665621757507324e-01
6.514230370521545410e-02
-6.345334649085998535e-02
3.895404040813446045e-01
1.339315056800842285e+00
7.996151447296142578e-01
-1.859628781676292419e-02
5.894415378570556641e-01
-4.156121313571929932e-01
1.470350753515958786e-02
1.739273518323898315e-01
5.210018157958984375e-01
-2.569874227046966553e-01
2.980304360389709473e-01
3.141240775585174561e-01
-2.710550129413604736e-01
-3.076741695404052734e-01
8.790485560894012451e-02
8.338969200849533081e-02
3.265024423599243164e-01
6.277181506156921387e-01
7.296843528747558594e-01
-5.362321734428405762e-01
-2.292910665273666382e-01
-1.144928764551877975e-02
1.267156451940536499e-01
-7.672391533851623535e-01
2.635333836078643799e-01
4.895351231098175049e-01
5.668577924370765686e-02
2.070182710886001587e-01
-9.369383752346038818e-02
-4.853249788284301758e-01
7.169036865234375000e-01
2.435135692358016968e-01
6.342548877000808716e-02
-5.976734161376953125e-01
1.534258008003234863e+00
3.586560785770416260e-01
-1.469515264034271240e-01
-4.560119211673736572e-01
5.131756067276000977e-01
-2.927879393100738525e-01
-2.026201933622360229e-01
-3.067987561225891113e-01
-3.034192025661468506e-01
4.495058953762054443e-01
7.677546143531799316e-01
-2.585490942001342773e-01
-2.418959587812423706e-01
8.411695063114166260e-02
2.445841431617736816e-01
3.045307099819183350e-01
-1.478285640478134155e-01
2.214228212833404541e-01
-5.636426210403442383e-01
-6.057714819908142090e-01
2.235833182930946350e-02
2.133369632065296173e-02
-9.621459990739822388e-02
-5.465773865580558777e-02
-3.913962841033935547e-01
-4.887647628784179688e-01
-3.403705358505249023e-02
-2.667188048362731934e-01
-4.120324254035949707e-01
9.093696251511573792e-03
2.250157445669174194e-01
6.399189829826354980e-01
4.007187187671661377e-01
-1.713248938322067261e-01
6.170127987861633301e-01
2.788001596927642822e-01
4.334893524646759033e-01
2.615870349109172821e-02
4.871687591075897217e-01
1.422552764415740967e-01
3.141785562038421631e-01
-3.715955018997192383e-01
-2.007832005620002747e-02
-2.139693498611450195e-02
-2.738687992095947266e-01
-1.915804296731948853e-01
-1.521279066801071167e-01
-4.814001023769378662e-01
5.751549601554870605e-01
-3.520196080207824707e-01
5.036152005195617676e-01
-7.625762224197387695e-01
-3.066510558128356934e-01
-4.572658240795135498e-02
-2.848720550537109375e-01
-7.992541193962097168e-01
-2.199457734823226929e-01
6.964399665594100952e-02
-2.240273356437683105e-01
3.036132156848907471e-01
-5.213902592658996582e-01
-1.436234831809997559e+00
7.138541936874389648e-01
-9.699228405952453613e-01
-7.023946046829223633e-01
3.373042121529579163e-02
-8.509954065084457397e-02
-1.344349328428506851e-02
-6.540194153785705566e-01
3.400526940822601318e-01
1.127383187413215637e-01
-4.346422553062438965e-01
-3.165258467197418213e-01
-2.340163886547088623e-01
-5.886803269386291504e-01
-6.042241305112838745e-02
3.606859222054481506e-02
7.776127457618713379e-01
3.212579488754272461e-01
3.507567644119262695e-01
-2.817713916301727295e-01
8.800845146179199219e-01
3.520929217338562012e-01
-3.086228482425212860e-02
1.009334325790405273e-01
-4.420261383056640625e-01
-7.403148338198661804e-03
6.539304852485656738e-01
9.212198257446289062e-01
-1.587690785527229309e-03
3.474355638027191162e-01
-1.058462411165237427e-01
4.613032042980194092e-01
-1.174594741314649582e-02
4.705501496791839600e-01
-4.093958735466003418e-01
-4.130004048347473145e-01
-3.656080067157745361e-01
-3.050549924373626709e-01
1.149832010269165039e+00
4.928346574306488037e-01
6.753478199243545532e-02
7.603350281715393066e-02
-2.710315883159637451e-01
6.128087639808654785e-01
-1.488525122404098511e-01
-4.143229126930236816e-01
3.424373865127563477e-01
3.214715719223022461e-01
-8.761357516050338745e-02
4.455946683883666992e-01
5.683242678642272949e-01
2.098018303513526917e-03
-6.322035193443298340e-01
1.900473982095718384e-01
5.937039256095886230e-01
2.280183881521224976e-01
3.162545561790466309e-01
2.590122260153293610e-02
4.142359197139739990e-01
2.644427418708801270e-01
2.351719439029693604e-01
1.485469341278076172e-01
-3.009834587574005127e-01
3.787228763103485107e-01
1.037288308143615723e-01
-1.887359768152236938e-01
-1.336233168840408325e-01
8.777541667222976685e-02
2.328034341335296631e-01
-4.053031206130981445e-01
1.776126623153686523e-01
-2.498531639575958252e-01
-4.674876332283020020e-01
4.649737477302551270e-01
-1.604049950838088989e-01
-2.041034251451492310e-01
4.100897014141082764e-01
-1.262805759906768799e-01
-6.218886375427246094e-01
-2.809939384460449219e-01
-2.266435176134109497e-01
4.242939054965972900e-01
-1.830020993947982788e-01
-4.268042147159576416e-01
-7.560570836067199707e-01
5.149345993995666504e-01
3.062815666198730469e-01
-4.314372837543487549e-01
1.155830621719360352e-01
3.012283742427825928e-01
2.914625406265258789e-01
3.325109779834747314e-01
-2.808383405208587646e-01
-1.584522984921932220e-02
-2.139882296323776245e-01
3.251982927322387695e-01
2.708660364151000977e-01
7.508751749992370605e-01
1.016177013516426086e-01
-4.147882014513015747e-02
-7.906639575958251953e-01
-5.376542210578918457e-01
-1.848906129598617554e-01
-4.278491735458374023e-01
-4.131351709365844727e-01
-4.710218012332916260e-01
-4.659310281276702881e-01
1.712635275907814503e-03
1.395107209682464600e-01
-6.666471958160400391e-01
-4.442711174488067627e-01
-8.711894601583480835e-02
5.129725337028503418e-01
-1.603254526853561401e-01
-5.858913660049438477e-01
7.515184581279754639e-02
2.428705990314483643e-01
3.942065536975860596e-01
6.303194910287857056e-02
7.601983547210693359e-01
2.907151728868484497e-02
5.364564061164855957e-01
-7.489513754844665527e-01
2.204837501049041748e-01
-2.159805297851562500e-01
-8.081226944923400879e-01
-3.558910787105560303e-01
1.308284252882003784e-01
-3.007895946502685547e-01
7.944567203521728516e-01
-3.976675570011138916e-01
7.229527086019515991e-02
5.697017312049865723e-01
-2.779404222965240479e-01
2.079473733901977539e-01
6.009221673011779785e-01
1.950704753398895264e-01
4.415226578712463379e-01
-1.770190149545669556e-01
8.450968563556671143e-02
1.474121063947677612e-01
2.300484627485275269e-01
-4.363810271024703979e-02
-2.161092460155487061e-01
-1.842194646596908569e-01
-2.034182548522949219e-01
8.716976046562194824e-01
1.884352117776870728e-01
1.685451902449131012e-02
1.144291386008262634e-01
-5.993186831474304199e-01
1.130681931972503662e-01
-2.298604510724544525e-02
7.090449929237365723e-01
-3.133280575275421143e-01
-4.552695900201797485e-02
-9.173046350479125977e-01
-8.584401011466979980e-01
-8.573729991912841797e-01
7.544545531272888184e-01
-9.331904351711273193e-02
5.137269496917724609e-01
3.623441755771636963e-01
7.503005117177963257e-02
-4.665251672267913818e-01
3.809489607810974121e-01
2.259248495101928711e-01
-1.477085500955581665e-01
2.094008326530456543e-01
4.038437604904174805e-01
1.324026733636856079e-01
4.738353192806243896e-01
-4.224047660827636719e-01
-3.443818986415863037e-01
-2.158132791519165039e-01
2.000769786536693573e-02
3.030938506126403809e-01
3.377806246280670166e-01
1.198580712080001831e-01
-2.904832661151885986e-01
2.141460627317428589e-01
1.723639434203505516e-03
8.224200457334518433e-02
3.417688906192779541e-01
9.346298128366470337e-02
-9.193385392427444458e-02
1.430782079696655273e-01
-1.417886465787887573e-01
-3.138892054557800293e-01
1.083543431013822556e-02
4.760063588619232178e-01
-6.111503019928932190e-02
-1.270213872194290161e-01
-6.441356539726257324e-01
-9.316109418869018555e-01
-5.709659457206726074e-01
-5.073363184928894043e-01
-2.019969820976257324e-01
8.221440315246582031e-01
7.307158410549163818e-02
2.861988544464111328e-01
5.477566719055175781e-01
-4.336562156677246094e-01
-7.811250686645507812e-01
3.815961778163909912e-01
3.135664165019989014e-01
-3.835159540176391602e-02
8.113601803779602051e-01
-8.280873894691467285e-01
5.021739006042480469e-01
8.516399264335632324e-01
-1.256377249956130981e-01
1.837456822395324707e-01
8.138901740312576294e-02
3.071366548538208008e-01
7.000270485877990723e-02
1.169381290674209595e-01
-2.025612890720367432e-01
-8.233974874019622803e-02
2.632808983325958252e-01
5.399386286735534668e-01
-6.135100126266479492e-02
5.090440511703491211e-01
-4.555788636207580566e-01
2.688298225402832031e-01
-3.594438731670379639e-02
-4.238615930080413818e-01
3.441343903541564941e-01
4.004081189632415771e-01
2.530878186225891113e-01
2.362894825637340546e-02
6.064988970756530762e-01
-4.232815206050872803e-01
-2.324818223714828491e-01
3.462092205882072449e-02
1.983328461647033691e-01
-1.803318977355957031e+00
-1.357348263263702393e-01
-2.246225774288177490e-01
2.449789792299270630e-01
1.698279678821563721e-01
-1.552117466926574707e-01
3.984290063381195068e-01
1.686012595891952515e-01
-1.177410408854484558e-01
2.461321055889129639e-01
1.292171925306320190e-01
-9.594351649284362793e-01
2.675215005874633789e-01
-3.869748413562774658e-01
3.516811728477478027e-01
2.993642687797546387e-01
-1.928476691246032715e-01
-1.804333031177520752e-01
-6.464978456497192383e-01
-1.819776929914951324e-02
4.832007922232151031e-03
-4.944001734256744385e-01
-2.566011548042297363e-01
7.073627710342407227e-01
-4.535641670227050781e-01
2.214311212301254272e-01
4.724350273609161377e-01
6.244778037071228027e-01
3.342100083827972412e-01
5.824192985892295837e-02
-5.584682226181030273e-01
-2.678918242454528809e-01
-1.802729070186614990e-01
-7.880935668945312500e-01
5.891608595848083496e-01
-1.830484271049499512e-01
4.217609465122222900e-01
-3.745044469833374023e-01
-4.152556136250495911e-02
-1.739479452371597290e-01
7.669795751571655273e-01
2.003030776977539062e-01
-1.313839405775070190e-01
5.491920933127403259e-02
4.815395474433898926e-01
-1.283629059791564941e+00
-4.246817231178283691e-01
-4.327394962310791016e-01
5.563920736312866211e-01
-6.591767072677612305e-01
-2.992554567754268646e-02
4.357905685901641846e-01
-1.387068182229995728e-01
-2.007705569267272949e-01
-1.773582249879837036e-01
-7.326468080282211304e-02
2.368329763412475586e-01
1.654614657163619995e-01
1.916850656270980835e-01
-1.281319409608840942e-01
6.548957824707031250e-01
2.289217710494995117e-01
-6.264456361532211304e-02
-2.058959305286407471e-01
-3.747774064540863037e-01
-4.615749418735504150e-01
-1.473349481821060181e-01
2.504812739789485931e-02
1.886957585811614990e-01
-5.690100789070129395e-01
-3.824418410658836365e-02
-1.449182033538818359e-01
-8.007670938968658447e-02
5.933798551559448242e-01
-2.027319669723510742e-01
4.079689383506774902e-01
-4.057358503341674805e-01
8.232461810111999512e-01
-1.121548637747764587e-01
8.464840650558471680e-01
5.362190604209899902e-01
5.951698422431945801e-01
-1.981665939092636108e-01
3.785724341869354248e-01
-1.063823103904724121e+00
1.015069782733917236e-01
4.607029259204864502e-01
8.273834735155105591e-02
-1.040756464004516602e+00
-5.456571578979492188e-01
7.750148773193359375e-01
3.768634796142578125e-01
2.514858841896057129e-01
-1.300308108329772949e-01
4.098530709743499756e-01
-7.386428713798522949e-01
-6.143267825245857239e-02
7.678866982460021973e-01
7.961803078651428223e-01
1.818094402551651001e-01
-1.392963081598281860e-01
-1.095846071839332581e-01
-1.682202145457267761e-02
-3.587546944618225098e-01
4.913530871272087097e-02
-1.033217739313840866e-02
-9.663456082344055176e-01
-3.354806602001190186e-01
-3.344989120960235596e-01
5.778512358665466309e-02
-1.226618215441703796e-01
-5.384826660156250000e-01
4.577708840370178223e-01
3.201112449169158936e-01
5.314396619796752930e-01
-1.360093206167221069e-01
-7.004346698522567749e-02
2.763149142265319824e-01
9.106501340866088867e-01
4.235464036464691162e-01
-1.013929694890975952e-01
1.843884736299514771e-01
-2.744713425636291504e-01
3.595193624496459961e-01
-1.800522655248641968e-01
-6.863736510276794434e-01
2.734984755516052246e-01
4.456060528755187988e-01
-3.102394752204418182e-02
4.706687629222869873e-01
5.300430655479431152e-01
1.212829470634460449e+00
1.020723581314086914e-01
-1.491376161575317383e-01
-1.718371361494064331e-01
2.295865267515182495e-01
2.276745438575744629e-01
2.879488766193389893e-01
-2.581983804702758789e-01
-2.749804258346557617e-01
-1.470840126276016235e-01
-5.183603763580322266e-01
2.045952677726745605e-01
3.676277995109558105e-01
-3.448412716388702393e-01
1.611103303730487823e-02
3.408822715282440186e-01
6.079241633415222168e-01
-5.278621241450309753e-02
-4.582041501998901367e-02
-1.727572083473205566e+00
-6.889953017234802246e-01
-1.003154926002025604e-02
-8.571912348270416260e-02
-3.871805071830749512e-01
-5.419799089431762695e-01
2.342767119407653809e-01
-4.523826837539672852e-01
6.023637056350708008e-01
-1.167544275522232056e-01
-3.531416878104209900e-02
1.299711167812347412e-01
-1.245190296322107315e-02
1.356997042894363403e-01
1.052675917744636536e-01
4.553354680538177490e-01
-1.686295866966247559e-01
3.490867614746093750e-01
2.657717168331146240e-01
7.901180982589721680e-01
-2.323341369628906250e-01
-3.570105731487274170e-01
-2.912304699420928955e-01
5.917876958847045898e-02
-3.122374117374420166e-01
-2.090183645486831665e-01
2.725197374820709229e-01
3.538541197776794434e-01
4.637910425662994385e-01
-2.365252524614334106e-01
-1.246691644191741943e-01
-3.251478374004364014e-01
-4.256734624505043030e-02
-9.659328460693359375e-01
-2.056707739830017090e-01
1.565045416355133057e-01
9.003557264804840088e-02
-2.743081655353307724e-03
4.032443463802337646e-01
-4.025986790657043457e-01
2.480470985174179077e-01
9.174877405166625977e-02
-2.704116404056549072e-01
1.366247981786727905e-01
5.613566637039184570e-01
6.430225968360900879e-01
-2.869333885610103607e-02
-3.532643243670463562e-02
4.588239639997482300e-02
4.214127063751220703e-01
-2.927510440349578857e-02
7.844192385673522949e-01
8.803926110267639160e-01
2.362067345529794693e-03
-5.457575991749763489e-02
3.222407102584838867e-01
4.318536818027496338e-01
6.053386926651000977e-01
-1.866027265787124634e-01
5.385007262229919434e-01
3.236265182495117188e-01
1.510743200778961182e-01
3.496842682361602783e-01
1.322903321124613285e-03
1.222411636263132095e-02
-1.374414116144180298e-01
-3.943206071853637695e-01
-4.285520911216735840e-01
3.517963737249374390e-02
-1.482566297054290771e-01
1.772391498088836670e-01
-4.076703786849975586e-01
-5.098632574081420898e-01
-2.694343924522399902e-01
4.641591608524322510e-01
4.097506999969482422e-01
3.321899175643920898e-01
-9.232468158006668091e-02
6.382984519004821777e-01
1.947995275259017944e-01
4.637651443481445312e-01
-2.149393260478973389e-01
7.500696927309036255e-02
6.416625380516052246e-01
4.478948190808296204e-02
3.869591355323791504e-01
4.039348661899566650e-01
9.960360527038574219e-01
-7.265904545783996582e-01
-5.300807356834411621e-01
9.069715142250061035e-01
-3.981046974658966064e-01
2.347050160169601440e-01
2.430678904056549072e-01
2.575764060020446777e-01
-1.369810849428176880e-01
2.195361405611038208e-01
-5.630535483360290527e-01
9.048068523406982422e-01
8.759825825691223145e-01
5.973180532455444336e-01
6.704279184341430664e-01
-2.477425783872604370e-01
-1.005743145942687988e+00
-4.122573137283325195e-01
1.016957983374595642e-01
2.521825730800628662e-01
-4.713806211948394775e-01
5.694393515586853027e-01
6.436753273010253906e-02
1.924148947000503540e-01
1.322632879018783569e-01
3.364353179931640625e-01
4.770894646644592285e-01
7.482336834073066711e-03
8.514278382062911987e-02
4.989524781703948975e-01
-1.254992634057998657e-01
6.401323676109313965e-01
-5.524749755859375000e-01
7.563325166702270508e-01
5.660557746887207031e-02
-2.665773266926407814e-03
2.528873085975646973e-01
-3.010246753692626953e-01
9.174437075853347778e-02
2.343218028545379639e-01
-2.818120718002319336e-01
2.583632767200469971e-01
2.536534368991851807e-01
-5.047426223754882812e-01
2.180404495447874069e-03
7.016673684120178223e-02
4.787941277027130127e-02
-1.736861169338226318e-01
9.995911121368408203e-01
4.451031684875488281e-01
3.817522525787353516e-01
-9.001122117042541504e-01
2.669295966625213623e-01
3.059605062007904053e-01
-5.882493779063224792e-02
-3.994594812393188477e-01
1.889460161328315735e-02
-2.247222512960433960e-01
1.283031553030014038e-01
-2.943769097328186035e-01
5.622707605361938477e-01
-2.797993421554565430e-01
-3.688252866268157959e-01
7.513759285211563110e-02
-6.991432905197143555e-01
5.343781113624572754e-01
9.026730060577392578e-01
-2.709329426288604736e-01
3.971418738365173340e-01
1.738574802875518799e-01
6.123080253601074219e-01
9.158518165349960327e-02
3.297018408775329590e-01
-3.692395389080047607e-01
5.498951077461242676e-01
-8.112592995166778564e-02
4.536423385143280029e-01
-2.271107882261276245e-01
-3.118813633918762207e-01
1.807742953300476074e+00
-2.385158985853195190e-01
-5.453241989016532898e-02
-1.190898418426513672e-01
-1.150383427739143372e-01
-1.187034621834754944e-01
4.921040832996368408e-01
2.416390776634216309e-01
4.402747452259063721e-01
-3.828797638416290283e-01
-2.550170719623565674e-01
3.156755566596984863e-01
-4.180070459842681885e-01
-7.727591395378112793e-01
-3.364130482077598572e-02
-7.223324775695800781e-01
-6.867715716361999512e-02
-6.204005479812622070e-01
-8.620534539222717285e-01
5.219295024871826172e-01
-8.246827721595764160e-01
-3.047003149986267090e-01
1.197420284152030945e-01
-2.771080136299133301e-01
-2.306149750947952271e-01
-9.174507856369018555e-02
-4.455475807189941406e-01
-4.946227371692657471e-01
4.622824788093566895e-01
4.483220875263214111e-01
2.276224613189697266e+00
1.169881820678710938e-01
-4.290320575237274170e-01
8.041459321975708008e-02
3.340799510478973389e-01
7.929036021232604980e-02
1.538806855678558350e-01
1.499210119247436523e+00
-7.042500972747802734e-01
-3.062740564346313477e-01
-1.073900699615478516e+00
4.485758021473884583e-02
-1.363779604434967041e-01
2.853981256484985352e-01
1.279363185167312622e-01
3.283270895481109619e-01
8.006470650434494019e-02
1.406265944242477417e-01
-4.241617918014526367e-01
-2.474555559456348419e-02
-3.258876800537109375e-01
-6.794016957283020020e-01
9.709960818290710449e-01
-2.244305908679962158e-01
-8.755880594253540039e-01
1.111764311790466309e+00
5.971128121018409729e-02
3.377361223101615906e-02
-1.696182340383529663e-01
9.913621097803115845e-02
-8.852114528417587280e-02
-6.545866727828979492e-01
5.659855902194976807e-02
-3.287906199693679810e-02
1.904031038284301758e-01
-1.496748775243759155e-01
-2.766566574573516846e-01
-3.763693869113922119e-01
1.324687361717224121e+00
-5.298355817794799805e-01
3.825213015079498291e-02
2.997918128967285156e-01
2.224729508161544800e-01
2.972453534603118896e-01
4.969091415405273438e-01
-2.424081088975071907e-03
-2.099777013063430786e-02
-1.076387047767639160e+00
1.265875846147537231e-01
-1.956037012860178947e-03
-5.481046065688133240e-02
-3.287244439125061035e-01
-3.962590396404266357e-01
7.004899382591247559e-01
9.958747029304504395e-01
-1.030964925885200500e-01
6.185241937637329102e-01
-1.716719120740890503e-01
-4.403573274612426758e-02
2.203120946884155273e+00
1.145088300108909607e-02
-3.238420188426971436e-01
2.346383035182952881e-01
-4.229044169187545776e-02
-6.249520182609558105e-02
6.552373170852661133e-01
5.661080479621887207e-01
3.544580042362213135e-01
-3.164550960063934326e-01
1.137350678443908691e+00
2.923333644866943359e-01
2.066693753004074097e-01
-8.950653076171875000e-01
2.575769722461700439e-01
1.865932494401931763e-01
3.125496506690979004e-01
-4.986805021762847900e-01
7.499958872795104980e-01
-5.116795897483825684e-01
-4.326336979866027832e-01
-3.960465788841247559e-01
-2.276392877101898193e-01
-4.037892222404479980e-01
-3.983334004878997803e-01
-1.671764105558395386e-01
4.169792532920837402e-01
9.957496523857116699e-01
1.990702748298645020e+00
-6.367101520299911499e-02
1.183515265583992004e-01
1.067922949790954590e+00
4.838128983974456787e-01
1.130573917180299759e-02
3.018730878829956055e-01
2.082771062850952148e-01
-5.050294995307922363e-01
-1.135954380035400391e+00
2.696976959705352783e-01
1.569179892539978027e-01
-3.431876599788665771e-01
3.372055292129516602e-01
-1.888402253389358521e-01
-7.622141838073730469e-01
2.614046335220336914e-01
-2.397962212562561035e-01
1.054791510105133057e-01
-1.607102751731872559e-01
-3.002225160598754883e-01
-1.758247241377830505e-02
2.988622784614562988e-01
-1.182718202471733093e-01
2.622876465320587158e-01
-3.770116865634918213e-01
2.637682259082794189e-01
-9.109694510698318481e-02
5.681995749473571777e-01
-1.330597251653671265e-01
-2.905137836933135986e-01
1.228548586368560791e-01
4.253131151199340820e-01
8.746365308761596680e-01
1.418769001960754395e+00
2.623718380928039551e-01
2.001959085464477539e-01
4.051850177347660065e-03
1.976737380027770996e-01
-5.405431389808654785e-01
3.099759221076965332e-01
-6.405577659606933594e-01
-4.972484707832336426e-01
-6.917692422866821289e-01
1.230317503213882446e-01
-4.779687225818634033e-01
1.290406882762908936e-01
-1.720926910638809204e-01
9.420225024223327637e-01
1.593384146690368652e-01
-1.066650599241256714e-01
-1.033950969576835632e-01
5.166851282119750977e-01
-4.364352822303771973e-01
-2.960937619209289551e-01
1.883880794048309326e-01
6.849994659423828125e-01
-6.808574795722961426e-01
5.199102759361267090e-01
2.293035089969635010e-01
7.585052400827407837e-02
-1.080958247184753418e-01
-5.679980516433715820e-01
2.267615944147109985e-01
-3.282905817031860352e-01
-3.108282089233398438e-01
5.387422442436218262e-01
2.983699738979339600e-01
-3.556392490863800049e-01
1.416705548763275146e-01
-9.777171015739440918e-01
3.595499694347381592e-01
2.503241598606109619e-01
2.751121819019317627e-01
-1.551108360290527344e-01
-1.490583866834640503e-01
-1.932422965764999390e-01
-1.104874089360237122e-01
-2.339499890804290771e-01
1.068524792790412903e-01
1.414317011833190918e+00
2.119572401046752930e+00
3.261201083660125732e-02
1.910985261201858521e-01
1.700554043054580688e-01
-1.709089279174804688e-01
2.551416158676147461e-01
2.992817461490631104e-01
1.367361545562744141e-01
-1.295672804117202759e-01
2.872470915317535400e-01
2.089877128601074219e-01
5.913509130477905273e-01
1.961772739887237549e-01
1.328287064097821712e-03
5.402981042861938477e-01
1.618166863918304443e-01
-1.918055117130279541e-01
3.541340529918670654e-01
-1.317128241062164307e-01
-1.599481403827667236e-01
-2.030432820320129395e-01
1.914479613304138184e+00
5.266968607902526855e-01
-8.962391875684261322e-03
-4.147209227085113525e-01
2.553380727767944336e-01
1.065576896071434021e-01
2.317957580089569092e-01
4.555500745773315430e-01
1.139781713485717773e+00
5.848625302314758301e-01
-4.308094978332519531e-01
-3.263404369354248047e-01
6.766825169324874878e-02
-7.169533371925354004e-01
1.416618674993515015e-01
-3.937863111495971680e-01
6.835589883849024773e-04
5.170389637351036072e-02
1.452168226242065430e+00
-3.173233568668365479e-01
3.644364774227142334e-01
3.850579559803009033e-01
3.597552180290222168e-01
5.123622342944145203e-02
-1.156556606292724609e-02
-3.147442936897277832e-01
-2.869974970817565918e-01
-3.414013385772705078e-01
-1.200996488332748413e-01
6.851825714111328125e-01
2.017489373683929443e-01
2.088007777929306030e-01
1.916432827711105347e-01
1.215722113847732544e-01
7.780187726020812988e-01
-1.218550354242324829e-01
-6.477824598550796509e-02
-4.240133762359619141e-01
-5.936823487281799316e-01
-2.070107460021972656e-01
6.782144308090209961e-01
8.760245144367218018e-02
-9.430923312902450562e-02
-4.200687408447265625e-01
9.224390983581542969e-02
4.712613224983215332e-01
4.925618767738342285e-01
1.580633372068405151e-01
5.770203471183776855e-01
-2.085504531860351562e-01
-1.537132114171981812e-01
-8.499571681022644043e-02
1.022345662117004395e+00
-4.804332554340362549e-01
-1.402205377817153931e-01
-2.652198970317840576e-01
-6.056451704353094101e-03
-5.085580423474311829e-02
-7.465470582246780396e-02
-2.456210851669311523e-01
-5.292283296585083008e-01
5.819154977798461914e-01
1.256178133189678192e-02
-7.949604988098144531e-01
-2.805705964565277100e-01
1.169156312942504883e+00
3.763694465160369873e-01
-2.504708766937255859e-01
2.421271204948425293e-01
-1.505500555038452148e+00
1.902745664119720459e-01
-8.634995669126510620e-02
-2.282904386520385742e-01
7.858412265777587891e-01
2.375187166035175323e-02
7.408915758132934570e-01
1.155455857515335083e-01
5.718494653701782227e-01
-2.291810214519500732e-01
-3.363956511020660400e-01
5.012543126940727234e-02
1.583479195833206177e-01
-1.288891315460205078e+00
-1.209552437067031860e-01
7.906877249479293823e-02
6.968423724174499512e-01
2.835491597652435303e-01
-4.731818139553070068e-01
-1.277217566967010498e-01
5.185173749923706055e-01
4.546619951725006104e-01
1.269221007823944092e-01
5.706264451146125793e-02
7.916402816772460938e-02
-3.580171614885330200e-02
8.336801528930664062e-01
-3.998410701751708984e-01
-6.979717016220092773e-01
1.506371259689331055e+00
2.774052917957305908e-01
1.104753017425537109e+00
2.339908331632614136e-01
-2.565548419952392578e-01
3.377837240695953369e-01
6.332356017082929611e-03
-1.151460260152816772e-01
-1.375138163566589355e-01
3.132898360490798950e-02
-1.052358299493789673e-01
1.623722761869430542e-01
1.291909068822860718e-01
6.461439281702041626e-02
7.652205973863601685e-02
9.285962581634521484e-01
4.069961905479431152e-01
6.407296061515808105e-01
-4.284021854400634766e-01
6.382609605789184570e-01
3.602157533168792725e-01
4.367978274822235107e-01
5.024877786636352539e-01
-8.249026536941528320e-01
2.028153091669082642e-01
1.477581709623336792e-01
-1.578422635793685913e-01
-1.181637525558471680e+00
-1.838949918746948242e-01
8.603395819664001465e-01
4.700929522514343262e-01
-5.027543902397155762e-01
1.367608606815338135e-01
-7.303691655397415161e-02
6.922117471694946289e-01
3.034587800502777100e-01
-4.046235233545303345e-02
1.198776364326477051e-01
3.296085000038146973e-01
2.315501719713211060e-01
1.327366083860397339e-01
2.787253446877002716e-02
2.332930713891983032e-01
-4.048891961574554443e-01
-6.746606826782226562e-01
3.052762448787689209e-01
-4.827523604035377502e-02
-8.687616139650344849e-02
-1.577965319156646729e-01
1.309402734041213989e-01
2.301285266876220703e-01
4.899569749832153320e-01
2.653010487556457520e-01
-1.204216666519641876e-02
-1.913011521100997925e-01
5.782322287559509277e-01
1.732555150985717773e+00
-3.811402022838592529e-01
-2.738476730883121490e-02
-7.457391824573278427e-03
-1.169084012508392334e-01
1.112261772155761719e+00
-1.390685886144638062e-01
-5.711920261383056641e-01
-6.551785469055175781e-01
-3.871029317378997803e-01
3.100357651710510254e-01
3.663972318172454834e-01
1.510376669466495514e-02
1.094605214893817902e-02
1.538757532835006714e-01
4.040999710559844971e-02
7.459094375371932983e-02
8.018099665641784668e-01
6.767660379409790039e-02
-6.605600565671920776e-02
3.813507407903671265e-02
2.739123255014419556e-02
-3.045243322849273682e-01
4.533289968967437744e-01
3.591915667057037354e-01
6.352276802062988281e-01
1.158844381570816040e-01
-3.084550797939300537e-01
1.246656030416488647e-01
8.495890498161315918e-01
6.173582002520561218e-02
-1.144263148307800293e+00
-2.813992202281951904e-01
-3.781817555427551270e-01
1.127445459365844727e+00
1.352390050888061523e+00
-1.735906600952148438e-01
3.571924865245819092e-01
4.797342419624328613e-01
-4.357471466064453125e-01
1.053011894226074219e+00
-5.029250383377075195e-01
6.264917850494384766e-01
2.011597752571105957e-01
2.261106222867965698e-01
-5.727567672729492188e-01
4.316028207540512085e-03
3.836004137992858887e-01
3.322887048125267029e-02
-2.243966311216354370e-01
7.887680530548095703e-01
6.004719063639640808e-02
-3.962849676609039307e-01
3.850130736827850342e-01
-2.520561516284942627e-01
1.498303562402725220e-01
2.914022207260131836e-01
2.899863719940185547e-01
1.504662483930587769e-01
1.840283870697021484e-01
3.281353712081909180e-01
-1.020038574934005737e-01
5.194959640502929688e-01
1.809834130108356476e-02
-3.771671652793884277e-02
-6.992039084434509277e-01
-5.398088693618774414e-01
-1.669627875089645386e-01
-3.206781148910522461e-01
-1.860559880733489990e-01
1.889345198869705200e-01
8.921203017234802246e-01
3.347004652023315430e-01
-1.714087873697280884e-01
-5.399699807167053223e-01
-1.538660526275634766e-01
-3.020867705345153809e-01
1.504417657852172852e-01
1.885756403207778931e-01
-4.498909115791320801e-01
-3.001179993152618408e-01
3.311308324337005615e-01
-5.589241385459899902e-01
-1.989468038082122803e-01
-1.850066892802715302e-02
-2.558605670928955078e-01
-5.982188582420349121e-01
9.671081900596618652e-01
4.772306680679321289e-01
3.726130351424217224e-03
5.691747665405273438e-01
4.129252731800079346e-01
5.852639675140380859e-01
-9.239298105239868164e-01
-3.083940446376800537e-01
-3.724211156368255615e-01
-6.439140439033508301e-01
-4.353919029235839844e-01
-5.132075548171997070e-01
-7.013153433799743652e-01
-1.546474546194076538e-01
7.297080010175704956e-02
3.062751889228820801e-01
-1.334208697080612183e-01
8.499323725700378418e-01
-3.553785681724548340e-01
-2.393931895494461060e-01
-1.499268561601638794e-01
2.327840030193328857e-01
-2.662627696990966797e-01
3.782043606042861938e-02
-2.233822047710418701e-01
1.682237386703491211e-01
-7.550845742225646973e-01
4.458797574043273926e-01
-1.713324338197708130e-01
-2.488638907670974731e-01
1.477442681789398193e-01
5.364937782287597656e-01
-5.725719332695007324e-01
-1.135321378707885742e+00
4.015596807003021240e-01
3.297960758209228516e-01
-2.045427262783050537e-01
-2.602792382240295410e-01
1.470731496810913086e-01
-1.887899935245513916e-01
-2.469907701015472412e-01
2.925959043204784393e-02
1.301305592060089111e-01
-3.471502065658569336e-01
-2.931647002696990967e-01
-1.077024564146995544e-01
6.815572381019592285e-01
-4.108145534992218018e-01
3.755408525466918945e-01
2.447378039360046387e-01
1.170195937156677246e-01
2.396714538335800171e-01
8.182120919227600098e-01
-1.186006441712379456e-01
3.934300243854522705e-01
2.029151767492294312e-01
-3.161724805831909180e-01
-8.715538382530212402e-01
-2.647069096565246582e-01
-1.113326549530029297e+00
2.557968348264694214e-02
6.235178112983703613e-01
3.394150733947753906e-01
6.325820088386535645e-01
-2.579874098300933838e-01
2.922251820564270020e-01
-5.924729630351066589e-02
6.342087984085083008e-01
-4.996247291564941406e-01
-4.468857944011688232e-01
-3.445580601692199707e-01
-8.217569589614868164e-01
-4.164700210094451904e-01
1.204730570316314697e-02
-3.706107139587402344e-01
5.442846417427062988e-01
1.978554129600524902e-01
4.707808792591094971e-01
7.971851527690887451e-02
-4.213738143444061279e-01
-1.224086955189704895e-01
-3.954480886459350586e-01
4.070483446121215820e-01
1.743558235466480255e-02
-2.879178822040557861e-01
-3.345251083374023438e-01
9.036101698875427246e-01
1.399357616901397705e-01
-4.903777539730072021e-01
-1.517522931098937988e-01
-7.324054837226867676e-01
4.518377184867858887e-01
-1.077443063259124756e-01
-5.448642373085021973e-01
-1.610896885395050049e-01
1.990464091300964355e+00
-6.501005291938781738e-01
-8.412961959838867188e-01
-2.723127305507659912e-01
2.224547266960144043e-01
8.840396255254745483e-02
2.531551718711853027e-01
6.884082406759262085e-02
1.822775453329086304e-01
9.181406497955322266e-01
4.598627239465713501e-02
3.241228684782981873e-02
4.280628263950347900e-02
7.225111126899719238e-01
-2.582120299339294434e-01
-7.496128678321838379e-01
-1.090433239936828613e+00
-1.723127216100692749e-01
-4.401362687349319458e-02
2.127837240695953369e-01
1.348213106393814087e-01
8.869833350181579590e-01
-2.642926871776580811e-01
4.419561102986335754e-02
2.192626148462295532e-01
8.820959925651550293e-02
-3.855313360691070557e-01
-3.256569206714630127e-01
3.704448044300079346e-01
4.603274762630462646e-01
4.720759689807891846e-01
-8.260622620582580566e-02
-2.133997082710266113e-01
4.677315056324005127e-01
-3.680676519870758057e-01
1.064285188913345337e-01
2.966067492961883545e-01
2.429343909025192261e-01
1.310815334320068359e+00
3.570218980312347412e-01
-9.304639697074890137e-02
7.270280718803405762e-01
5.001420974731445312e-01
-4.656245708465576172e-01
5.983253940939903259e-04
3.726233541965484619e-01
4.018488228321075439e-01
7.409668564796447754e-01
2.929368019104003906e-01
5.923219323158264160e-01
1.925738006830215454e-01
8.036550134420394897e-02
-1.122391298413276672e-01
-1.097789183259010315e-01
-1.499807983636856079e-01
4.942254126071929932e-01
-1.506585925817489624e-01
1.207340061664581299e-01
-7.986446470022201538e-02
-3.752779662609100342e-01
-9.042592048645019531e-01
-5.910629406571388245e-02
-7.091392874717712402e-01
3.663698211312294006e-02
-1.704953610897064209e-01
-1.806374490261077881e-01
6.370715796947479248e-02
-4.016388654708862305e-01
-3.639809191226959229e-01
1.056069657206535339e-01
3.513102829456329346e-01
-2.683494389057159424e-01
4.013867378234863281e-01
-4.254356399178504944e-02
2.409356087446212769e-01
-2.771092057228088379e-01
9.578075408935546875e-01
2.399278283119201660e-01
4.741345643997192383e-01
2.241071313619613647e-01
-2.450778931379318237e-01
4.558415710926055908e-01
4.590799100697040558e-03
-6.428815126419067383e-01
-1.830895990133285522e-01
7.367810606956481934e-01
-2.400483340024948120e-01
-2.065386027097702026e-01
3.588764071464538574e-01
-3.101536631584167480e-01
3.459799885749816895e-01
-4.466892033815383911e-02
4.362837672233581543e-01
1.159450054168701172e+00
-2.326264381408691406e-01
-1.524047106504440308e-01
3.529595956206321716e-02
-6.145927906036376953e-01
3.118666410446166992e-01
-6.129973530769348145e-01
4.939881563186645508e-01
4.734500125050544739e-02
-6.279600411653518677e-02
3.272971138358116150e-02
-1.123338580131530762e+00
-4.290674626827239990e-02
-2.722899317741394043e-01
2.135949209332466125e-02
4.754952788352966309e-01
-9.681192040443420410e-01
-3.012181818485260010e-01
5.487988889217376709e-02
1.122774928808212280e-01
4.719714224338531494e-01
4.370267689228057861e-01
-1.351934373378753662e-01
-2.993019521236419678e-01
-2.895302474498748779e-01
-3.680379390716552734e-01
-3.543562889099121094e-01
2.418106794357299805e-01
3.780617117881774902e-01
-6.974340081214904785e-01
3.101330697536468506e-01
-9.960997849702835083e-02
6.648611426353454590e-01
2.374016493558883667e-01
-2.395795732736587524e-01
1.554218530654907227e-01
-3.053841553628444672e-02
-5.370194911956787109e-01
1.611414551734924316e-01
-1.310939639806747437e-01
2.930169701576232910e-01
3.107235729694366455e-01
-3.815325796604156494e-01
-6.795608997344970703e-01
-8.263715356588363647e-02
-7.974991798400878906e-01
2.203963696956634521e-02
1.121300086379051208e-01
-3.772932887077331543e-01
-8.724950253963470459e-02
-5.906283482909202576e-02
2.197636812925338745e-01
1.570681333541870117e+00
-4.547696411609649658e-01
-2.642931342124938965e-01
7.365778088569641113e-01
7.507936358451843262e-01
5.242167711257934570e-01
2.514001540839672089e-02
-6.509405970573425293e-01
1.348713338375091553e-01
-4.570684432983398438e-01
-4.332664906978607178e-01
1.948115974664688110e-01
5.155306458473205566e-01
1.976847797632217407e-01
2.456258535385131836e-01
3.871628046035766602e-01
1.299483925104141235e-01
1.050720572471618652e+00
-1.746790558099746704e-01
4.072073101997375488e-01
2.675299942493438721e-01
6.835087388753890991e-02
9.194002747535705566e-01
3.044331967830657959e-01
2.899327576160430908e-01
1.655217632651329041e-02
3.158724606037139893e-01
8.246662467718124390e-02
-4.155996255576610565e-03
4.535558223724365234e-01
2.831057310104370117e-01
-4.841487705707550049e-01
-4.597584307193756104e-01
-4.431505873799324036e-02
-2.065643072128295898e-01
-6.502336859703063965e-01
-8.109360337257385254e-01
-7.166405916213989258e-01
2.824885956943035126e-02
1.281203627586364746e-01
1.276418939232826233e-02
7.436130195856094360e-02
-2.977488338947296143e-01
6.068312525749206543e-01
8.702337145805358887e-01
5.150046944618225098e-01
-3.771215081214904785e-01
-2.301941365003585815e-01
-4.108573198318481445e-01
5.842288136482238770e-01
-1.363792717456817627e-01
5.117678046226501465e-01
1.503600627183914185e-01
-2.158801406621932983e-01
-3.128107264637947083e-02
-4.531360864639282227e-01
5.205649882555007935e-02
8.441623300313949585e-02
-8.323892951011657715e-03
8.456838130950927734e-01
-4.690847694873809814e-01
-6.897364854812622070e-01
1.171714887022972107e-01
1.372415423393249512e-01
7.578793168067932129e-02
-1.446820646524429321e-01
8.148806691169738770e-01
-5.550062656402587891e-01
7.322883605957031250e-01
-5.436004325747489929e-02
-2.755458839237689972e-02
4.791590869426727295e-01
-2.851979434490203857e-01
6.788858771324157715e-02
-7.303464412689208984e-01
3.916523158550262451e-01
-6.398515701293945312e-01
1.095048546791076660e+00
-2.327789664268493652e-01
5.623149871826171875e-02
5.545830726623535156e-01
1.970080435276031494e-01
-2.854804396629333496e-01
5.945869684219360352e-01
-6.247886419296264648e-01
6.309325098991394043e-01
-2.992870807647705078e-01
1.102055087685585022e-01
-2.390436381101608276e-01
-1.522013098001480103e-01
-7.510609179735183716e-02
7.044650148600339890e-03
4.688206315040588379e-02
3.728908002376556396e-01
-1.317281126976013184e-01
-1.945117712020874023e-01
7.204675674438476562e-01
8.032663464546203613e-01
-5.260089635848999023e-01
-2.586740767583250999e-03
8.479011803865432739e-02
1.317335605621337891e+00
4.393320679664611816e-01
1.016528159379959106e-01
1.055774092674255371e-01
3.072777092456817627e-01
-2.880999445915222168e-01
3.832548558712005615e-01
-1.585237085819244385e-01
2.853621840476989746e-01
7.957605719566345215e-01
1.726820506155490875e-02
3.007197082042694092e-01
-7.181468605995178223e-02
-8.059440851211547852e-01
-9.697339683771133423e-02
-7.531291246414184570e-02
4.811172783374786377e-01
3.719411045312881470e-02
-4.818081259727478027e-01
-7.279336452484130859e-01
-2.159212827682495117e-01
-4.104420542716979980e-01
-1.627771705389022827e-01
1.265588849782943726e-01
2.142530530691146851e-01
-1.888428330421447754e-01
-4.987642765045166016e-01
-1.480359286069869995e-01
-3.586414456367492676e-01
-8.201777338981628418e-01
4.495291709899902344e-01
-1.618311107158660889e-01
-1.411111801862716675e-01
2.180967181921005249e-01
-8.586749434471130371e-01
3.119371831417083740e-01
1.258568912744522095e-01
2.786308526992797852e-01
-3.548305034637451172e-01
8.578347414731979370e-02
-4.997039735317230225e-01
-1.138935089111328125e-01
2.073704451322555542e-01
2.335337102413177490e-01
6.416735053062438965e-01
4.827795550227165222e-02
4.949525892734527588e-01
-1.158016443252563477e+00
-2.616296112537384033e-01
4.308044016361236572e-01
2.549311816692352295e-01
-1.973769962787628174e-01
-2.861404716968536377e-01
5.102468132972717285e-01
-2.478123754262924194e-01
-1.572928875684738159e-01
6.016165614128112793e-01
-5.619363188743591309e-01
-6.232636049389839172e-02
1.431678980588912964e-02
8.984285593032836914e-02
1.040049910545349121e+00
-6.716819405555725098e-01
-5.432060956954956055e-01
1.068419665098190308e-01
-1.034835502505302429e-01
9.525341540575027466e-02
2.090891748666763306e-01
-2.634000182151794434e-01
2.522256970405578613e-01
-2.764409184455871582e-01
-2.529659867286682129e-01
-4.274374246597290039e-01
1.400716453790664673e-01
-9.785290807485580444e-02
2.430865466594696045e-01
-2.491154372692108154e-01
4.527677595615386963e-01
1.584389507770538330e-01
-1.932235211133956909e-01
-3.885881006717681885e-01
-1.656719893217086792e-01
3.505750596523284912e-01
1.612501293420791626e-01
-1.583379060029983521e-01
5.803337693214416504e-01
-1.981276720762252808e-01
6.271755695343017578e-01
-1.318852603435516357e-01
-1.246163845062255859e-01
-1.781264543533325195e-01
-1.104703694581985474e-01
-1.745648533105850220e-01
-5.310179591178894043e-01
3.441877067089080811e-01
-1.888803541660308838e-01
-3.525146842002868652e-01
-1.398859381675720215e+00
4.622429907321929932e-01
7.108293771743774414e-01
-1.142826795578002930e+00
3.170358762145042419e-02
1.171347498893737793e-01
-7.152426838874816895e-01
5.674057602882385254e-01
-3.909437060356140137e-01
1.131731495261192322e-01
-1.676440089941024780e-01
1.429672390222549438e-01
-4.886436760425567627e-01
1.014261692762374878e-01
-8.050972968339920044e-02
2.432669997215270996e-01
-1.283302545547485352e+00
-4.021140281111001968e-03
8.300368785858154297e-01
-1.477984786033630371e-01
-6.262747198343276978e-02
-2.483869902789592743e-02
3.023314177989959717e-01
4.858977794647216797e-01
-3.038882613182067871e-01
-1.754742413759231567e-01
1.348513737320899963e-02
4.418973624706268311e-01
-7.532098293304443359e-01
8.391637206077575684e-01
6.173483729362487793e-01
1.212730258703231812e-01
1.338454484939575195e-01
-7.287065982818603516e-01
2.700599730014801025e-01
-4.105719029903411865e-01
-4.605123698711395264e-01
2.245431244373321533e-01
3.632242679595947266e-01
4.700863063335418701e-01
2.394929379224777222e-01
-1.169147714972496033e-01
4.669138789176940918e-01
-4.286423921585083008e-01
-2.641252577304840088e-01
-1.573355793952941895e-01
-6.975030153989791870e-02
-2.938466966152191162e-01
-3.322129547595977783e-01
2.435370832681655884e-01
-1.373376399278640747e-01
-7.697149515151977539e-01
3.275760915130376816e-03
3.644024729728698730e-01
-8.681752681732177734e-01
-4.369342699646949768e-03
4.271439835429191589e-02
-5.945470333099365234e-01
2.567428648471832275e-01
4.548608064651489258e-01
3.153904378414154053e-01
-3.414951562881469727e-01
-2.825000137090682983e-02
3.024690747261047363e-01
-6.487329024821519852e-03
2.910798192024230957e-01
1.103445328772068024e-02
-1.974587887525558472e-01
-2.985951900482177734e-01
1.015824079513549805e-01
-2.054489105939865112e-01
-1.026683568954467773e+00
5.607832670211791992e-01
2.715803086757659912e-01
-4.617878794670104980e-02
-1.822699010372161865e-01
4.783098399639129639e-01
-2.379404604434967041e-01
7.275044918060302734e-03
-8.731995820999145508e-01
-1.397528797388076782e-01
-3.185176551342010498e-01
4.136067330837249756e-01
1.504352092742919922e-01
4.681775569915771484e-01
-3.682979345321655273e-01
-7.900323867797851562e-01
2.436743378639221191e-01
8.485680222511291504e-01
1.806109994649887085e-01
5.710828304290771484e-01
5.751536809839308262e-05
-2.493419796228408813e-01
-6.787729859352111816e-01
-1.061578318476676941e-01
3.251604437828063965e-01
-3.341281116008758545e-01
-2.327254712581634521e-01
2.348003685474395752e-01
1.357623040676116943e-01
4.751785192638635635e-03
-7.166976928710937500e-01
1.573955863714218140e-01
-6.713770627975463867e-01
7.226251065731048584e-02
1.311664581298828125e-01
5.576283931732177734e-01
-1.418551802635192871e-01
5.452097579836845398e-02
-8.702797293663024902e-01
3.873071447014808655e-02
1.750582009553909302e-01
-8.280132412910461426e-01
-1.290392398834228516e+00
-3.443406522274017334e-02
-1.344642937183380127e-01
5.755202770233154297e-01
-5.087706446647644043e-01
-2.021755874156951904e-01
-1.718683540821075439e-02
2.249182164669036865e-01
-2.010237239301204681e-02
1.064549759030342102e-01
-5.259693264961242676e-01
2.253433167934417725e-01
7.458772063255310059e-01
1.977480575442314148e-02
1.134766578674316406e+00
-2.428637146949768066e-01
-5.862247943878173828e-01
4.716626703739166260e-01
-2.089914828538894653e-01
-1.930231750011444092e-01
-4.891143143177032471e-01
-1.956155896186828613e-01
2.769864201545715332e-01
8.388875722885131836e-01
5.942240357398986816e-01
-1.459038853645324707e-01
5.097644329071044922e-01
-2.961358129978179932e-01
4.937190115451812744e-01
-2.344324290752410889e-01
9.878435134887695312e-01
-2.151586115360260010e-01
-3.095912933349609375e-01
-7.319368720054626465e-01
-2.644815444946289062e-01
8.615384101867675781e-01
5.772138237953186035e-01
-2.911696434020996094e-01
7.246927022933959961e-01
-5.048468708992004395e-02
2.108136266469955444e-01
-2.828845083713531494e-01
-1.222112774848937988e-01
4.466007351875305176e-01
-3.114289641380310059e-01
3.388216197490692139e-01
2.059040814638137817e-01
5.067353248596191406e-01
-2.670655548572540283e-01
-2.757815420627593994e-01
-1.020884364843368530e-01
-2.515212893486022949e-01
-1.947785913944244385e-01
-2.877807319164276123e-01
1.588171571493148804e-01
4.678252935409545898e-01
-5.437326803803443909e-02
6.089896559715270996e-01
1.048820987343788147e-01
-1.823376119136810303e-01
4.245314002037048340e-02
-2.711879312992095947e-01
2.843849360942840576e-01
5.984229594469070435e-02
-1.027967184782028198e-01
2.828701436519622803e-01
4.568180069327354431e-02
3.625082373619079590e-01
-7.429559528827667236e-02
-8.455207943916320801e-01
9.009718298912048340e-01
-9.312899410724639893e-02
-4.802192449569702148e-01
-4.567635059356689453e-02
-1.468618661165237427e-01
8.348423242568969727e-01
1.816841214895248413e-01
-6.669236719608306885e-02
-1.389142572879791260e-01
-3.258595764636993408e-01
-3.776147365570068359e-01
-6.581202149391174316e-02
1.263664007186889648e+00
-5.339431166648864746e-01
5.032141804695129395e-01
6.717775464057922363e-01
3.478049635887145996e-01
5.352486371994018555e-01
7.231315132230520248e-03
2.331359237432479858e-01
-4.677092283964157104e-02
1.940522491931915283e-01
7.234072778373956680e-03
5.999727845191955566e-01
-2.270254492759704590e-01
-6.234555840492248535e-01
6.953296661376953125e-01
-1.336837708950042725e-01
-6.016686186194419861e-02
5.522105097770690918e-01
-7.123879194259643555e-01
1.877397298812866211e-01
-1.016905233263969421e-01
8.817988634109497070e-02
-3.439947664737701416e-01
5.833872556686401367e-01
-3.542686700820922852e-01
9.019137024879455566e-01
-2.725879251956939697e-01
2.743310928344726562e-01
2.262075990438461304e-01
1.932248026132583618e-01
-3.705982565879821777e-01
-2.238510698080062866e-01
-8.733965158462524414e-01
1.909407377243041992e-01
-5.437885522842407227e-01
-3.500359952449798584e-01
-3.399669826030731201e-01
4.157937169075012207e-01
6.523268222808837891e-01
1.179580688476562500e-01
3.373946845531463623e-01
5.754524469375610352e-01
1.198440074920654297e+00
-2.198959141969680786e-01
-1.265491992235183716e-01
2.093015015125274658e-01
1.458107382059097290e-01
-5.030626431107521057e-02
-7.518853992223739624e-02
1.137043759226799011e-01
-5.110786557197570801e-01
-4.031259939074516296e-02
5.732113122940063477e-01
-4.374836087226867676e-01
-4.728081822395324707e-01
-4.828125983476638794e-02
2.639584541320800781e-01
3.383615314960479736e-01
-3.298289179801940918e-01
-1.939244717359542847e-01
8.988690376281738281e-01
5.094683915376663208e-02
-7.415252178907394409e-02
1.904728263616561890e-01
3.308575227856636047e-02
-5.814740657806396484e-01
3.485190868377685547e-01
3.185743391513824463e-01
2.496125847101211548e-01
-6.475155800580978394e-02
-2.775092720985412598e-01
-1.868746429681777954e-02
-2.675129473209381104e-02
3.866881728172302246e-01
1.991235315799713135e-01
3.140561282634735107e-01
1.403086781501770020e+00
1.057884693145751953e-01
3.807545304298400879e-01
8.546694517135620117e-01
-4.497512578964233398e-01
-2.027183920145034790e-01
-7.055953145027160645e-02
-1.871897578239440918e-01
3.719864785671234131e-02
1.062727347016334534e-01
-5.188822746276855469e-01
-2.918049991130828857e-01
1.252235025167465210e-01
1.960596442222595215e-01
-9.540542215108871460e-02
-6.018912792205810547e-01
7.761467993259429932e-02
2.308517992496490479e-01
-4.339552819728851318e-01
-7.257736325263977051e-01
4.691628217697143555e-01
4.387145638465881348e-01
2.771783471107482910e-01
1.584878265857696533e-01
-5.332520604133605957e-01
3.884259760379791260e-01
1.269605010747909546e-01
-4.832937419414520264e-01
2.522923350334167480e-01
3.012521564960479736e-01
3.085143566131591797e-01
1.331741213798522949e-01
1.196125894784927368e-01
-5.556469559669494629e-01
-4.966196417808532715e-02
2.098955959081649780e-01
4.570488631725311279e-02
6.938350945711135864e-02
-5.226482152938842773e-01
-5.383591651916503906e-01
2.497725933790206909e-01
-1.110317707061767578e-01
2.460611611604690552e-01
3.294588625431060791e-01
1.253872513771057129e+00
-5.732127428054809570e-01
-3.218446858227252960e-03
1.427434086799621582e+00
1.803992837667465210e-01
-6.658269464969635010e-02
-5.975320339202880859e-01
2.110183686017990112e-01
-6.164208054542541504e-01
1.661557555198669434e-01
-1.540059447288513184e-01
8.156128227710723877e-02
-1.051078796386718750e+00
3.512624800205230713e-01
1.076912283897399902e-01
-1.132284998893737793e-01
7.180892229080200195e-01
2.458771616220474243e-01
-3.469118773937225342e-01
2.894758284091949463e-01
2.269606292247772217e-01
2.579976320266723633e-01
1.716467551887035370e-02
1.205410361289978027e-01
4.853959083557128906e-01
4.190163910388946533e-01
2.618411183357238770e-01
-7.051632404327392578e-01
8.109491467475891113e-01
1.676850020885467529e-01
2.581577897071838379e-01
-5.898504257202148438e-01
-2.323735058307647705e-01
4.498648941516876221e-01
-2.051033377647399902e-01
2.012160569429397583e-01
-1.511183679103851318e-01
5.143532902002334595e-02
-6.104288697242736816e-01
-3.387902975082397461e-01
5.949509143829345703e-01
5.010094046592712402e-01
1.021117687225341797e+00
1.497723609209060669e-01
-6.876388788223266602e-01
-3.218689933419227600e-02
4.036236107349395752e-01
2.719664573669433594e-01
-7.280173301696777344e-01
-3.401726782321929932e-01
-4.317728281021118164e-01
1.172712147235870361e-01
3.922903239727020264e-01
2.670625746250152588e-01
-1.174986287951469421e-01
5.125147700309753418e-01
-4.464508593082427979e-01
-1.860641986131668091e-01
3.783178627490997314e-01
3.132286369800567627e-01
-2.201688885688781738e-01
-7.156454026699066162e-02
-1.814910173416137695e+00
-4.674524366855621338e-01
7.977051138877868652e-01
-7.845176458358764648e-01
8.373247981071472168e-01
5.987440794706344604e-02
3.759838268160820007e-02
-1.361295431852340698e-01
-4.067687690258026123e-02
-1.192479059100151062e-01
2.599077224731445312e-01
5.256228446960449219e-01
4.655064642429351807e-02
2.476582825183868408e-01
2.131883352994918823e-01
-4.650054965168237686e-03
6.359836459159851074e-01
1.997572183609008789e-01
1.419839356094598770e-02
-5.557224750518798828e-01
2.314571850001811981e-02
-6.198570728302001953e-01
-9.451748430728912354e-02
-7.409888319671154022e-03
-4.099596440792083740e-01
3.866437673568725586e-01
3.057136833667755127e-01
1.005766466259956360e-01
-2.558070719242095947e-01
-6.045573949813842773e-01
-1.151754617691040039e+00
5.099521204829216003e-02
5.114639997482299805e-01
3.341637849807739258e-01
-6.572895050048828125e-01
9.304155409336090088e-02
-3.997173532843589783e-02
-5.712073445320129395e-01
-9.131215810775756836e-01
-1.120336651802062988e-01
4.766794741153717041e-01
-1.308115292340517044e-02
2.072304487228393555e-02
-2.417335286736488342e-02
6.296001672744750977e-01
-4.711881875991821289e-01
