1.095674112439155579e-01
9.087028354406356812e-02
1.677118986845016479e-01
-2.341994084417819977e-02
8.617387712001800537e-02
-1.465111523866653442e-01
-8.708822727203369141e-02
2.163950055837631226e-01
1.708436459302902222e-01
-8.168938755989074707e-02
1.978611759841442108e-02
1.181281730532646179e-02
1.189561281353235245e-02
7.619479298591613770e-02
-7.744365185499191284e-02
2.285942882299423218e-01
7.931134849786758423e-02
-2.731743035838007927e-03
4.974642302840948105e-03
-3.970827534794807434e-02
3.355610370635986328e-01
3.336583077907562256e-01
-1.982844696613028646e-04
-7.502788305282592773e-02
2.504213154315948486e-01
1.918921023607254028e-01
8.846815675497055054e-02
6.547789089381694794e-04
7.831741124391555786e-02
-4.392415657639503479e-02
-1.560020353645086288e-02
-4.303623363375663757e-02
-1.074287593364715576e-01
2.506256401538848877e-01
4.340016841888427734e-01
1.089678332209587097e-01
3.832126855850219727e-01
-3.539481014013290405e-02
-1.637332327663898468e-02
4.596455022692680359e-02
-2.667156979441642761e-02
2.103502750396728516e-01
2.042923718690872192e-01
2.509241104125976562e-01
-1.854722052812576294e-01
3.118785321712493896e-01
2.092324346303939819e-01
8.827903866767883301e-02
-1.469906866550445557e-01
5.060536861419677734e-01
2.050638198852539062e-01
1.531477365642786026e-02
3.779168128967285156e-01
2.727427780628204346e-01
1.291487365961074829e-01
3.547068238258361816e-01
-9.243941307067871094e-02
3.856228590011596680e-01
5.507693067193031311e-02
-1.492728441953659058e-01
3.954476118087768555e-01
2.081997692584991455e-01
1.620216667652130127e-01
4.623795151710510254e-01
3.101422488689422607e-01
-8.951336890459060669e-02
2.377315908670425415e-01
3.836065530776977539e-02
3.231366574764251709e-01
1.542269587516784668e-01
1.877723634243011475e-01
4.062542915344238281e-01
1.361895501613616943e-01
2.973091304302215576e-01
8.881948143243789673e-02
8.265140466392040253e-03
-3.540729731321334839e-02
-6.796154379844665527e-02
-2.231579720973968506e-01
1.715752929449081421e-01
-2.158614099025726318e-01
3.587622642517089844e-01
1.894800923764705658e-02
6.792443245649337769e-02
