-8.109839558601379395e-01
1.349030993878841400e-03
-6.098391413688659668e-01
-5.539292469620704651e-02
-6.700603961944580078e-01
-1.526342034339904785e-01
-2.442649155855178833e-01
-2.987946867942810059e-01
-6.595228314399719238e-01
5.736562013626098633e-01
3.305058181285858154e-01
-9.081425070762634277e-01
1.862854510545730591e-01
1.253370344638824463e-01
4.877084195613861084e-01
-5.977413654327392578e-01
-3.182344138622283936e-01
-2.353739142417907715e-01
-1.452713608741760254e-01
3.750041425228118896e-01
2.012150287628173828e-01
-9.891336560249328613e-01
-2.240563482046127319e-01
-5.507336854934692383e-01
-2.473825514316558838e-01
5.528170242905616760e-02
2.202347069978713989e-01
-8.449478447437286377e-02
3.243865370750427246e-01
1.749699562788009644e-01
-2.027912437915802002e-01
3.215058445930480957e-01
-2.318376541137695312e+00
-6.677216887474060059e-01
4.945096969604492188e-01
2.658642828464508057e-01
1.589528918266296387e-01
-1.493838131427764893e-01
6.275585889816284180e-01
-1.811279505491256714e-01
-4.847297966480255127e-01
3.336605727672576904e-01
3.919359743595123291e-01
1.300237793475389481e-02
3.711348176002502441e-01
-1.079465508460998535e+00
1.725157797336578369e-01
1.175626292824745178e-01
1.058736518025398254e-01
4.944195747375488281e-01
9.208291769027709961e-02
5.105999112129211426e-01
1.756855845451354980e-01
6.507750153541564941e-01
2.211858183145523071e-01
-1.733251288533210754e-02
1.999341845512390137e-01
-1.239129900932312012e+00
-7.753192782402038574e-01
5.726935267448425293e-01
3.843442201614379883e-01
-7.703984975814819336e-01
-4.029606580734252930e-01
-7.342050075531005859e-01
7.772349715232849121e-01
3.840957581996917725e-01
2.840825915336608887e-01
-1.048147559165954590e+00
-9.011628627777099609e-01
1.008451059460639954e-01
-2.342971041798591614e-03
-7.925692014396190643e-03
-9.428899884223937988e-01
4.316917434334754944e-02
-1.528495270758867264e-02
-1.041233539581298828e+00
-5.590217113494873047e-01
-3.397959470748901367e-01
-1.842939972877502441e+00
-3.464183509349822998e-01
2.986880242824554443e-01
-1.750945001840591431e-01
-4.162146747112274170e-01
3.562694787979125977e-01
4.955127537250518799e-01
3.848796710371971130e-02
3.843380212783813477e-01
-1.282410860061645508e+00
5.546913146972656250e-01
-6.110563278198242188e-01
-3.629941344261169434e-01
-6.694991588592529297e-01
-1.472588861361145973e-03
-1.180347919464111328e+00
-7.752652168273925781e-01
1.627245396375656128e-01
3.871286213397979736e-01
-8.000349402427673340e-01
-1.225702464580535889e-01
2.212975621223449707e-01
2.346623390913009644e-01
-2.263121604919433594e+00
9.644737243652343750e-01
-1.590455293655395508e+00
2.718333899974822998e-01
1.154529571533203125e+00
-5.108912587165832520e-01
-5.578038096427917480e-01
5.175682902336120605e-01
4.198322594165802002e-01
8.680999279022216797e-02
3.607217371463775635e-01
-7.041549086570739746e-01
-5.433619022369384766e-01
7.419527769088745117e-01
6.020767986774444580e-02
-9.010276198387145996e-01
8.694388270378112793e-01
-4.418664872646331787e-01
-1.050921440124511719e+00
-1.262520909309387207e+00
-1.508210301399230957e+00
5.388022065162658691e-01
4.197343885898590088e-01
2.878488004207611084e-01
3.319904208183288574e-01
2.818586230278015137e-01
-1.089548841118812561e-01
-7.497293949127197266e-01
-6.188170313835144043e-01
7.306953668594360352e-01
-1.381695151329040527e+00
1.777447462081909180e-01
2.222721576690673828e-01
-4.757895469665527344e-01
-6.541945338249206543e-01
5.290585756301879883e-01
-1.367945820093154907e-01
-3.662639558315277100e-01
-2.196733355522155762e-01
2.870981022715568542e-02
-9.120369553565979004e-01
4.181530177593231201e-01
7.151875644922256470e-03
-1.006266832351684570e+00
7.315223813056945801e-01
1.718096286058425903e-01
-3.636325001716613770e-01
-1.984962821006774902e+00
-2.248871564865112305e+00
5.512520074844360352e-01
-2.807224750518798828e+00
-9.901075959205627441e-01
7.925906777381896973e-01
-2.965910732746124268e-01
4.780142009258270264e-01
-1.767539829015731812e-01
2.786038815975189209e-01
-1.070901513099670410e+00
-1.327295064926147461e+00
8.044106364250183105e-01
1.044188499450683594e+00
-1.177762746810913086e+00
6.557556390762329102e-01
-1.253188848495483398e+00
-5.101769566535949707e-01
-5.570638775825500488e-01
6.386344432830810547e-01
1.809131801128387451e-01
3.748896420001983643e-01
2.469309866428375244e-01
4.854265153408050537e-01
-4.029397368431091309e-01
-2.434004545211791992e-01
-7.684649229049682617e-01
8.675742894411087036e-02
-3.654117137193679810e-02
5.217390134930610657e-02
3.950966298580169678e-01
3.377903997898101807e-01
6.063467264175415039e-02
2.040363550186157227e-01
-2.096690470352768898e-03
3.464569747447967529e-01
-6.287764906883239746e-01
-4.019439518451690674e-01
-3.411566019058227539e-01
2.443246841430664062e-01
4.713727533817291260e-01
-4.497011303901672363e-01
-7.558218240737915039e-01
-6.490572690963745117e-01
-2.655774950981140137e-01
-1.953114420175552368e-01
-8.747065663337707520e-01
-6.355499029159545898e-01
1.572357565164566040e-01
-4.594434499740600586e-01
8.941054344177246094e-02
-1.389968097209930420e-01
1.103118509054183960e-01
-1.779420673847198486e-01
2.009765617549419403e-02
3.439460992813110352e-01
5.315093398094177246e-01
-5.181319713592529297e-01
-1.855542361736297607e-01
-4.030689299106597900e-01
-1.432883739471435547e+00
-2.390715181827545166e-01
5.272114276885986328e-01
-1.852408647537231445e-01
4.253157079219818115e-01
1.956526041030883789e-01
-1.046681683510541916e-02
-2.251452356576919556e-01
-1.218934416770935059e+00
-1.549111843109130859e+00
5.014407038688659668e-01
1.758608222007751465e-01
1.816046983003616333e-01
-1.057795509696006775e-01
-3.794615268707275391e-01
3.363298177719116211e-01
1.840414404869079590e-01
-1.876138150691986084e-01
-3.054259717464447021e-01
-1.539504289627075195e+00
3.019185364246368408e-01
4.208017587661743164e-01
-3.427414894104003906e-01
4.121384024620056152e-01
6.643753051757812500e-01
3.510407209396362305e-01
1.231051087379455566e-01
8.576617836952209473e-01
-9.385005831718444824e-01
-2.791479229927062988e-01
-9.679318666458129883e-01
-6.817686557769775391e-02
3.004761338233947754e-01
-1.315251231193542480e+00
-1.083959817886352539e+00
-4.346830546855926514e-01
4.075798019766807556e-02
-1.189534664154052734e+00
-1.874460101127624512e+00
5.057351589202880859e-01
3.985284641385078430e-02
-1.043859362602233887e+00
2.129656523466110229e-01
-7.996784448623657227e-01
8.376216888427734375e-02
2.073538601398468018e-01
7.072028517723083496e-02
-1.359702348709106445e-01
-1.187214612960815430e+00
5.006877779960632324e-01
9.017975628376007080e-02
-1.631696105003356934e+00
-1.264626681804656982e-01
-3.254546970129013062e-02
6.665413826704025269e-02
2.863844856619834900e-02
2.610297203063964844e-01
-1.217064380645751953e+00
-2.364863157272338867e-01
-1.211385894566774368e-02
-5.273255705833435059e-01
4.597551524639129639e-01
-2.154293060302734375e-01
3.337188959121704102e-01
-4.102387279272079468e-02
-4.762224555015563965e-01
5.341727733612060547e-01
3.338032960891723633e-01
9.759002178907394409e-02
5.821892619132995605e-01
4.216830730438232422e-01
2.263301238417625427e-02
-9.569692015647888184e-01
-4.687230288982391357e-01
-5.571458935737609863e-01
-4.225388169288635254e-01
-8.435516357421875000e-01
6.478177011013031006e-02
-4.739819467067718506e-01
-5.009402036666870117e-01
-2.389405012130737305e+00
2.490188032388687134e-01
-5.474071502685546875e-01
3.682761490345001221e-01
2.475563436746597290e-01
-2.226624488830566406e-01
-2.265885323286056519e-01
-1.060756921768188477e+00
5.980936810374259949e-02
4.163122177124023438e-01
6.762983798980712891e-01
5.897400900721549988e-02
3.303108811378479004e-01
-3.139783740043640137e-01
-4.331655502319335938e-01
-6.886369585990905762e-01
1.566369533538818359e-01
1.852141320705413818e-01
3.122695684432983398e-01
-1.377893090248107910e+00
3.551983535289764404e-01
-2.347621470689773560e-01
7.375071197748184204e-02
-2.974846661090850830e-01
-5.573213696479797363e-01
-1.091086491942405701e-02
3.888554871082305908e-01
-1.810457259416580200e-01
-1.665245890617370605e+00
-2.827118933200836182e-01
-1.361183226108551025e-01
-1.718542695045471191e+00
3.174948096275329590e-01
-4.802413880825042725e-01
-6.137188076972961426e-01
2.120464481413364410e-02
-3.301884829998016357e-01
-4.321834146976470947e-01
3.308463692665100098e-01
5.390366911888122559e-01
-1.012305021286010742e-01
-3.328584432601928711e-01
-3.614076673984527588e-01
-1.010035127401351929e-01
2.444678395986557007e-01
-1.158216595649719238e+00
-1.808574557304382324e+00
-8.725406974554061890e-02
2.605124413967132568e-01
1.509838998317718506e-01
2.263033092021942139e-01
-3.299303650856018066e-01
-3.421980887651443481e-02
1.739373356103897095e-01
-1.008781433105468750e+00
4.952977001667022705e-01
3.320180475711822510e-01
-1.790487170219421387e-01
-4.902687966823577881e-01
1.665561832487583160e-02
2.901940643787384033e-01
-5.538672208786010742e-02
-6.701902151107788086e-01
-1.406575292348861694e-01
3.684535622596740723e-01
4.128737151622772217e-01
3.414789438247680664e-01
-2.311355173587799072e-01
-9.593214392662048340e-01
-8.401349782943725586e-01
-5.653268098831176758e-01
3.294273614883422852e-01
2.537297606468200684e-01
-7.561348676681518555e-01
2.281019836664199829e-01
1.705565750598907471e-01
6.689059734344482422e-02
-4.884682595729827881e-02
3.790250420570373535e-01
-1.249133110046386719e+00
-3.238156735897064209e-01
-1.298770546913146973e+00
2.052626311779022217e-01
3.028012579306960106e-03
-7.021925449371337891e-01
-4.293441474437713623e-01
-1.050930142402648926e+00
1.121433973312377930e-01
-2.183068513870239258e+00
2.050493806600570679e-01
-6.792586445808410645e-01
3.003906309604644775e-01
-4.138720631599426270e-01
3.565319776535034180e-01
1.287477612495422363e-01
1.392745971679687500e-01
-2.372938543558120728e-01
-1.472020983695983887e+00
-6.663795709609985352e-01
-1.041512638330459595e-01
1.683266162872314453e-01
-1.361151695251464844e+00
1.399658173322677612e-01
-3.796544075012207031e-01
-4.396235570311546326e-02
5.060597062110900879e-01
2.965602278709411621e-01
-1.342562079429626465e+00
1.552055478096008301e-01
1.456590443849563599e-01
3.517235219478607178e-01
3.088085651397705078e-01
-7.047088146209716797e-01
2.471854686737060547e-01
2.297684103250503540e-01
2.406202070415019989e-02
-8.583110570907592773e-01
2.143325954675674438e-01
-2.363419532775878906e-01
-7.163709998130798340e-01
5.898503065109252930e-01
-2.130410909652709961e+00
2.022315412759780884e-01
2.031887620687484741e-01
3.100073933601379395e-01
1.087493151426315308e-01
-4.997300505638122559e-01
-1.037182807922363281e+00
3.023958504199981689e-01
-6.963571310043334961e-01
-1.937117986381053925e-02
-7.322626709938049316e-01
-1.939044117927551270e+00
-2.309728145599365234e+00
-1.334718704223632812e+00
3.698214292526245117e-01
3.499585092067718506e-01
4.893277212977409363e-02
6.101579070091247559e-01
-1.837771236896514893e-01
7.757717370986938477e-01
2.305308729410171509e-01
8.044968843460083008e-01
5.480998158454895020e-01
-1.189578175544738770e+00
-7.395032793283462524e-02
3.239486217498779297e-01
-5.854615569114685059e-01
9.831720590591430664e-02
-4.548618495464324951e-01
5.278894901275634766e-01
-1.064672112464904785e+00
1.524665057659149170e-01
1.463336646556854248e-01
-4.005013033747673035e-02
1.040810421109199524e-01
2.270512282848358154e-01
-9.022703170776367188e-01
-9.001732468605041504e-01
-8.719497174024581909e-02
5.017080307006835938e-01
2.597921490669250488e-01
2.470283210277557373e-01
5.382817387580871582e-01
3.150725662708282471e-01
1.899784505367279053e-01
-1.124346971511840820e+00
-5.032333731651306152e-01
-1.352817296981811523e+00
2.851040959358215332e-01
5.590137243270874023e-01
2.898066639900207520e-01
5.522841215133666992e-01
-7.336257100105285645e-01
1.702270805835723877e-01
-4.657734036445617676e-01
2.716895341873168945e-01
-8.140721917152404785e-02
-3.088644981384277344e+00
-1.175298452377319336e+00
6.888788342475891113e-01
-8.166593313217163086e-01
-6.825304031372070312e-02
-3.198186755180358887e-01
-2.422227859497070312e+00
1.306000202894210815e-01
-8.158286809921264648e-01
-6.146618723869323730e-02
8.635771274566650391e-01
-5.091675519943237305e-01
1.020085662603378296e-01
1.495870649814605713e-01
-8.140403032302856445e-01
-1.178055644035339355e+00
-4.827624261379241943e-01
-1.610379338264465332e+00
2.123918086290359497e-01
-1.737375140190124512e+00
-2.676764011383056641e+00
1.730558574199676514e-01
-3.163361847400665283e-01
1.358314007520675659e-01
2.225900888442993164e-01
-2.125796079635620117e+00
-6.745964884757995605e-01
3.754153549671173096e-01
-2.096516042947769165e-01
4.568835794925689697e-01
2.211155593395233154e-01
-1.930425758473575115e-03
2.097439020872116089e-01
5.332509875297546387e-01
3.408847376704216003e-02
1.773123145103454590e-01
3.967947959899902344e-01
2.917442321777343750e-01
5.434627458453178406e-02
3.568043112754821777e-01
-5.622933506965637207e-01
-5.785285234451293945e-01
4.503464698791503906e-01
-7.542216181755065918e-01
-1.462875962257385254e+00
3.436828963458538055e-03
3.248930275440216064e-01
1.199810132384300232e-01
5.375869199633598328e-02
-5.281006097793579102e-01
7.097757607698440552e-02
-7.346035838127136230e-01
-7.801802158355712891e-01
3.909550905227661133e-01
2.338247895240783691e-01
-4.030867218971252441e-01
-4.799588024616241455e-01
5.565367341041564941e-01
-4.041489660739898682e-01
6.920024007558822632e-02
1.468834578990936279e-01
-7.203795760869979858e-02
-9.384298324584960938e-01
3.486470580101013184e-01
-1.083067730069160461e-01
3.305741250514984131e-01
3.019333779811859131e-01
5.200904607772827148e-01
-5.467201471328735352e-01
-6.768745183944702148e-01
-8.888667225837707520e-01
1.006108298897743225e-01
-6.245492398738861084e-02
4.617018401622772217e-01
-1.391736626625061035e+00
2.046703249216079712e-01
1.016485989093780518e-01
-7.498412728309631348e-01
-7.662203311920166016e-01
2.698200345039367676e-01
-2.336311042308807373e-01
3.977931737899780273e-01
6.646226160228252411e-03
2.851655185222625732e-01
-4.584692046046257019e-02
3.849177658557891846e-01
-3.816759586334228516e-02
1.808486580848693848e-01
-6.851183772087097168e-01
1.040293350815773010e-01
1.856468915939331055e-01
-3.272321224212646484e-01
-3.658739030361175537e-01
9.060227125883102417e-02
9.122814517468214035e-04
3.138923048973083496e-01
2.210052162408828735e-01
4.057682752609252930e-01
-1.035543158650398254e-01
-4.659260809421539307e-01
2.110204845666885376e-02
2.757297456264495850e-02
-6.648635864257812500e-01
1.082584634423255920e-01
7.786098122596740723e-02
-4.937063157558441162e-01
1.709851771593093872e-01
-6.425364017486572266e-01
2.222526669502258301e-01
4.874458312988281250e-01
9.572224318981170654e-02
-3.864076435565948486e-01
-3.015640377998352051e-01
-4.398299157619476318e-01
-6.883549690246582031e-01
-1.248947620391845703e+00
-1.511784553527832031e+00
-3.113862276077270508e-01
1.724825799465179443e-01
-2.925972044467926025e-01
3.255308568477630615e-01
6.772932410240173340e-02
-1.234689712524414062e+00
-4.199012756347656250e+00
-1.021062970161437988e+00
-1.752630919218063354e-01
1.963817626237869263e-01
2.567675411701202393e-01
2.695218324661254883e-01
-1.079062838107347488e-02
-6.684032082557678223e-01
-8.132759928703308105e-01
-9.581692516803741455e-02
-5.770675465464591980e-02
-2.210110902786254883e+00
3.311755955219268799e-01
1.197171881794929504e-01
-1.055172681808471680e+00
3.143226802349090576e-01
5.620060563087463379e-01
-4.124144837260246277e-02
-1.172535657882690430e+00
-1.410758942365646362e-01
2.377801537513732910e-01
3.360491991043090820e-01
2.509337663650512695e-01
2.748165130615234375e-01
-2.215788602828979492e+00
-1.086960285902023315e-01
-3.766605556011199951e-01
-5.418363809585571289e-01
-6.161668896675109863e-01
7.110323291271924973e-03
3.930316269397735596e-01
3.530268967151641846e-01
-1.103673726320266724e-01
-6.327153444290161133e-01
-1.284672260284423828e+00
6.461808681488037109e-01
2.343994975090026855e-01
-2.204352915287017822e-01
1.113438233733177185e-01
3.122569620609283447e-01
-7.044526934623718262e-01
-2.315072901546955109e-02
2.906603217124938965e-01
-8.059624433517456055e-01
1.796749234199523926e-01
-3.641353607177734375e+00
8.212947100400924683e-02
-3.089408874511718750e-01
2.894691824913024902e-01
4.194589704275131226e-02
5.422845110297203064e-02
-3.461334228515625000e+00
2.384714335203170776e-01
7.612765431404113770e-01
-2.777070179581642151e-02
-1.354707002639770508e+00
1.677855700254440308e-01
-5.427044257521629333e-02
4.399598389863967896e-02
-2.035722732543945312e-01
-6.497225761413574219e-01
1.126560941338539124e-01
-1.113010525703430176e+00
4.061641991138458252e-01
-9.875706434249877930e-01
-1.764336347579956055e+00
2.575072348117828369e-01
4.601981937885284424e-01
-2.625185251235961914e-01
5.702082514762878418e-01
-1.196705937385559082e+00
2.846718430519104004e-01
3.411608338356018066e-01
2.913289368152618408e-01
2.351461201906204224e-01
1.983876675367355347e-01
2.570354342460632324e-01
5.174739956855773926e-01
3.920711576938629150e-01
-9.804197549819946289e-01
2.869134843349456787e-01
-4.422442615032196045e-01
-5.642769932746887207e-01
7.704767584800720215e-01
-1.995025396347045898e+00
4.056889712810516357e-01
-1.825360357761383057e-01
-4.105209410190582275e-01
1.826694160699844360e-01
-2.127109289169311523e+00
4.300747215747833252e-01
-2.283019721508026123e-01
7.074283063411712646e-02
-1.188726782798767090e+00
-3.549257218837738037e-01
-1.597283601760864258e+00
4.004725813865661621e-01
2.611632645130157471e-01
5.477790832519531250e-01
-8.701492846012115479e-02
4.117499589920043945e-01
-3.541679084300994873e-01
-1.601559281349182129e+00
-6.717692613601684570e-01
8.084423542022705078e-01
5.738943219184875488e-01
4.842092096805572510e-02
8.175042867660522461e-01
-1.339546203613281250e+00
-4.379176497459411621e-01
-1.132157087326049805e+00
2.376336604356765747e-01
2.335534244775772095e-02
-1.496514976024627686e-01
-9.957004785537719727e-01
-1.748297095298767090e+00
1.255229413509368896e-01
3.544869124889373779e-01
-1.300935745239257812e+00
-9.890066981315612793e-01
2.528924345970153809e-01
-5.266961455345153809e-01
4.009527862071990967e-01
5.923524498939514160e-01
-1.531498193740844727e+00
-4.009015858173370361e-02
1.695931255817413330e-01
4.475813210010528564e-01
3.513004481792449951e-01
-4.849666953086853027e-01
-1.477106809616088867e-01
-1.810673326253890991e-01
6.262245774269104004e-01
4.533546566963195801e-01
-1.171157002449035645e+00
3.625056743621826172e-01
-9.199096262454986572e-02
-6.412322521209716797e-01
4.691570699214935303e-01
-6.173573732376098633e-01
-6.530919075012207031e-01
-9.090472459793090820e-01
5.104017853736877441e-01
1.173481345176696777e-01
8.225325942039489746e-01
-6.398623585700988770e-01
7.279570102691650391e-01
-1.767352342605590820e+00
-2.992113530635833740e-01
-1.963220357894897461e+00
1.168656721711158752e-01
5.724835395812988281e-01
2.918045222759246826e-01
1.386125087738037109e-01
7.754525542259216309e-02
-1.252847790718078613e+00
6.319007277488708496e-01
1.632147133350372314e-01
4.306418001651763916e-01
-5.862624049186706543e-01
-9.210587739944458008e-01
-1.891834735870361328e+00
-3.323618769645690918e-01
-1.472582966089248657e-01
1.024158835411071777e+00
4.264497160911560059e-01
-2.457450479269027710e-01
-9.623327851295471191e-01
-6.366496682167053223e-01
-7.682616114616394043e-01
4.835689961910247803e-01
-3.416213095188140869e-01
1.137227118015289307e-01
5.556593537330627441e-01
2.004838734865188599e-01
3.251446643844246864e-03
-8.298959136009216309e-01
-7.648215293884277344e-01
3.861148953437805176e-01
-1.925599098205566406e+00
3.666150569915771484e-01
1.902353763580322266e-01
-6.087064146995544434e-01
-3.050027191638946533e-01
-5.784023404121398926e-01
-5.811748504638671875e-01
-6.878846287727355957e-01
5.066697597503662109e-01
1.089403703808784485e-01
1.384107172489166260e-01
1.559296697378158569e-01
6.284593790769577026e-02
-7.611404061317443848e-01
6.953428387641906738e-01
2.315070182085037231e-01
-7.344087958335876465e-01
4.785319417715072632e-02
-3.367483317852020264e-01
3.077135384082794189e-01
5.713376998901367188e-01
4.183297455310821533e-01
2.326285690069198608e-01
6.207829117774963379e-01
5.400904417037963867e-01
1.547410339117050171e-01
-5.009863972663879395e-01
-2.266656458377838135e-01
1.329345686826854944e-04
5.761945247650146484e-01
-7.253038883209228516e-01
5.238416139036417007e-03
-1.120945215225219727e+00
-1.345371007919311523e-01
-3.072947740554809570e+00
5.854873657226562500e-01
2.366758137941360474e-01
3.823114633560180664e-01
3.663538098335266113e-01
3.794087767601013184e-01
-1.418235301971435547e+00
-3.832308948040008545e-02
-1.853069961071014404e-01
4.659223556518554688e-02
-2.718081474304199219e-01
2.784934341907501221e-01
-1.581224650144577026e-01
-9.725930690765380859e-01
-2.235554009675979614e-01
4.282095730304718018e-01
-1.086972713470458984e+00
-1.332909941673278809e+00
1.423564106225967407e-01
-1.441440582275390625e+00
-1.620270967483520508e+00
3.007310330867767334e-01
-1.859759092330932617e-01
4.012867510318756104e-01
-6.303032636642456055e-01
-1.005062580108642578e+00
1.802961677312850952e-01
2.464735805988311768e-01
4.321821928024291992e-01
3.950904905796051025e-01
-2.363123893737792969e-01
7.020927071571350098e-01
7.645348906517028809e-01
-9.929076433181762695e-01
-1.586364746093750000e+00
4.694818556308746338e-01
2.572667598724365234e-01
1.795313954353332520e-01
