4.926785528659820557e-01
1.020962238311767578e+00
-4.441771209239959717e-01
-7.353621125221252441e-01
1.385493874549865723e-01
-1.735962033271789551e-01
-3.199111670255661011e-02
-5.722047090530395508e-01
-6.616065502166748047e-01
-1.047251597046852112e-01
2.491622976958751678e-02
2.608405947685241699e-01
-1.577497571706771851e-01
1.570881158113479614e-01
-5.559825897216796875e-01
-3.052336350083351135e-02
-1.653872281312942505e-01
-9.716227650642395020e-02
4.229238629341125488e-01
-2.724975049495697021e-01
-6.374614238739013672e-01
8.846948295831680298e-02
-7.514812168665230274e-04
2.571011483669281006e-01
4.928014874458312988e-01
5.469590798020362854e-02
-1.987503618001937866e-01
-1.939893811941146851e-01
-4.315198585391044617e-02
3.793573677539825439e-01
-8.847615867853164673e-02
-5.931209027767181396e-02
-1.781556196510791779e-02
-1.500573605298995972e-01
-2.276632487773895264e-01
-9.827660396695137024e-03
-2.819280028343200684e-01
-1.884944587945938110e-01
-5.219484865665435791e-02
-1.116355583071708679e-01
5.912490305490791798e-04
1.451279073953628540e-01
7.203767448663711548e-02
-3.951382637023925781e-02
-1.591945737600326538e-01
-3.044904395937919617e-02
-2.113250829279422760e-02
-2.651871144771575928e-01
-9.319202601909637451e-02
-1.835692375898361206e-01
2.034706436097621918e-02
5.590772032737731934e-01
8.403527736663818359e-01
-2.099286615848541260e-01
-4.677539169788360596e-01
9.305694699287414551e-02
1.452556401491165161e-01
-2.570498883724212646e-01
-1.037788204848766327e-02
3.993482887744903564e-01
-8.102534711360931396e-02
1.231450811028480530e-01
-6.765310466289520264e-02
-3.743067085742950439e-01
-2.243752181529998779e-01
3.089285083115100861e-02
1.893560290336608887e-01
-3.235314488410949707e-01
-1.626518964767456055e-01
-2.229277789592742920e-01
2.664714753627777100e-01
-9.578952789306640625e-01
-4.840706288814544678e-02
4.097861051559448242e-01
5.546282604336738586e-02
1.708537489175796509e-01
-2.270851284265518188e-01
-7.931269705295562744e-02
1.485193073749542236e-01
-4.916222989559173584e-01
3.098989836871623993e-02
3.396565616130828857e-01
-8.262677490711212158e-02
2.234362764284014702e-03
-8.229164779186248779e-02
1.522215306758880615e-01
4.560734331607818604e-02
-1.566857993602752686e-01
2.457229793071746826e-01
2.262485772371292114e-01
1.309986971318721771e-02
-1.371764950454235077e-02
7.711960375308990479e-02
4.067635238170623779e-01
2.316676527261734009e-01
-2.295713275671005249e-01
2.789158523082733154e-01
2.491537109017372131e-02
1.695769876241683960e-01
5.057942494750022888e-02
3.874387741088867188e-01
3.056120276451110840e-01
-4.007833600044250488e-01
-1.379016518592834473e+00
-1.206113576889038086e+00
-3.370662629604339600e-01
3.231210410594940186e-01
-6.871078610420227051e-01
2.690849006175994873e-01
-7.891225218772888184e-01
-1.159133948385715485e-02
-2.494592666625976562e-01
-8.382578194141387939e-02
-7.484047859907150269e-02
1.158120557665824890e-01
-6.583802402019500732e-02
3.510675951838493347e-02
1.961858123540878296e-01
3.714388310909271240e-01
5.397066473960876465e-01
-2.451118826866149902e-01
-1.499923616647720337e-01
3.528438210487365723e-01
6.861898899078369141e-01
1.596531391143798828e+00
-1.126074641942977905e-01
-2.152163237333297729e-01
-2.342907190322875977e-01
2.041232138872146606e-01
8.671172261238098145e-01
-6.231682747602462769e-02
-6.491282582283020020e-02
2.263153642416000366e-01
6.807906180620193481e-02
1.923196315765380859e-01
1.857518404722213745e-02
5.598102509975433350e-02
-7.043073326349258423e-02
-6.498878449201583862e-02
-3.230333328247070312e-01
-1.771980226039886475e-01
-1.291848421096801758e-01
1.219016462564468384e-01
4.346179217100143433e-02
-2.062660902738571167e-01
-1.987649798393249512e-01
-2.142718136310577393e-01
-2.753221392631530762e-01
1.084839403629302979e-01
-4.455611854791641235e-02
-4.714420735836029053e-01
1.083223670721054077e-01
1.409554183483123779e-01
1.940417587757110596e-01
-1.472863554954528809e-01
3.756523132324218750e-01
1.163019537925720215e+00
3.956315517425537109e-01
2.935320436954498291e-01
1.095306426286697388e-01
-4.486748576164245605e-01
-1.198168620467185974e-01
-3.829796016216278076e-01
-5.451170802116394043e-01
1.337682083249092102e-02
-4.075730443000793457e-01
-4.805226624011993408e-01
-2.935802098363637924e-03
-3.463296890258789062e-01
1.520110666751861572e-02
-1.056262254714965820e-01
1.678289622068405151e-01
2.243649512529373169e-01
3.265030682086944580e-01
1.632408648729324341e-01
-2.590497016906738281e+00
-2.125856399536132812e+00
-9.337754249572753906e-01
6.268372386693954468e-02
1.489747613668441772e-01
-1.361797213554382324e+00
-1.500887036323547363e+00
-8.734362125396728516e-01
-5.066955462098121643e-02
-6.277341395616531372e-02
-1.495702117681503296e-01
-4.094144403934478760e-01
-3.541082739830017090e-01
-1.977518796920776367e-01
-2.449003234505653381e-02
1.045601908117532730e-02
-2.784304879605770111e-02
3.325219824910163879e-02
2.346245944499969482e-01
-8.357527852058410645e-02
5.714073777198791504e-01
4.494385793805122375e-02
8.708209544420242310e-02
4.957474395632743835e-02
4.094196259975433350e-01
-4.221309423446655273e-01
-2.807575166225433350e-01
-1.161635667085647583e-02
6.398373842239379883e-01
6.435680985450744629e-01
-1.857240498065948486e-01
3.130107820034027100e-01
2.737454771995544434e-01
-1.295304149389266968e-01
-7.823803275823593140e-02
1.233408749103546143e-01
-4.112576693296432495e-02
-3.304751515388488770e-01
-1.331101208925247192e-01
1.367530971765518188e-01
6.560610979795455933e-02
-2.872639298439025879e-01
-4.734536111354827881e-01
-2.412999421358108521e-01
-1.289873421192169189e-01
5.520614981651306152e-01
8.653120696544647217e-02
1.289685368537902832e-01
-1.642165631055831909e-01
-9.115928411483764648e-02
7.856085896492004395e-03
4.481152594089508057e-01
3.265797793865203857e-01
-7.945999503135681152e-03
1.468496024608612061e-01
-4.737038537859916687e-02
2.525641918182373047e-01
2.640416324138641357e-01
3.582302331924438477e-01
2.679223120212554932e-01
-2.464197874069213867e-01
1.186280921101570129e-01
1.829917728900909424e-01
-8.132696151733398438e-02
-2.631225995719432831e-02
8.206380903720855713e-02
1.790696084499359131e-01
7.115594297647476196e-02
2.335254102945327759e-02
3.849760293960571289e-01
-4.404844343662261963e-01
-3.365113139152526855e-01
-2.581619024276733398e-01
-1.386640071868896484e-01
-1.641756296157836914e-01
-9.896365553140640259e-02
1.800727397203445435e-01
5.859930515289306641e-01
3.519290387630462646e-01
-3.921692445874214172e-02
4.470465332269668579e-02
2.098572105169296265e-01
-2.843445539474487305e-02
-2.485574185848236084e-01
1.823133081197738647e-01
-1.571876853704452515e-01
-2.515736818313598633e-01
-2.423445731401443481e-01
-4.720108583569526672e-02
-2.208095341920852661e-01
-1.081563755869865417e-01
-1.433095782995223999e-01
-3.615244925022125244e-01
-8.009047806262969971e-02
-1.097969487309455872e-01
-3.208972141146659851e-02
-1.218887642025947571e-01
-4.737086296081542969e-01
-2.553514540195465088e-01
4.699831083416938782e-02
-1.245939210057258606e-01
-3.448674380779266357e-01
-4.490126967430114746e-01
-7.326941192150115967e-02
-7.743243128061294556e-02
1.021458432078361511e-01
-2.085767388343811035e-01
-3.203202784061431885e-01
-6.867288053035736084e-02
8.596580475568771362e-02
6.012309342622756958e-03
1.223210319876670837e-01
-1.281910538673400879e-01
-7.859563082456588745e-02
-1.244392916560173035e-01
5.503336340188980103e-02
-4.949624091386795044e-02
5.344532430171966553e-02
-4.679451510310173035e-02
-5.810033902525901794e-02
1.149217113852500916e-01
-7.124936580657958984e-02
2.436586841940879822e-02
2.757607698440551758e-01
-3.218900784850120544e-02
5.159285664558410645e-01
3.019973337650299072e-01
-3.976518288254737854e-02
1.622930318117141724e-01
2.278257757425308228e-01
-5.367375016212463379e-01
-7.174730300903320312e-01
-1.416486501693725586e-01
-7.160232067108154297e-01
-4.760649800300598145e-01
2.145945131778717041e-01
2.533692419528961182e-01
-6.602100282907485962e-02
-1.765799671411514282e-01
8.488528430461883545e-03
7.960674911737442017e-02
-3.390467464923858643e-01
-1.515564918518066406e-01
2.428698092699050903e-01
3.532742857933044434e-01
-3.778995275497436523e-01
-2.420787960290908813e-01
-4.588381946086883545e-01
4.276796281337738037e-01
2.080733925104141235e-01
2.534729540348052979e-01
4.372398182749748230e-02
-1.570331119000911713e-02
7.913513481616973877e-02
4.619851112365722656e-01
1.492637842893600464e-01
-6.185048259794712067e-03
-1.579149216413497925e-01
2.913052029907703400e-02
-2.626321464776992798e-02
1.777921468019485474e-01
-6.516034156084060669e-02
-2.800661921501159668e-01
2.010296583175659180e-01
2.740720212459564209e-01
3.062106072902679443e-01
-6.200221553444862366e-02
6.117985770106315613e-02
2.090037614107131958e-01
4.930411875247955322e-01
9.098859131336212158e-02
-1.636897958815097809e-02
1.608484424650669098e-02
1.626696623861789703e-02
1.076789274811744690e-01
2.895620167255401611e-01
2.556171119213104248e-01
4.039352536201477051e-01
1.366604566574096680e-01
-9.687808901071548462e-02
-3.991143107414245605e-01
-5.359732508659362793e-01
-3.848163187503814697e-01
-4.411193132400512695e-01
-6.029623746871948242e-01
-3.725365698337554932e-01
1.104765161871910095e-01
1.038442924618721008e-01
2.238949090242385864e-01
6.807182217016816139e-04
3.459043204784393311e-01
1.124969050288200378e-01
-2.183023989200592041e-01
-3.614091575145721436e-01
2.093226313591003418e-01
-2.137511670589447021e-01
4.388138949871063232e-01
1.296668052673339844e-01
-8.286957740783691406e-01
-1.375214159488677979e-01
-2.352432012557983398e-01
2.051648944616317749e-01
-2.824763953685760498e-01
-2.773929834365844727e-01
-2.834874093532562256e-01
4.492371380329132080e-01
1.110069230198860168e-01
-2.715932130813598633e-01
1.974444137886166573e-03
1.740002781152725220e-01
2.039995342493057251e-01
-2.407224029302597046e-01
-3.802535235881805420e-01
-2.391659766435623169e-01
3.045346140861511230e-01
2.623327542096376419e-03
-1.226602643728256226e-01
6.329573690891265869e-02
-1.554542034864425659e-01
-4.416046440601348877e-01
2.859573662281036377e-01
1.802692189812660217e-02
-1.475041359663009644e-01
-2.898278832435607910e-01
-1.418233990669250488e+00
-3.323185741901397705e-01
-3.124782741069793701e-01
-2.486658990383148193e-01
9.574625641107559204e-02
2.045748829841613770e-01
1.680232137441635132e-01
3.939926996827125549e-02
-5.021407082676887512e-02
1.715945154428482056e-01
1.468484010547399521e-02
9.200817346572875977e-02
-2.079422026872634888e-01
-5.180742740631103516e-01
-5.873336642980575562e-02
2.714555561542510986e-01
8.038173615932464600e-02
5.269481241703033447e-02
-5.150919407606124878e-02
5.765430256724357605e-02
4.965518712997436523e-01
-9.265311062335968018e-02
2.497676461935043335e-01
-3.695181105285882950e-03
1.144031062722206116e-02
-2.697934508323669434e-01
-2.829292118549346924e-01
-3.927400335669517517e-02
-2.501557022333145142e-02
5.710272789001464844e-01
7.345383614301681519e-02
1.261285692453384399e-01
-5.356567502021789551e-01
-3.153529167175292969e-01
-2.287269979715347290e-01
-3.480336964130401611e-01
-3.092515468597412109e-01
-3.183179199695587158e-01
1.949198693037033081e-01
-3.401470780372619629e-01
-3.772000670433044434e-01
-4.828489124774932861e-01
-4.082277417182922363e-01
1.798902153968811035e-01
-1.203966662287712097e-01
-7.603824734687805176e-01
-5.805910229682922363e-01
-4.746551811695098877e-01
1.363670527935028076e-01
2.781228162348270416e-02
-4.879586398601531982e-01
-4.704536497592926025e-01
-4.332258403301239014e-01
-7.080981880426406860e-02
1.401098519563674927e-01
-7.410978525876998901e-02
1.067668199539184570e-01
2.556636370718479156e-02
-3.022101521492004395e-01
2.575863301753997803e-01
6.093909740447998047e-01
1.322737783193588257e-01
-4.931043982505798340e-01
-1.205827593803405762e-01
-3.076668977737426758e-01
-1.640266180038452148e-01
1.178330779075622559e-01
9.685996174812316895e-02
-8.886828273534774780e-02
-8.486273139715194702e-02
-5.181687474250793457e-01
-3.315751254558563232e-02
5.438298732042312622e-02
-5.565785765647888184e-01
-3.052306920289993286e-02
-7.061709463596343994e-02
-1.570199429988861084e-02
-9.779313951730728149e-02
-1.675365716218948364e-01
3.263368904590606689e-01
-1.082684546709060669e-01
-3.494878113269805908e-01
-1.153461113572120667e-01
3.276720941066741943e-01
2.861990034580230713e-01
-4.191936254501342773e-01
-7.611142098903656006e-02
-1.310527138411998749e-02
9.353297203779220581e-02
2.140621691942214966e-01
4.013935104012489319e-02
1.389616578817367554e-01
-1.347976364195346832e-02
-2.355418056249618530e-01
2.091046422719955444e-01
-2.936825454235076904e-01
3.153562545776367188e-01
-3.474217951297760010e-01
-9.043521434068679810e-02
2.039383649826049805e-01
-3.981164097785949707e-02
1.478622406721115112e-01
-3.190971165895462036e-02
5.733295157551765442e-02
8.144470863044261932e-03
-1.515572965145111084e-01
4.908711910247802734e-01
3.184770643711090088e-01
5.140205025672912598e-01
-8.298312425613403320e-01
-7.026298046112060547e-01
-9.426095336675643921e-02
3.949424624443054199e-01
-3.014876544475555420e-01
-3.922024741768836975e-02
1.371265053749084473e-01
-3.419800661504268646e-03
-3.915552198886871338e-01
1.149744838476181030e-01
6.209716200828552246e-03
4.480499401688575745e-02
-1.042812690138816833e-02
-6.669677793979644775e-03
9.489563852548599243e-02
8.342389762401580811e-02
1.415634304285049438e-01
6.153516843914985657e-02
2.432937622070312500e-01
-2.467467188835144043e-01
-9.939036965370178223e-01
-1.108967185020446777e+00
-6.040582060813903809e-01
-6.067726612091064453e-01
-4.645365476608276367e-01
-6.488691568374633789e-01
-1.227441072463989258e+00
-3.665916994214057922e-02
2.318497449159622192e-01
4.443785548210144043e-01
-4.361600875854492188e-01
-6.723858714103698730e-01
1.536297649145126343e-01
2.864183299243450165e-02
3.507416844367980957e-01
-4.195225536823272705e-01
-4.789771735668182373e-01
5.904912948608398438e-01
9.418543428182601929e-02
3.029999509453773499e-02
-6.918776631355285645e-01
-9.617457985877990723e-01
5.641030073165893555e-01
3.112984001636505127e-01
-3.000048995018005371e-01
-1.092720497399568558e-02
6.536724567413330078e-01
-8.821557275950908661e-04
4.000108540058135986e-01
-3.171360790729522705e-01
-3.127900958061218262e-01
1.022958476096391678e-02
-3.151544034481048584e-01
-2.082624137401580811e-01
3.490325808525085449e-01
-2.665363550186157227e-01
8.606646955013275146e-02
-8.431133031845092773e-01
3.391925692558288574e-01
-3.422785922884941101e-02
-6.074097752571105957e-01
-3.420010581612586975e-02
1.759270429611206055e-01
8.219090104103088379e-01
2.547540664672851562e-01
-9.033898115158081055e-01
2.607219517230987549e-01
-3.319114148616790771e-01
-1.757381111383438110e-01
1.898421049118041992e-01
-5.024322867393493652e-01
8.319564908742904663e-02
-1.641848087310791016e-01
1.147736310958862305e-01
1.948357224464416504e-01
-2.599776089191436768e-01
1.295387893915176392e-01
1.882386952638626099e-01
1.448080539703369141e-01
-2.040421590209007263e-02
-2.167491167783737183e-01
1.779994815587997437e-01
2.146403491497039795e-01
-1.627278141677379608e-02
-1.967019736766815186e-01
-1.448676586151123047e-01
-9.851332008838653564e-02
2.776589803397655487e-02
1.601683795452117920e-01
3.567993268370628357e-02
-1.236549913883209229e-01
5.065801739692687988e-02
-5.242916941642761230e-02
1.510190367698669434e-01
2.760313451290130615e-02
-3.023404479026794434e-01
2.326156711205840111e-03
-3.260857462882995605e-01
-1.437938064336776733e-01
-1.158831000328063965e+00
-7.726982235908508301e-01
-1.337509900331497192e-01
-4.428471252322196960e-02
-1.856186836957931519e-01
-7.522466182708740234e-01
7.296025007963180542e-02
-1.998123824596405029e-01
-2.428017109632492065e-01
-1.210636645555496216e-01
-6.269541978836059570e-01
-2.360319346189498901e-01
-1.976490318775177002e-01
-1.498706340789794922e-01
7.590665221214294434e-01
-3.717537522315979004e-01
-1.532212197780609131e-01
-4.762576520442962646e-01
-1.916134357452392578e-01
4.347754120826721191e-01
6.224842369556427002e-02
-9.375873953104019165e-02
3.449364751577377319e-02
-9.375327825546264648e-02
-7.411354780197143555e-02
-1.680920459330081940e-02
-2.145840823650360107e-01
7.857098430395126343e-02
-2.648819088935852051e-01
-9.278009831905364990e-02
8.899426460266113281e-02
-1.934683918952941895e-01
1.355237048119306564e-02
-7.777736335992813110e-02
4.252347946166992188e-01
-1.475139409303665161e-01
-1.654853373765945435e-01
6.101249158382415771e-02
7.605122029781341553e-02
1.917208284139633179e-01
3.455986035987734795e-03
9.049029648303985596e-02
3.006966412067413330e-01
2.038865387439727783e-01
2.575051486492156982e-01
4.732258319854736328e-01
-4.173536300659179688e-01
-3.638039231300354004e-01
1.811476498842239380e-01
-5.903249839320778847e-04
-1.041651293635368347e-01
4.958121478557586670e-02
1.900670379400253296e-01
-5.715249478816986084e-02
-2.687976658344268799e-01
-4.339042305946350098e-01
4.695149138569831848e-02
-1.551137566566467285e-01
-5.714131593704223633e-01
2.596575021743774414e-01
2.329899519681930542e-01
3.488398790359497070e-01
-1.423077136278152466e-01
2.490336634218692780e-02
7.942919135093688965e-01
1.055043339729309082e+00
-5.091795325279235840e-01
-2.467254996299743652e-01
-4.362881183624267578e-02
1.990666091442108154e-01
-1.469791978597640991e-01
1.823422312736511230e-02
1.663798242807388306e-01
-2.809786796569824219e-01
2.786806821823120117e-01
6.063314899802207947e-02
1.238817814737558365e-02
-1.052339002490043640e-01
-1.104676052927970886e-01
1.191612258553504944e-01
9.504999965429306030e-02
-3.186305761337280273e-01
-3.366362750530242920e-01
-3.353688120841979980e-02
-7.926680147647857666e-02
2.113971412181854248e-01
-3.609914183616638184e-01
-4.930004850029945374e-02
2.642889916896820068e-01
8.843939751386642456e-03
1.004039123654365540e-01
-5.699505805969238281e-01
-2.378281801939010620e-01
6.647411584854125977e-01
-3.270002901554107666e-01
9.660340100526809692e-02
-1.064999461174011230e+00
-2.162888795137405396e-01
4.218596816062927246e-01
-7.323745638132095337e-02
-2.908420264720916748e-01
-2.276487499475479126e-01
-8.518223762512207031e-01
-3.835884332656860352e-01
-6.681868433952331543e-02
-1.100468337535858154e-01
-3.579023778438568115e-01
-4.719955027103424072e-01
-2.306647039949893951e-02
8.032322525978088379e-01
4.853799641132354736e-01
-8.000351190567016602e-01
-6.845923066139221191e-01
5.592349171638488770e-01
7.586588263511657715e-01
2.711165845394134521e-01
-8.349243402481079102e-01
-1.564429849386215210e-01
-8.709120564162731171e-03
2.918596267700195312e-01
2.757619023323059082e-01
1.299197133630514145e-02
-4.910323396325111389e-02
-6.138380989432334900e-02
1.886838972568511963e-01
-6.104707345366477966e-02
-1.681006699800491333e-01
2.650099098682403564e-01
-6.015391349792480469e-01
6.820014119148254395e-02
2.623754739761352539e-01
1.879858039319515228e-02
6.679915636777877808e-02
-1.033954396843910217e-01
-1.258302330970764160e-01
-3.895331323146820068e-01
-2.613883018493652344e-01
1.423752903938293457e-01
-4.411554038524627686e-01
-2.171351760625839233e-01
1.147445812821388245e-01
1.443962901830673218e-01
1.085150092840194702e-01
-2.469174116849899292e-01
1.174029827117919922e+00
6.523603200912475586e-02
-3.580050170421600342e-01
-3.256656527519226074e-01
-2.990466952323913574e-01
-2.109870016574859619e-01
-2.493951916694641113e-01
-3.616747856140136719e-01
-3.867148235440254211e-02
8.681005239486694336e-02
-1.198118552565574646e-01
-2.874938249588012695e-01
-3.559421300888061523e-01
3.003565371036529541e-01
-2.590731382369995117e-01
2.010926157236099243e-01
-1.103829890489578247e-01
-2.902228012681007385e-02
3.676509857177734375e-01
-8.394858241081237793e-02
1.452231854200363159e-01
4.757849574089050293e-01
-1.548218075186014175e-02
-7.384968549013137817e-02
4.209518730640411377e-01
8.639049530029296875e-01
1.705601364374160767e-01
1.334089692682027817e-02
-8.919662237167358398e-02
1.513825207948684692e-01
1.282083243131637573e-01
4.692415595054626465e-01
6.585202366113662720e-02
-7.042298465967178345e-02
-1.654134131968021393e-02
-6.942769885063171387e-02
1.727212965488433838e-01
-1.724314242601394653e-01
9.609037637710571289e-02
-1.334268003702163696e-01
-4.017809927463531494e-01
-2.160669416189193726e-01
1.337448805570602417e-01
5.810413882136344910e-02
-9.748052358627319336e-01
-1.348480224609375000e+00
-9.559855461120605469e-01
-5.302401781082153320e-01
2.231577336788177490e-01
-2.767109870910644531e-01
-2.168368995189666748e-01
6.724550127983093262e-01
-1.272529512643814087e-01
1.499727368354797363e-01
2.173325121402740479e-01
4.533655941486358643e-01
-7.448370009660720825e-02
-3.231676518917083740e-01
-1.228978708386421204e-01
4.859932884573936462e-02
-8.272522687911987305e-02
-3.822849988937377930e-01
-4.738453030586242676e-01
-4.049803316593170166e-02
-3.184285014867782593e-02
2.016599774360656738e-01
1.534114964306354523e-02
-1.456876397132873535e-01
2.090953290462493896e-01
-2.179847657680511475e-01
-9.627087414264678955e-02
-4.921773672103881836e-01
-8.246819972991943359e-01
2.001967877149581909e-01
3.237876296043395996e-01
-3.940743803977966309e-01
9.114731103181838989e-03
4.498707354068756104e-01
4.022117853164672852e-01
-7.424627244472503662e-02
1.474864631891250610e-01
3.179066181182861328e-01
1.508911550045013428e-01
-3.007433116436004639e-01
-4.199416339397430420e-01
1.562978178262710571e-01
2.035777419805526733e-01
-1.061485055834054947e-02
-6.835132837295532227e-02
-1.435723751783370972e-01
-5.263961479067802429e-02
-8.730917423963546753e-02
-5.240701884031295776e-02
-4.908761382102966309e-02
-2.457514107227325439e-01
-2.139548957347869873e-01
-3.055127523839473724e-02
-1.328084319829940796e-01
-7.113415747880935669e-02
3.947452604770660400e-01
-1.598134078085422516e-02
1.765231490135192871e-01
-5.098519846796989441e-02
1.725018024444580078e-02
5.719051957130432129e-01
5.866670012474060059e-01
2.963357567787170410e-01
-2.764608860015869141e-01
1.119791269302368164e-01
1.920759677886962891e-01
-5.511451512575149536e-02
2.907201461493968964e-02
-6.812600791454315186e-02
-1.041742600500583649e-02
3.413209691643714905e-02
-2.750986218452453613e-01
-1.955847814679145813e-02
9.964246302843093872e-02
-4.235993027687072754e-01
-5.446367859840393066e-01
-5.822038054466247559e-01
-1.094135165214538574e+00
-1.865448206663131714e-01
-5.856176614761352539e-01
4.075990617275238037e-01
-5.119659006595611572e-02
-1.448411941528320312e-01
-4.186780452728271484e-01
-5.387584865093231201e-02
-2.836384996771812439e-02
-1.723234355449676514e-01
-3.916059061884880066e-02
-2.413416951894760132e-01
-4.016704857349395752e-02
-6.109366193413734436e-02
2.375025749206542969e-01
-1.999901533126831055e-01
-9.747563302516937256e-02
7.333923131227493286e-02
2.589465379714965820e-01
1.034285724163055420e-01
1.721291840076446533e-01
-3.800816088914871216e-02
4.046583548188209534e-02
1.704284697771072388e-01
4.583551082760095596e-03
-9.130731970071792603e-02
-2.244589328765869141e-01
-4.737104848027229309e-02
4.367780387401580811e-01
7.903964519500732422e-01
2.916051149368286133e-01
6.744682788848876953e-02
3.852851688861846924e-01
-1.633853763341903687e-01
-6.806006431579589844e-01
-7.087735533714294434e-01
-7.066883891820907593e-02
1.398465037345886230e-01
-1.211485266685485840e-01
-1.167727038264274597e-01
-5.368935465812683105e-01
-3.455101847648620605e-01
1.424787193536758423e-01
9.436270594596862793e-02
1.798823922872543335e-01
-1.568663865327835083e-01
-4.102195054292678833e-02
9.416715055704116821e-02
-3.751519694924354553e-02
1.210373491048812866e-01
4.197224229574203491e-02
-2.019711881875991821e-01
1.918691024184226990e-02
5.456417426466941833e-02
4.157231748104095459e-01
-5.507357716560363770e-01
4.778656363487243652e-01
1.006330922245979309e-01
2.153186351060867310e-01
5.085682272911071777e-01
1.218199543654918671e-02
-2.461083531379699707e-01
3.725135028362274170e-01
3.025850355625152588e-01
2.541913092136383057e-01
-6.578689813613891602e-02
-3.851414024829864502e-01
2.677077054977416992e-02
3.598836064338684082e-01
2.957049310207366943e-01
-1.454937905073165894e-01
-6.083787977695465088e-02
-6.616402417421340942e-02
3.554941415786743164e-01
2.546627447009086609e-02
-3.457231223583221436e-01
-1.302273571491241455e-01
-2.845195531845092773e-01
9.025527536869049072e-02
2.561642043292522430e-02
7.325024604797363281e-01
-8.018067479133605957e-01
-1.365649104118347168e-01
7.213096320629119873e-02
-3.210684955120086670e-01
4.069411158561706543e-01
-1.022728681564331055e-01
1.452962905168533325e-01
-1.124834939837455750e-01
-6.232439279556274414e-01
4.792520403861999512e-01
4.680063426494598389e-01
-8.576607704162597656e-02
4.105532467365264893e-01
-4.055968225002288818e-01
-1.054390668869018555e-01
3.910787403583526611e-01
-3.896843409165740013e-03
-4.666661918163299561e-01
-7.970183491706848145e-01
-2.116343826055526733e-01
-1.049466058611869812e-01
1.008724272251129150e-01
-2.563634812831878662e-01
-2.415426969528198242e-01
-2.839958667755126953e-01
-5.602456927299499512e-01
5.788502097129821777e-02
-1.021921709179878235e-01
-8.618679642677307129e-01
-3.540154397487640381e-01
-1.339033246040344238e-01
-1.196220219135284424e-01
-6.249318122863769531e-01
-9.125365018844604492e-01
-3.865606784820556641e-01
-1.672591567039489746e-01
-9.372597187757492065e-02
-2.451549321413040161e-01
2.844105660915374756e-01
-4.901784062385559082e-01
-1.008217781782150269e-01
-3.102052807807922363e-01
1.194880157709121704e-02
3.448342531919479370e-02
-1.060221567749977112e-01
2.176307700574398041e-02
-9.921585023403167725e-02
-1.693039536476135254e-01
4.477207660675048828e-01
2.334375232458114624e-01
-5.602404475212097168e-01
4.268833622336387634e-02
-4.020752608776092529e-01
4.078010320663452148e-01
5.571913719177246094e-01
-9.720148146152496338e-02
-4.342292249202728271e-02
-2.757334709167480469e-01
1.060868427157402039e-01
4.626681506633758545e-01
-3.492365479469299316e-01
-1.417223513126373291e-01
-4.668044447898864746e-01
4.757237806916236877e-02
1.561750620603561401e-01
3.916401267051696777e-01
-8.150877952575683594e-01
-5.742804408073425293e-01
-1.346125826239585876e-02
1.218365412205457687e-02
7.109531760215759277e-02
-2.023046255111694336e+00
1.339589804410934448e-01
-2.572080790996551514e-01
1.477970331907272339e-01
-2.435940317809581757e-02
-1.693303436040878296e-01
1.647928506135940552e-01
-1.207760050892829895e-01
-3.464146554470062256e-01
3.106415271759033203e-02
-1.970064491033554077e-01
-7.424712181091308594e-02
8.593740314245223999e-02
-2.544851601123809814e-01
2.955862581729888916e-01
-8.566009812057018280e-03
-4.325121268630027771e-02
6.721082329750061035e-02
-1.249234676361083984e-01
1.087441667914390564e-01
3.597748577594757080e-01
-1.209931895136833191e-01
-8.900458365678787231e-02
6.262300163507461548e-02
-9.623638540506362915e-02
5.966385006904602051e-01
-5.478506684303283691e-01
-2.709054946899414062e-01
9.244103431701660156e-01
1.039714574813842773e+00
1.865429282188415527e-01
-7.814768701791763306e-02
1.716332584619522095e-01
2.327826172113418579e-01
-2.457457035779953003e-01
3.849301338195800781e-01
5.131831169128417969e-01
-2.940491214394569397e-02
2.681882083415985107e-01
1.773679703474044800e-01
-4.476746320724487305e-01
1.903104633092880249e-01
-3.326393961906433105e-01
-5.667890608310699463e-02
-1.466574221849441528e-01
-4.316546320915222168e-01
-2.708952426910400391e-01
-9.126088619232177734e-01
-4.817222431302070618e-02
4.980266466736793518e-02
-8.119236826896667480e-01
9.753489866852760315e-03
-8.234736509621143341e-03
6.147298812866210938e-01
-1.975212246179580688e-01
-2.041766233742237091e-02
3.018963336944580078e-01
1.217418164014816284e-01
-2.060218006372451782e-01
-4.128710627555847168e-01
-9.724423289299011230e-02
1.161201391369104385e-02
2.507202029228210449e-01
-1.845942288637161255e-01
-1.097943037748336792e-01
-3.702581822872161865e-01
4.469880461692810059e-02
2.936526015400886536e-02
9.741945564746856689e-02
-6.843941658735275269e-02
-2.318169325590133667e-01
3.231683969497680664e-01
1.438684165477752686e-01
2.923490107059478760e-01
-4.833924472332000732e-01
-4.011718034744262695e-01
3.637449443340301514e-02
-3.501121401786804199e-01
-5.789022445678710938e-01
1.522851586341857910e-01
1.113903596997261047e-01
6.787621974945068359e-02
-4.062257707118988037e-02
9.907577931880950928e-02
-1.160913705825805664e-01
-1.973868906497955322e-01
3.143319785594940186e-01
8.899242430925369263e-02
-2.261023670434951782e-01
1.297453045845031738e-01
3.964147567749023438e-01
3.208996057510375977e-01
3.613348603248596191e-01
4.543885588645935059e-01
-1.901210695505142212e-01
5.048010349273681641e-01
-1.723286360502243042e-01
5.251336693763732910e-01
1.758083403110504150e-01
-2.977803815156221390e-04
-4.019288122653961182e-01
-3.118774890899658203e-01
7.401393055915832520e-01
-3.652071813121438026e-03
-3.909550309181213379e-01
-1.485532373189926147e-01
-1.263350844383239746e-01
3.417255580425262451e-01
1.615577191114425659e-01
1.770846396684646606e-01
3.019786477088928223e-01
-1.329938322305679321e-01
-5.324365943670272827e-02
-1.860074326395988464e-02
-2.001086622476577759e-01
9.268242865800857544e-02
-2.811782062053680420e-01
-4.651497676968574524e-02
-7.810290902853012085e-03
7.887053489685058594e-02
-1.774212718009948730e-01
-1.623609513044357300e-01
-2.635150551795959473e-01
1.027771979570388794e-01
2.165625803172588348e-02
-4.371486008167266846e-01
1.431168168783187866e-01
-1.888290047645568848e-01
3.350037634372711182e-01
5.854673385620117188e-01
1.811852902173995972e-01
4.235209524631500244e-02
-6.472600251436233521e-02
-5.267897620797157288e-02
3.951821848750114441e-02
-3.401295840740203857e-01
3.126810193061828613e-01
8.760768920183181763e-02
-2.676990628242492676e-01
-1.416022479534149170e-01
-1.940717361867427826e-02
3.485596477985382080e-01
6.617303192615509033e-02
-3.136710822582244873e-01
-3.271887004375457764e-01
-5.703806877136230469e-01
2.648291289806365967e-01
2.246040254831314087e-01
-2.367896586656570435e-01
-2.445738762617111206e-01
-2.105462700128555298e-01
1.505195796489715576e-01
2.895730435848236084e-01
-1.322237253189086914e-01
2.257306873798370361e-01
-3.175745308399200439e-01
1.970858275890350342e-01
2.788130939006805420e-01
3.276640316471457481e-03
9.652534872293472290e-02
6.633284091949462891e-01
-5.569075047969818115e-02
-1.545788794755935669e-01
1.299728173762559891e-02
-2.303587198257446289e-01
9.432704746723175049e-02
-2.092952132225036621e-01
1.179409325122833252e-01
8.050104230642318726e-02
-2.608581632375717163e-02
-2.119847685098648071e-01
-4.444242417812347412e-01
-8.145953714847564697e-02
-6.390220671892166138e-02
-3.353219330310821533e-01
-4.865607917308807373e-01
1.537938416004180908e-01
1.847392022609710693e-01
-1.052651166915893555e+00
-2.692363858222961426e-01
-2.737148404121398926e-01
4.837750494480133057e-01
2.571285068988800049e-01
2.959741652011871338e-01
-2.553710900247097015e-02
4.331015348434448242e-01
-1.212035045027732849e-01
1.383332163095474243e-01
-2.542245984077453613e-01
-1.634049713611602783e-01
7.300867233425378799e-03
2.559632658958435059e-01
-4.786306023597717285e-01
1.399921327829360962e-01
9.821547567844390869e-02
1.618497520685195923e-01
-4.602524936199188232e-01
-6.660491824150085449e-01
2.588340640068054199e-01
-1.361422091722488403e-01
3.070955574512481689e-01
-2.344066619873046875e+00
-1.452746272087097168e+00
-6.587571501731872559e-01
-1.440749168395996094e-01
-6.949634104967117310e-02
-1.813765525817871094e+00
-1.207063555717468262e+00
-5.913857743144035339e-02
1.687076389789581299e-01
8.484736829996109009e-02
-2.348965406417846680e-01
-3.659007549285888672e-01
9.304796904325485229e-02
1.753639429807662964e-01
1.316305994987487793e-01
1.127785146236419678e-01
1.193768754601478577e-01
1.057356968522071838e-02
5.752829834818840027e-02
1.486481428146362305e-01
-9.566333144903182983e-02
-1.384080573916435242e-02
1.058802083134651184e-01
6.804455071687698364e-02
-4.064081609249114990e-02
-6.042511463165283203e-01
6.273070573806762695e-01
-4.306668043136596680e-01
-3.057362437248229980e-01
-3.838831931352615356e-02
7.222996652126312256e-02
3.909564018249511719e-01
3.597373962402343750e-01
-1.014665737748146057e-01
-2.123060822486877441e-01
2.098131626844406128e-01
1.012215763330459595e-01
-1.372771263122558594e-01
2.650630772113800049e-01
-8.389349281787872314e-02
1.592609472572803497e-02
-3.573801219463348389e-01
-1.679239422082901001e-01
2.860927879810333252e-01
5.446332320570945740e-02
2.883242666721343994e-01
-3.043054044246673584e-01
-1.664435118436813354e-01
4.115832149982452393e-01
6.255141496658325195e-01
-1.180642604827880859e+00
-2.165848016738891602e+00
-2.528040111064910889e-01
1.487760543823242188e-01
-8.186596632003784180e-02
-2.300049781799316406e+00
-4.157167673110961914e-01
-3.642794862389564514e-02
2.249425090849399567e-02
-1.161274909973144531e-01
-8.519727587699890137e-01
-3.729178905487060547e-01
-1.819535344839096069e-01
3.575901389122009277e-01
9.119004011154174805e-02
-4.622094929218292236e-01
-3.569472432136535645e-01
-3.705444559454917908e-02
2.058856785297393799e-01
1.185932159423828125e-01
-2.170512527227401733e-01
2.807560563087463379e-01
3.558455407619476318e-02
-2.071896009147167206e-02
3.948680590838193893e-03
1.073124110698699951e-01
3.838293552398681641e-01
-1.537164896726608276e-01
-5.426231026649475098e-01
-2.028831467032432556e-02
2.729474306106567383e-01
1.533411908894777298e-02
-3.037565946578979492e-01
-9.471460245549678802e-03
-4.618189483880996704e-02
1.589265167713165283e-01
2.806198969483375549e-02
-5.712041854858398438e-01
1.967099010944366455e-01
7.124567031860351562e-02
1.167472973465919495e-01
-4.402257204055786133e-01
-7.047709822654724121e-01
1.448272317647933960e-01
1.701725870370864868e-01
8.553442545235157013e-03
-4.257755577564239502e-01
5.512614175677299500e-02
5.261520147323608398e-01
1.839974671602249146e-01
2.285984307527542114e-01
-1.467484384775161743e-01
-3.709998913109302521e-03
2.445253357291221619e-02
-7.182093709707260132e-02
-6.141581013798713684e-02
-2.260705977678298950e-01
-7.106353342533111572e-02
1.072323322296142578e-01
1.925230175256729126e-01
-1.755908876657485962e-01
-2.160328030586242676e-01
-1.126982495188713074e-01
2.279595583677291870e-01
8.010201156139373779e-03
-4.129726067185401917e-02
1.881103664636611938e-01
-2.586712837219238281e-01
2.883246243000030518e-01
1.096967309713363647e-01
2.889477908611297607e-01
2.377836778759956360e-02
-6.806017458438873291e-02
6.057080812752246857e-03
2.644996857270598412e-03
3.330759108066558838e-01
5.284811258316040039e-01
1.431716233491897583e-01
-5.542801022529602051e-01
1.060576140880584717e-01
3.067906498908996582e-01
1.611368656158447266e-01
1.037455648183822632e-01
-3.272903561592102051e-01
2.071197926998138428e-01
2.333692312240600586e-01
1.025632303208112717e-02
-4.378152489662170410e-01
2.906549870967864990e-01
6.220621615648269653e-02
3.213074207305908203e-01
4.235289394855499268e-01
2.574934661388397217e-01
2.146884202957153320e-01
-4.497066438198089600e-01
-4.542794227600097656e-01
-9.119179844856262207e-02
7.320520002394914627e-03
-2.803281843662261963e-01
-4.554677009582519531e-01
7.905796170234680176e-02
-4.815737605094909668e-01
-3.452798426151275635e-01
2.905741930007934570e-01
1.325589865446090698e-01
-1.576463133096694946e-01
-7.350317835807800293e-01
-3.986018896102905273e-01
4.214158952236175537e-01
2.852889895439147949e-01
-3.961414396762847900e-01
-6.042157411575317383e-01
1.805817782878875732e-01
8.399389684200286865e-02
-1.117451395839452744e-02
1.917458176612854004e-01
-1.545429788529872894e-02
5.854120850563049316e-02
1.045401841402053833e-01
-9.537262842059135437e-03
-1.023237183690071106e-01
-3.086666166782379150e-01
-6.518349796533584595e-02
6.040860414505004883e-01
1.197495013475418091e-01
-2.536537051200866699e-01
1.866183429956436157e-01
9.068241715431213379e-01
-1.302780061960220337e-01
-4.319542273879051208e-02
-9.227381348609924316e-01
-5.913237109780311584e-02
6.362398862838745117e-01
2.754739820957183838e-01
1.985514461994171143e-01
-1.040756225585937500e+00
2.491207420825958252e-02
-8.476452529430389404e-02
-1.452393382787704468e-01
2.670894265174865723e-01
-8.273602724075317383e-01
-4.492613971233367920e-01
-6.666521728038787842e-02
-7.755729556083679199e-02
2.405517995357513428e-01
7.848531007766723633e-03
-3.169541954994201660e-01
3.026605024933815002e-02
4.070089161396026611e-01
2.681581974029541016e-01
1.296890079975128174e-01
-3.197870254516601562e-01
-1.067550778388977051e+00
-1.169476583600044250e-01
3.927570581436157227e-01
3.230182528495788574e-01
3.272005319595336914e-01
-2.548504471778869629e-01
2.996024787425994873e-01
1.478955964557826519e-03
-2.484126016497612000e-02
1.918797343969345093e-01
5.906969308853149414e-03
-2.242878079414367676e-01
1.174926757812500000e-01
-2.891965806484222412e-01
8.031708747148513794e-02
2.206124961376190186e-01
-2.011345140635967255e-02
-5.337854623794555664e-01
-4.481816887855529785e-01
-3.970720171928405762e-01
1.224966347217559814e-01
-1.089331321418285370e-02
-2.915612757205963135e-01
1.959776282310485840e-01
6.683829426765441895e-01
7.659903764724731445e-01
-6.235232576727867126e-02
-2.769363820552825928e-01
-4.626776278018951416e-01
2.953324913978576660e-01
-1.810878664255142212e-01
-2.661869227886199951e-01
-1.121502518653869629e-01
-1.959549933671951294e-01
-7.073032110929489136e-02
-1.441461592912673950e-01
-4.826528578996658325e-02
-3.360077142715454102e-01
-1.990822404623031616e-01
9.187562763690948486e-02
-1.364445388317108154e-01
3.057354502379894257e-02
-5.420908927917480469e-01
-1.239922270178794861e-01
2.433940321207046509e-01
1.666194386780261993e-02
4.836866855621337891e-01
-3.786711394786834717e-01
-1.385278254747390747e-01
-4.247615337371826172e-01
4.620676860213279724e-02
-2.441043108701705933e-01
2.022683434188365936e-02
-6.652542203664779663e-02
-1.430931985378265381e-01
1.012504696846008301e-01
-1.895104646682739258e-01
-7.430829852819442749e-02
-9.635014086961746216e-02
-1.063251867890357971e-01
-1.141034290194511414e-01
-9.711863845586776733e-02
-2.864020466804504395e-01
7.520326972007751465e-02
1.575770787894725800e-02
2.432239428162574768e-02
-6.218391656875610352e-02
-6.520398706197738647e-02
3.877496421337127686e-01
5.296213552355766296e-02
-1.605125330388545990e-02
7.141479104757308960e-02
3.887995183467864990e-01
-2.400873601436614990e-01
5.827456712722778320e-02
1.508203446865081787e-01
4.873660504817962646e-01
-1.700105518102645874e-02
-3.637488558888435364e-02
1.935871690511703491e-01
-1.103268936276435852e-01
-7.115699648857116699e-01
-1.672175377607345581e-01
-2.073038518428802490e-01
-2.890967130661010742e-01
-5.688248276710510254e-01
1.323634088039398193e-01
9.080044925212860107e-02
1.112765595316886902e-01
-2.506765909492969513e-02
-1.864551603794097900e-01
2.897013537585735321e-02
-2.134138792753219604e-01
-9.337473511695861816e-01
7.779271006584167480e-01
3.566821813583374023e-01
1.760972589254379272e-01
-1.677060127258300781e-02
-1.307919472455978394e-01
-1.936209350824356079e-01
1.564964652061462402e-01
-1.393897980451583862e-01
-1.740099340677261353e-01
-7.544314116239547729e-02
5.593848973512649536e-02
-2.139565944671630859e-01
-4.643654078245162964e-02
4.519878700375556946e-02
9.339732676744461060e-02
-1.492002140730619431e-02
-2.473824173212051392e-01
-4.862901940941810608e-02
2.503015100955963135e-01
-2.838313579559326172e-01
1.402993313968181610e-02
-2.803031802177429199e-01
-3.288121223449707031e-01
6.711871176958084106e-02
2.320961952209472656e-01
1.108180761337280273e+00
1.046920657157897949e+00
7.453834265470504761e-02
-1.996123194694519043e-01
1.258636713027954102e-01
-5.993290990591049194e-02
-8.295150846242904663e-02
-1.544907540082931519e-01
2.630519270896911621e-01
-2.014111280441284180e-01
2.999251522123813629e-02
-1.560885608196258545e-01
-6.371353268623352051e-01
-5.295802280306816101e-02
-2.289980649948120117e-01
1.250920444726943970e-01
-1.421390473842620850e-01
6.803284585475921631e-02
2.167920023202896118e-02
1.070900931954383850e-01
-2.130875438451766968e-01
-5.673848465085029602e-02
-6.870511174201965332e-02
-2.410466596484184265e-02
-3.043137192726135254e-01
6.581827066838741302e-03
4.809974730014801025e-01
1.145339235663414001e-01
-2.644973807036876678e-03
1.336587220430374146e-02
2.625665664672851562e-01
-1.280638040043413639e-03
-1.750053465366363525e-01
3.228220641613006592e-01
-2.408441752195358276e-01
-1.056149750947952271e-01
1.425178796052932739e-01
-1.092051491141319275e-01
-1.597100794315338135e-01
-2.204826921224594116e-01
-2.566600777208805084e-02
-6.131870672106742859e-02
1.839067339897155762e-01
-1.614498049020767212e-01
-3.485868871212005615e-01
-3.105975687503814697e-01
5.440381765365600586e-01
-2.018715292215347290e-01
-1.846430450677871704e-01
-7.545186281204223633e-01
-4.238828122615814209e-01
5.133258104324340820e-01
4.678457975387573242e-01
3.584910035133361816e-01
1.977902203798294067e-01
-5.274442434310913086e-01
2.593373879790306091e-02
1.059703677892684937e-01
-8.978265523910522461e-01
1.369917541742324829e-01
-3.089208304882049561e-01
-4.839546605944633484e-02
-3.672871887683868408e-01
-2.607569992542266846e-01
-4.383619725704193115e-01
-2.854911983013153076e-02
1.032626852393150330e-01
-8.630096912384033203e-02
-1.674569696187973022e-01
-3.617301881313323975e-01
-6.192523986101150513e-02
4.901316165924072266e-01
1.151486262679100037e-01
-5.606205463409423828e-01
-2.565711736679077148e-01
-5.094771385192871094e-01
3.209333419799804688e-01
5.904680490493774414e-01
6.490477919578552246e-02
-1.560434550046920776e-01
1.685417890548706055e-01
-1.137768998742103577e-01
-2.346544265747070312e-01
2.653752267360687256e-02
-1.540638692677021027e-02
1.289801150560379028e-01
-2.526891827583312988e-01
7.250112015753984451e-03
2.140057645738124847e-02
-1.392032206058502197e-01
2.388226687908172607e-01
-1.228071600198745728e-01
-1.027769502252340317e-02
1.401792317628860474e-01
-1.562047153711318970e-01
2.312290519475936890e-01
1.948540471494197845e-02
2.107022553682327271e-01
2.457172572612762451e-01
2.783548235893249512e-01
6.738357245922088623e-02
-2.884858548641204834e-01
-1.929289847612380981e-01
-8.300431072711944580e-02
-6.101615428924560547e-01
1.268126815557479858e-01
4.486123621463775635e-01
2.086021006107330322e-01
6.102569103240966797e-01
-3.697925508022308350e-01
-2.807962894439697266e-01
3.925060480833053589e-02
-3.690888881683349609e-01
-7.773655652999877930e-02
7.130163908004760742e-01
-2.182997912168502808e-01
3.094910979270935059e-01
-4.457937180995941162e-02
1.623624563217163086e-01
4.656710028648376465e-01
-3.103515878319740295e-02
7.551050186157226562e-02
-2.865360379219055176e-01
1.607826650142669678e-01
1.490177959203720093e-01
5.133069679141044617e-02
4.436350986361503601e-02
-1.039432138204574585e-01
2.071069180965423584e-01
-1.196234226226806641e+00
-4.315387308597564697e-01
3.153566643595695496e-02
-1.853509247303009033e-01
-1.041744872927665710e-01
-7.082654237747192383e-01
-2.941255867481231689e-01
-3.765516281127929688e-01
-1.502351611852645874e-01
1.434212177991867065e-02
-1.403439193964004517e-01
3.315375745296478271e-01
-2.017144560813903809e-01
1.419365555047988892e-01
2.559377998113632202e-02
-1.741095185279846191e-01
2.047130651772022247e-02
-1.695536309853196144e-03
6.625118851661682129e-02
8.391675353050231934e-02
4.483851194381713867e-01
6.944575905799865723e-02
-2.389361523091793060e-02
2.612917125225067139e-01
-1.664625108242034912e-01
-7.666397094726562500e-02
-1.051981374621391296e-01
-3.484794795513153076e-01
-2.640176117420196533e-01
3.150422275066375732e-01
3.121827356517314911e-02
3.338248133659362793e-01
-2.937656044960021973e-01
-4.905470609664916992e-01
-2.382809817790985107e-01
1.405412107706069946e-01
5.858859419822692871e-01
-4.186308085918426514e-01
1.669933646917343140e-01
-1.755955517292022705e-01
8.870002627372741699e-02
-5.190653353929519653e-02
1.596999317407608032e-01
1.022079866379499435e-02
5.761006847023963928e-02
-2.534824013710021973e-01
-1.485666166990995407e-02
-5.283215641975402832e-02
4.784474670886993408e-01
2.369700372219085693e-01
7.921278476715087891e-01
9.324041008949279785e-01
-2.992050349712371826e-02
-2.617581486701965332e-01
-2.237389981746673584e-01
-1.151482015848159790e-01
4.314661920070648193e-01
1.523281782865524292e-01
-5.310293436050415039e-01
1.082682237029075623e-02
-1.038300037384033203e+00
2.727842926979064941e-01
-1.502101719379425049e-01
-3.017301559448242188e-01
4.426473975181579590e-01
-4.375939965248107910e-01
-2.615474462509155273e-01
1.417109463363885880e-02
1.987299323081970215e-01
3.332475721836090088e-01
-5.332676321268081665e-02
2.664909064769744873e-01
-9.266474843025207520e-02
1.166217103600502014e-01
2.082393467426300049e-01
-3.194991871714591980e-02
-3.826284110546112061e-01
-2.891431152820587158e-01
-1.360159069299697876e-01
-1.586796641349792480e-01
6.378483176231384277e-01
2.137038260698318481e-01
-3.651861250400543213e-01
-2.617513537406921387e-01
-9.299018979072570801e-02
6.349056959152221680e-01
1.374652683734893799e-01
-2.037334442138671875e-01
-8.686844110488891602e-01
-9.637214988470077515e-02
1.818393468856811523e-01
3.704738020896911621e-01
-4.703652858734130859e-01
-9.401771426200866699e-02
-2.612617425620555878e-02
-2.747738361358642578e-01
7.411783933639526367e-02
-3.714289367198944092e-01
1.680614948272705078e-01
5.731120109558105469e-01
-2.997158095240592957e-02
-9.039953351020812988e-03
-3.793005645275115967e-01
-6.603578925132751465e-01
-5.547235254198312759e-03
-3.021037578582763672e-02
1.951474845409393311e-01
-3.468734025955200195e-02
-3.397587835788726807e-01
-2.590241730213165283e-01
-1.314066350460052490e-01
-5.900249630212783813e-02
-8.184040337800979614e-02
-3.640495836734771729e-01
1.201803758740425110e-01
2.818213105201721191e-01
-2.393650412559509277e-01
-6.708443909883499146e-02
-1.316086202859878540e-01
-2.080411016941070557e-01
5.251517146825790405e-02
-3.491689860820770264e-01
1.035554334521293640e-01
-1.289930641651153564e-01
3.564935922622680664e-01
-7.084516286849975586e-01
-1.345615368336439133e-02
1.245386242866516113e+00
1.306200623512268066e+00
-1.280796993523836136e-02
3.195824846625328064e-02
2.035676389932632446e-01
-5.613009333610534668e-01
-4.924314320087432861e-01
-3.254999518394470215e-01
5.756145343184471130e-02
-6.684905886650085449e-01
-4.352632910013198853e-02
1.051798164844512939e-01
2.002074271440505981e-01
2.876395583152770996e-01
3.015018105506896973e-01
-5.457120388746261597e-02
1.135821193456649780e-01
2.177949100732803345e-01
1.777382642030715942e-01
-3.927160054445266724e-02
-1.473133713006973267e-01
-1.656602472066879272e-01
8.779772371053695679e-02
2.217988669872283936e-01
1.367747336626052856e-01
3.040890395641326904e-01
-2.761242687702178955e-01
-5.316696763038635254e-01
-7.682338356971740723e-02
-5.675617605447769165e-02
-2.333116531372070312e-01
-5.202652513980865479e-02
-1.013702247291803360e-02
2.713194191455841064e-01
-4.335206374526023865e-02
-4.135496318340301514e-01
1.108154207468032837e-01
3.471307829022407532e-02
-9.019046276807785034e-02
7.622430473566055298e-02
1.516297906637191772e-01
1.012799143791198730e-01
1.856772154569625854e-01
-4.210951551795005798e-02
-1.261837333440780640e-01
1.543399095535278320e-01
1.228980869054794312e-01
7.054409384727478027e-01
2.796967029571533203e-01
-3.300168216228485107e-01
-5.114803910255432129e-01
1.640077084302902222e-01
7.438433766365051270e-01
3.223455846309661865e-01
3.496074080467224121e-01
-4.465280771255493164e-01
-2.706278264522552490e-01
-2.666107118129730225e-01
-7.897761650383472443e-03
-1.053116247057914734e-01
5.577448755502700806e-03
-1.348701715469360352e-01
-1.524358838796615601e-01
-1.280473917722702026e-01
-1.886168420314788818e-01
8.072145283222198486e-02
-4.165783151984214783e-02
2.796317636966705322e-01
7.435581088066101074e-02
-1.327813267707824707e-01
-5.318234562873840332e-01
-3.714506328105926514e-01
-2.468941509723663330e-01
-4.337760508060455322e-01
4.390109181404113770e-01
2.478463649749755859e-01
-6.040539592504501343e-02
-3.150826096534729004e-01
-4.614128917455673218e-02
-5.363970994949340820e-03
-9.157982654869556427e-03
-1.326047331094741821e-01
-2.058239430189132690e-01
-5.307896435260772705e-02
-1.474527716636657715e-01
-4.421368613839149475e-02
-9.519524127244949341e-02
-7.709494233131408691e-02
-2.125234603881835938e-01
-1.087316572666168213e-01
-2.017240971326828003e-01
-3.587845712900161743e-02
-3.581191971898078918e-02
5.474901795387268066e-01
3.751865923404693604e-01
-8.193637244403362274e-03
5.232715606689453125e-02
-4.184738993644714355e-01
-1.859134435653686523e-01
1.585164964199066162e-01
1.634835153818130493e-01
-4.106950387358665466e-02
3.889131247997283936e-01
2.176727801561355591e-01
1.648236066102981567e-01
2.385069727897644043e-01
-1.998284161090850830e-01
1.925891786813735962e-01
2.375950068235397339e-01
-1.988719403743743896e-01
2.828598618507385254e-01
-5.608795881271362305e-01
1.154025793075561523e-01
-1.404528617858886719e-01
-4.995739087462425232e-02
-3.750650286674499512e-01
-3.119102716445922852e-01
-7.011266946792602539e-01
3.206364512443542480e-01
-5.664594937115907669e-03
4.441394470632076263e-03
1.046075746417045593e-01
-6.414214968681335449e-01
-4.810853395611047745e-03
-3.344373544678092003e-04
-3.755348152481019497e-04
-4.776670336723327637e-01
-5.516669154167175293e-01
-8.208283782005310059e-02
-2.566091530025005341e-02
-9.454917907714843750e-02
-1.142815407365560532e-02
-4.388032555580139160e-01
1.366730481386184692e-01
-1.599207520484924316e-01
4.298273101449012756e-02
2.135064452886581421e-01
-1.150226891040802002e-01
-8.340879529714584351e-02
-4.994132369756698608e-02
-3.098055720329284668e-01
5.023395270109176636e-02
-3.302503228187561035e-01
-1.061450615525245667e-01
9.241702407598495483e-02
2.217906862497329712e-01
3.643844127655029297e-01
3.732417821884155273e-01
-6.468824148178100586e-01
-2.434487827122211456e-02
-2.300995737314224243e-01
2.014977931976318359e-01
1.434261798858642578e-01
5.356086790561676025e-02
2.756960988044738770e-01
4.062450826168060303e-01
6.031282544136047363e-01
2.722401618957519531e-01
-1.713503301143646240e-01
-3.582421541213989258e-01
4.430864378809928894e-02
3.400743305683135986e-01
5.946338176727294922e-01
2.899333536624908447e-01
5.775214433670043945e-01
4.015740752220153809e-01
-2.478285431861877441e-01
-6.276895105838775635e-02
-9.337542206048965454e-02
5.646182224154472351e-02
1.892362833023071289e-01
-3.543816804885864258e-01
-5.045123696327209473e-01
-1.916395127773284912e-01
1.932354867458343506e-01
6.789173483848571777e-01
3.282601535320281982e-01
-7.055991888046264648e-02
-4.937017858028411865e-01
1.486067622900009155e-01
1.401174962520599365e-01
2.275209426879882812e-01
-5.019360035657882690e-02
-1.093169003725051880e-01
-4.598019123077392578e-01
-1.232080087065696716e-01
-3.478308320045471191e-01
7.664158195257186890e-02
-1.252461224794387817e-01
-1.997575014829635620e-01
-1.822161674499511719e-01
-3.029522001743316650e-01
-7.586215157061815262e-03
-6.707264482975006104e-02
-2.466831505298614502e-01
-3.005879372358322144e-02
-1.590921543538570404e-02
3.466654941439628601e-02
3.022048473358154297e-01
4.525188207626342773e-01
-5.542366206645965576e-02
3.340921998023986816e-01
2.101161181926727295e-01
4.035566151142120361e-01
4.054461419582366943e-01
2.846162319183349609e-01
6.661076545715332031e-01
5.670204758644104004e-01
2.762821614742279053e-01
-2.551362514495849609e-01
-2.092207036912441254e-02
-1.241245120763778687e-01
-4.572826623916625977e-01
-8.477066457271575928e-02
-4.712304174900054932e-01
-9.110551327466964722e-02
-1.056755661964416504e+00
4.085277020931243896e-02
-3.685875535011291504e-01
-5.838017463684082031e-01
-8.531948328018188477e-01
-8.929007649421691895e-01
-4.004635810852050781e-01
-3.201236128807067871e-01
1.181956082582473755e-01
3.122651576995849609e-01
3.284108266234397888e-02
4.138954728841781616e-02
8.640895597636699677e-03
1.644564867019653320e-01
5.134860798716545105e-02
1.543977707624435425e-01
-8.109185099601745605e-02
3.102937340736389160e-01
2.233784832060337067e-02
-1.779249161481857300e-01
1.236240640282630920e-01
5.626620352268218994e-02
-2.147329151630401611e-01
3.540507704019546509e-02
1.366015672683715820e-01
2.538478374481201172e-01
-6.321568787097930908e-02
-1.614920496940612793e-01
-5.767685770988464355e-01
-1.294776648283004761e-01
7.285970449447631836e-02
2.916380167007446289e-01
3.872424364089965820e-01
2.167232148349285126e-02
-5.134333968162536621e-01
7.959040254354476929e-02
4.524139761924743652e-01
1.457672864198684692e-01
-2.269275486469268799e-02
-4.698630869388580322e-01
1.221856400370597839e-01
-4.170813038945198059e-02
4.675898328423500061e-02
-5.515915155410766602e-01
-1.391554027795791626e-01
-2.754345536231994629e-01
-2.958538234233856201e-01
-3.168902993202209473e-01
-2.201583981513977051e-01
-3.170487284660339355e-01
-1.053520813584327698e-01
-1.175887286663055420e-01
-4.617568850517272949e-01
1.775335669517517090e-01
-8.229635655879974365e-02
-3.055427595973014832e-02
-3.008079230785369873e-01
-1.679999008774757385e-02
6.551429629325866699e-02
5.508536100387573242e-01
-1.192667260766029358e-01
2.791531085968017578e-01
1.330427974462509155e-01
3.649340271949768066e-01
6.310246586799621582e-01
6.503297090530395508e-01
-1.602629423141479492e-01
-2.212542667984962463e-02
-1.971246153116226196e-01
6.133193895220756531e-02
1.274021416902542114e-01
-1.034494563937187195e-01
-1.701622456312179565e-01
-1.974092274904251099e-01
-4.622114598751068115e-01
-1.098705232143402100e-01
-1.271282434463500977e-01
2.097506523132324219e-01
3.854586556553840637e-02
-3.577050566673278809e-01
-9.511829614639282227e-01
4.925043880939483643e-02
6.646502763032913208e-02
2.407327666878700256e-02
3.286421298980712891e-02
-3.764742910861968994e-01
1.342013627290725708e-01
-4.276034832000732422e-01
2.432811260223388672e-01
2.101593762636184692e-01
1.065406762063503265e-02
-5.188689827919006348e-01
-2.710465192794799805e-01
4.094255268573760986e-01
-1.126650348305702209e-01
1.660471558570861816e-01
4.333956167101860046e-02
2.066459357738494873e-01
-3.736117184162139893e-01
-2.242617905139923096e-01
1.982280910015106201e-01
2.441820055246353149e-01
3.823459446430206299e-01
1.575409024953842163e-01
-4.655741155147552490e-01
1.113812476396560669e-01
2.178365886211395264e-01
-5.869990587234497070e-01
1.109494790434837341e-01
-3.337194919586181641e-01
-4.590992331504821777e-01
-1.675259321928024292e-01
-1.655665189027786255e-01
1.342577785253524780e-01
-3.140470944344997406e-03
-8.583473972976207733e-03
-2.322102934122085571e-01
-4.031865596771240234e-01
-1.820205152034759521e-01
-1.932860165834426880e-01
2.223988920450210571e-01
4.457353651523590088e-01
1.457756459712982178e-01
-7.606011629104614258e-02
-1.104094460606575012e-01
-8.736198395490646362e-02
1.583273708820343018e-01
1.853577233850955963e-02
-3.511393964290618896e-01
2.720814347267150879e-01
5.418809875845909119e-02
-2.422928996384143829e-02
-1.008506193757057190e-01
-7.948114722967147827e-02
1.126244217157363892e-01
-6.722645461559295654e-02
-1.994715631008148193e-01
-2.362308949232101440e-01
-3.249823451042175293e-01
3.165977597236633301e-01
1.902752369642257690e-01
-2.296668477356433868e-02
3.507991135120391846e-02
-8.414188772439956665e-02
4.317528102546930313e-03
1.685611307621002197e-01
3.172471225261688232e-01
2.929670736193656921e-02
1.752490103244781494e-01
1.135911718010902405e-01
3.823178410530090332e-01
-1.236302405595779419e-01
2.072489857673645020e-01
-1.524279639124870300e-02
-2.802403271198272705e-01
-2.202696204185485840e-01
-3.182119131088256836e-02
-8.992345929145812988e-01
-1.144075542688369751e-01
6.747356057167053223e-02
-6.358705163002014160e-01
-3.227173686027526855e-01
2.285188734531402588e-01
5.444483757019042969e-01
1.620219349861145020e-01
-4.603805541992187500e-01
-1.816561967134475708e-01
5.996914505958557129e-01
6.410166621208190918e-01
1.279985904693603516e-01
-9.787090420722961426e-01
-3.287514746189117432e-01
2.690882682800292969e-01
3.160623610019683838e-01
-1.033872365951538086e+00
-1.904710650444030762e+00
-5.100846290588378906e-01
-8.989971876144409180e-01
-1.342530012130737305e+00
-1.110246777534484863e+00
-3.103005886077880859e-01
-4.539302587509155273e-01
-1.719359010457992554e-01
-8.401035517454147339e-02
8.232097029685974121e-01
3.397255539894104004e-01
-2.319140881299972534e-01
-5.821827650070190430e-01
1.000544577836990356e-01
4.872076213359832764e-02
1.929700523614883423e-01
-3.506630957126617432e-01
1.501068472862243652e-01
2.507742941379547119e-01
1.434567868709564209e-01
-2.229657024145126343e-02
2.705172300338745117e-01
9.223877787590026855e-01
5.166759490966796875e-01
-8.061287226155400276e-04
-3.750360310077667236e-01
-1.098866388201713562e-02
4.218586385250091553e-01
-9.654457122087478638e-02
1.266328245401382446e-01
-6.875288486480712891e-02
-2.064985781908035278e-02
1.051600426435470581e-01
3.784969747066497803e-01
-6.057938560843467712e-02
7.232508808374404907e-02
6.042870134115219116e-02
4.882469773292541504e-02
-1.755922436714172363e-01
7.581403106451034546e-02
-1.224594414234161377e-01
3.283739089965820312e-01
-2.780644297599792480e-01
-3.870257735252380371e-01
1.844462305307388306e-01
-1.253573894500732422e-01
-2.939653694629669189e-01
7.204283494502305984e-03
-1.679700762033462524e-01
-7.433775067329406738e-02
-1.486979573965072632e-01
2.490905523300170898e-01
-5.047207474708557129e-01
7.089772075414657593e-02
-6.057311221957206726e-02
-1.828427165746688843e-01
-1.189561709761619568e-01
-1.509102061390876770e-02
4.662752449512481689e-01
3.868051767349243164e-01
3.174203634262084961e-01
3.948306739330291748e-01
-3.802873194217681885e-01
1.041770726442337036e-01
-5.086842551827430725e-02
-1.756487041711807251e-01
-4.832547158002853394e-02
-9.287015348672866821e-02
2.198480814695358276e-01
2.188407778739929199e-01
-7.093334197998046875e-01
1.760850995779037476e-01
-4.434589445590972900e-01
4.450120925903320312e-01
4.230602979660034180e-01
3.149728477001190186e-01
-7.628261297941207886e-02
-3.410148024559020996e-01
6.975582838058471680e-01
-6.383789777755737305e-01
-5.385696887969970703e-01
-1.499773263931274414e-01
-1.048510670661926270e+00
-4.334560632705688477e-01
-1.353404998779296875e+00
-2.848559617996215820e-01
-4.891645908355712891e-02
-3.104301691055297852e-01
-5.794610381126403809e-01
-4.027812182903289795e-01
-2.689893841743469238e-01
-2.124946862459182739e-01
-5.180454850196838379e-01
-5.290272831916809082e-01
-3.456607460975646973e-02
1.326320022344589233e-01
-1.172309517860412598e-01
-1.152187362313270569e-01
-1.729202866554260254e-01
3.727349340915679932e-01
1.721366643905639648e-01
-9.038908779621124268e-02
-9.700643271207809448e-02
-6.741796731948852539e-01
-1.776649951934814453e-01
-1.097666695713996887e-01
2.775708734989166260e-01
-1.015788614749908447e-01
-4.828504845499992371e-02
-7.518673539161682129e-01
-1.265137046575546265e-01
-1.889732778072357178e-01
2.896236479282379150e-01
-3.797787725925445557e-01
-1.115143895149230957e+00
-2.716034650802612305e-01
-1.419148296117782593e-01
2.014140337705612183e-01
-3.905268386006355286e-02
1.070095226168632507e-01
1.129037141799926758e-01
-1.152945607900619507e-01
7.717610895633697510e-02
2.002218216657638550e-01
2.203377187252044678e-01
4.837814271450042725e-01
1.430513709783554077e-01
-1.708816587924957275e-01
-1.520748138427734375e-01
2.433690577745437622e-01
2.789736986160278320e-01
1.209371760487556458e-01
-6.701068878173828125e-01
3.440279364585876465e-01
1.758184283971786499e-01
-7.093014568090438843e-02
-3.668816089630126953e-01
1.637355424463748932e-02
-2.600378394126892090e-01
-3.788291215896606445e-01
-1.533511281013488770e-01
3.756240382790565491e-02
9.127425402402877808e-02
6.112874671816825867e-02
8.850266225636005402e-03
7.549786567687988281e-02
1.433849683962762356e-03
-4.064629673957824707e-01
-9.096300601959228516e-02
2.705419659614562988e-01
3.317348361015319824e-01
-2.529958486557006836e-01
4.691225588321685791e-01
3.922036886215209961e-01
6.415324211120605469e-01
3.341261744499206543e-01
-4.399515092372894287e-01
-5.418309569358825684e-01
-4.777719378471374512e-01
-5.275666117668151855e-01
-1.096210598945617676e+00
1.580805033445358276e-01
-2.518911659717559814e-01
-4.455532133579254150e-01
-7.328103780746459961e-01
-1.770542412996292114e-01
-1.508627384901046753e-01
-3.436414897441864014e-01
-4.035831093788146973e-01
-2.195273399353027344e+00
-1.630369275808334351e-01
-9.453320503234863281e-02
-2.649629255756735802e-03
-5.054690837860107422e-01
1.488825380802154541e-01
-5.710602402687072754e-01
-6.962691545486450195e-01
5.931754112243652344e-01
-5.232177376747131348e-01
5.213045477867126465e-01
2.146048247814178467e-01
-3.432502746582031250e-01
1.504723131656646729e-01
4.347052797675132751e-02
-2.278887331485748291e-01
-5.975236371159553528e-02
4.414881765842437744e-02
-9.872875362634658813e-02
-9.780807048082351685e-02
-2.843869030475616455e-01
-1.378017514944076538e-01
-3.142399340867996216e-02
2.311804890632629395e-02
4.743945226073265076e-02
-6.178610026836395264e-02
-7.539588212966918945e-02
-5.014015734195709229e-02
1.863645464181900024e-01
-6.976328790187835693e-02
3.951907753944396973e-01
-4.422001168131828308e-02
-1.425663828849792480e-01
-2.571857273578643799e-01
1.521152164787054062e-02
4.225012958049774170e-01
2.399983555078506470e-01
-1.643677949905395508e-01
