7.026008367538452148e-01
2.171712815761566162e-01
7.769850492477416992e-01
-3.366635143756866455e-01
-2.518122792243957520e-01
7.723171729594469070e-03
3.910686671733856201e-01
1.014695048332214355e+00
-5.965569615364074707e-01
-1.063707232475280762e+00
4.624537527561187744e-01
-4.745448231697082520e-01
-3.365399539470672607e-01
-4.626774489879608154e-01
1.704089045524597168e-01
1.451297849416732788e-01
8.194055408239364624e-02
4.109686985611915588e-02
-6.613984107971191406e-01
-5.515338778495788574e-01
-1.882764250040054321e-01
2.255537360906600952e-01
1.425902396440505981e-01
-2.597501873970031738e-01
3.080539591610431671e-02
6.920961141586303711e-01
8.543921709060668945e-01
2.929646968841552734e-01
1.765908002853393555e-01
2.306994795799255371e-01
5.940265059471130371e-01
3.849125802516937256e-01
2.948597371578216553e-01
-4.194485768675804138e-02
8.506784439086914062e-01
2.628095746040344238e-01
-6.634072661399841309e-01
1.900091171264648438e-01
-1.163666024804115295e-01
6.087518930435180664e-01
-4.659049510955810547e-01
4.184359908103942871e-01
4.650813713669776917e-02
-1.268641501665115356e-01
-3.732626438140869141e-01
3.108518719673156738e-01
-2.428179085254669189e-01
2.573114931583404541e-01
-1.128482073545455933e-01
4.133576527237892151e-03
5.268281102180480957e-01
-6.142501831054687500e-01
4.107844233512878418e-01
5.369668602943420410e-01
4.011225104331970215e-01
-4.274049699306488037e-01
5.369470715522766113e-01
8.969112485647201538e-02
1.057935282588005066e-01
-7.610313296318054199e-01
1.954891085624694824e-01
-1.550469398498535156e-01
-7.468038201332092285e-01
-6.400617361068725586e-01
2.826970815658569336e-01
-3.737935423851013184e-01
1.072517514228820801e+00
-7.870347499847412109e-01
3.877193927764892578e-01
-1.591056734323501587e-01
1.526394486427307129e-01
-1.164865940809249878e-01
3.331240415573120117e-01
-1.747747957706451416e-01
-4.495742022991180420e-01
-5.424137711524963379e-01
4.546846449375152588e-01
8.159209489822387695e-01
2.280496209859848022e-01
-2.993153631687164307e-01
3.066177964210510254e-01
9.060865640640258789e-01
7.265280485153198242e-01
-2.547757327556610107e-01
-2.700114063918590546e-02
9.111446142196655273e-01
7.961387038230895996e-01
-8.680171370506286621e-01
2.040736824274063110e-01
-1.681766211986541748e-01
-6.054536625742912292e-02
-3.898388743400573730e-01
2.679220438003540039e-01
-4.165394604206085205e-01
-9.953868389129638672e-01
-6.428671479225158691e-01
2.820656821131706238e-02
-2.130550444126129150e-01
4.092302322387695312e-01
-7.201641052961349487e-02
-5.318090915679931641e-01
2.326964028179645538e-02
-1.270771622657775879e-01
1.647783666849136353e-01
7.509876042604446411e-02
-5.001903697848320007e-02
3.572862148284912109e-01
5.876219868659973145e-01
-1.659268736839294434e-01
1.610576808452606201e-01
-2.839945256710052490e-01
-7.145363092422485352e-01
2.842643558979034424e-01
5.486723780632019043e-01
2.956759631633758545e-01
-3.586097061634063721e-01
1.477799564599990845e-01
-7.894108444452285767e-02
3.562488034367561340e-02
-1.520738303661346436e-01
1.275638490915298462e-01
-7.323341816663742065e-02
-5.404179096221923828e-01
-8.150261826813220978e-03
-1.142304465174674988e-01
-3.375422656536102295e-01
-2.779901921749114990e-01
2.668654322624206543e-01
-1.489314734935760498e-01
5.534921884536743164e-01
-9.799984097480773926e-01
5.114126801490783691e-01
-4.704666435718536377e-01
7.536424696445465088e-02
-3.625673651695251465e-01
3.886975720524787903e-02
-6.036895513534545898e-01
-3.005830049514770508e-01
1.408604979515075684e+00
4.317708015441894531e-01
-1.714571565389633179e-01
-1.125239506363868713e-01
2.810584604740142822e-01
1.648163497447967529e-01
-1.994864046573638916e-01
5.884438157081604004e-01
-3.067595958709716797e-01
3.679205179214477539e-01
-5.833420157432556152e-01
1.036141533404588699e-02
3.463653028011322021e-01
8.674465119838714600e-03
-3.652898967266082764e-01
-4.711312055587768555e-01
-7.964512705802917480e-02
2.079312503337860107e-02
3.501852750778198242e-01
-4.524939879775047302e-02
-8.744383454322814941e-01
1.375769823789596558e-01
4.059053659439086914e-01
-3.620021045207977295e-01
-1.356976777315139771e-01
5.724267959594726562e-01
2.371129542589187622e-01
-1.227469444274902344e-01
-3.514165803790092468e-02
1.619609445333480835e-01
-2.781753242015838623e-01
5.331823229789733887e-02
4.361303746700286865e-01
5.724822282791137695e-01
-2.319219559431076050e-01
-8.848129957914352417e-02
7.637819647789001465e-01
-1.074380334466695786e-02
-2.944478094577789307e-01
5.528389289975166321e-02
-6.011955142021179199e-01
-4.843496978282928467e-01
1.277011632919311523e-02
-5.693367719650268555e-01
2.677621878683567047e-02
5.982995629310607910e-01
5.313713550567626953e-01
-4.389672577381134033e-01
-5.869783163070678711e-01
7.740035057067871094e-01
1.008808463811874390e-01
3.065232932567596436e-01
-5.953490138053894043e-01
5.679470300674438477e-01
6.322996690869331360e-03
3.494435846805572510e-01
3.971214890480041504e-01
7.304584234952926636e-02
-5.498030185699462891e-01
-4.261899292469024658e-01
2.938135862350463867e-01
1.705683916807174683e-01
-4.529138803482055664e-01
-4.079041071236133575e-03
3.657647669315338135e-01
-1.370320916175842285e-01
8.489842414855957031e-01
1.276432871818542480e+00
8.445980548858642578e-01
-4.337953031063079834e-01
-1.557888984680175781e-01
7.242552042007446289e-01
-4.315497353672981262e-03
8.118413388729095459e-02
-1.623250693082809448e-01
6.159815788269042969e-01
8.342450261116027832e-01
-4.534365981817245483e-02
-3.348658680915832520e-01
-2.442461103200912476e-01
2.308508455753326416e-01
2.717449069023132324e-01
-2.912748157978057861e-01
1.040121316909790039e-01
-3.703783154487609863e-01
7.778671979904174805e-01
4.273740947246551514e-01
-4.195602536201477051e-01
-9.254361689090728760e-02
1.026522368192672729e-01
2.301222532987594604e-01
-3.288314118981361389e-02
3.269801381975412369e-03
-5.720032006502151489e-02
1.443265825510025024e-01
3.302147090435028076e-01
4.409833550453186035e-01
1.469804644584655762e-01
-3.170849978923797607e-01
-3.020388484001159668e-01
2.649103701114654541e-01
-4.724974632263183594e-01
5.139992833137512207e-01
-2.136466652154922485e-01
-7.503789663314819336e-01
2.891261279582977295e-01
9.393289089202880859e-01
-2.015939950942993164e-01
3.941428661346435547e-01
1.343189120292663574e+00
3.444395065307617188e-01
3.639927506446838379e-01
4.289462268352508545e-01
-3.821363449096679688e-01
-1.011710092425346375e-01
5.635381340980529785e-01
5.852014422416687012e-01
-1.113919019699096680e+00
-7.302381843328475952e-02
4.375223815441131592e-01
9.672707915306091309e-01
2.567089796066284180e-01
4.267584979534149170e-01
8.644921779632568359e-01
7.916570305824279785e-01
4.702274501323699951e-01
1.324889063835144043e+00
9.943169355392456055e-01
9.262058138847351074e-01
1.011107444763183594e+00
9.563223123550415039e-01
4.939305484294891357e-01
-4.016734287142753601e-02
4.654526412487030029e-01
-7.474564313888549805e-01
-3.963780701160430908e-01
1.731916815042495728e-01
-6.602689623832702637e-02
2.824319601058959961e-01
2.367115765810012817e-01
4.812286198139190674e-01
3.691197931766510010e-01
9.253209829330444336e-02
2.220843434333801270e-01
6.930386275053024292e-02
-2.759272754192352295e-01
-5.004129409790039062e-01
-4.058789089322090149e-02
2.291160374879837036e-01
9.751291275024414062e-01
-2.521812021732330322e-01
3.437169790267944336e-01
1.458838135004043579e-01
5.714380145072937012e-01
-4.522516131401062012e-01
3.163338005542755127e-01
2.924013510346412659e-02
1.961420327425003052e-01
-2.727069854736328125e-01
4.107582941651344299e-02
-7.066697478294372559e-01
-2.326067164540290833e-02
1.019081547856330872e-01
1.667058467864990234e+00
-8.983850479125976562e-02
1.922009978443384171e-03
2.646583914756774902e-01
4.588988721370697021e-01
7.827771455049514771e-02
2.303672134876251221e-01
1.186398714780807495e-01
-3.158421516418457031e-01
5.414896607398986816e-01
6.395524144172668457e-01
-3.358080387115478516e-01
-5.914496183395385742e-01
-1.700481027364730835e-01
4.027017951011657715e-01
-3.421448171138763428e-01
-1.730808764696121216e-01
3.169140517711639404e-01
5.708882808685302734e-01
3.000554144382476807e-01
-3.044882230460643768e-02
-1.107776723802089691e-02
-1.092167615890502930e+00
6.437523961067199707e-01
2.859268486499786377e-01
-3.686380386352539062e-01
-1.212379056960344315e-02
1.617684960365295410e-01
-2.461919039487838745e-01
-4.257362484931945801e-01
-4.466167986392974854e-01
6.614013910293579102e-01
1.099191188812255859e+00
1.374833285808563232e-01
-2.217116802930831909e-01
-4.185362458229064941e-01
3.758004605770111084e-01
1.405790895223617554e-01
-4.076483845710754395e-01
1.468935310840606689e-01
-3.064608871936798096e-01
3.140801787376403809e-01
1.638721823692321777e-01
-1.174222469329833984e+00
-3.845655024051666260e-01
-4.993087351322174072e-01
-5.125078558921813965e-01
-1.815773695707321167e-01
-3.478564321994781494e-01
-4.326201230287551880e-02
-3.455493748188018799e-01
-2.070041745901107788e-01
7.223726809024810791e-02
1.667094975709915161e-01
-1.743181794881820679e-02
-6.083432435989379883e-01
-1.773920953273773193e-01
2.805847823619842529e-01
1.947584599256515503e-01
-9.086748212575912476e-02
-1.008909866213798523e-01
1.891727894544601440e-01
2.989295721054077148e-01
1.785105168819427490e-01
5.131803080439567566e-02
-6.199090480804443359e-01
9.824067354202270508e-02
-2.324176579713821411e-01
9.752261638641357422e-02
-2.406411319971084595e-01
-4.211911559104919434e-01
-2.806470096111297607e-01
1.136290952563285828e-01
-4.076163768768310547e-01
1.256845444440841675e-01
-1.971205323934555054e-01
2.448498606681823730e-01
-4.588907063007354736e-01
4.722673445940017700e-02
2.138701379299163818e-01
5.405457019805908203e-01
4.412196278572082520e-01
9.347896575927734375e-01
3.224594593048095703e-01
3.508117794990539551e-01
-2.884391844272613525e-01
4.579780995845794678e-01
5.821729302406311035e-01
4.009958505630493164e-01
5.022867321968078613e-01
-4.392775893211364746e-01
1.114100739359855652e-01
-1.503352224826812744e-01
1.687073409557342529e-01
-7.527943253517150879e-01
3.844681382179260254e-01
-1.593144834041595459e-01
5.867309495806694031e-02
-4.165199100971221924e-01
1.577937752008438110e-01
-2.813940346240997314e-01
-4.393411874771118164e-01
-8.618204593658447266e-01
3.335988223552703857e-01
-3.628534497693181038e-03
1.255051344633102417e-01
4.629110991954803467e-01
4.841420799493789673e-03
-3.786267042160034180e-01
2.682839035987854004e-01
-2.658438384532928467e-01
-1.423544436693191528e-01
6.703697144985198975e-02
6.734530925750732422e-01
-4.518883526325225830e-01
5.473440885543823242e-02
-1.367496401071548462e-01
5.172910094261169434e-01
-2.040866315364837646e-01
3.240606784820556641e-01
4.009377658367156982e-01
-4.003407359123229980e-01
2.879061996936798096e-01
5.771293118596076965e-02
-1.433545053005218506e-01
-3.749459385871887207e-01
2.138052284717559814e-01
-1.673292070627212524e-01
-2.597346007823944092e-01
-1.072974130511283875e-01
-9.386873990297317505e-02
-2.613843791186809540e-02
2.321143895387649536e-01
4.002195000648498535e-01
-5.026524066925048828e-01
4.778419435024261475e-01
1.418952941894531250e-01
6.366899013519287109e-01
5.224191024899482727e-02
1.523728370666503906e-01
2.491735816001892090e-01
-1.361908614635467529e-01
2.048546075820922852e-02
3.056271374225616455e-01
7.526507377624511719e-01
-2.006288170814514160e-01
-8.693472295999526978e-02
4.908449053764343262e-01
1.955379098653793335e-01
-2.909117341041564941e-01
1.639796793460845947e-01
-3.589812666177749634e-02
-7.365083694458007812e-02
-1.029180437326431274e-01
1.972632706165313721e-01
-3.050954043865203857e-01
2.356501966714859009e-01
-6.718870252370834351e-02
4.638744294643402100e-01
-3.903006017208099365e-01
2.716871798038482666e-01
-1.204588785767555237e-01
1.140940859913825989e-01
-4.531481266021728516e-01
-2.650276720523834229e-01
7.921048998832702637e-01
1.259964406490325928e-01
-6.294988095760345459e-02
-8.480618894100189209e-02
8.226815611124038696e-02
-2.478562891483306885e-01
1.643109768629074097e-01
-3.426218032836914062e-01
-1.161811947822570801e-01
-3.324470520019531250e-01
-7.422367930412292480e-01
-1.092369034886360168e-01
-4.901449382305145264e-01
-6.526085138320922852e-01
-3.011441826820373535e-01
-9.526270627975463867e-01
-7.558127641677856445e-01
-3.863020837306976318e-01
-4.269605036824941635e-03
1.210631653666496277e-01
-3.318306207656860352e-01
-1.564055532217025757e-01
3.371928036212921143e-01
-4.843478091061115265e-03
-2.335920035839080811e-01
6.859077140688896179e-03
9.360824227333068848e-01
8.822213411331176758e-01
1.495882630348205566e+00
1.163480997085571289e+00
-2.519917301833629608e-02
-6.585338115692138672e-01
-1.172700896859169006e-01
1.785137057304382324e-01
1.768507957458496094e-01
8.622643351554870605e-01
1.461279094219207764e-01
1.793033033609390259e-01
1.595177501440048218e-01
6.416610479354858398e-01
4.695410728454589844e-01
-1.107602491974830627e-01
-1.034275054931640625e+00
-8.438155055046081543e-02
-3.172332942485809326e-01
-4.310475289821624756e-01
4.140365719795227051e-01
-7.243673801422119141e-01
5.264786258339881897e-02
-3.225566148757934570e-01
6.643447279930114746e-01
6.822739243507385254e-01
5.101146101951599121e-01
-5.944638252258300781e-01
-4.962000995874404907e-02
3.768956363201141357e-01
-1.745910942554473877e-02
2.189520448446273804e-01
6.195209622383117676e-01
8.829911351203918457e-01
5.826373696327209473e-01
-1.755530945956707001e-02
1.225360408425331116e-01
-1.204710230231285095e-01
2.162733674049377441e-01
-1.394058391451835632e-02
-3.034985363483428955e-01
-9.971868991851806641e-02
-1.724522262811660767e-01
-1.088893532752990723e+00
4.414177834987640381e-01
6.972111016511917114e-02
-6.198482587933540344e-02
-1.811886876821517944e-01
3.424815535545349121e-01
-1.486507430672645569e-02
-5.375002622604370117e-01
-2.275890558958053589e-01
2.775070369243621826e-01
-2.398195862770080566e-01
2.081333547830581665e-01
-4.336258172988891602e-01
-4.685969650745391846e-01
-4.902896583080291748e-01
1.094354465603828430e-01
-4.550063908100128174e-01
3.721516728401184082e-01
-2.095304280519485474e-01
8.278943300247192383e-01
-4.362290501594543457e-01
-3.267893493175506592e-01
-1.467210650444030762e+00
-7.712301015853881836e-01
-1.225943326950073242e+00
4.489427804946899414e-01
-4.322518035769462585e-02
-2.223972696810960770e-03
1.151087880134582520e-01
5.436887145042419434e-01
5.367829650640487671e-02
-1.594672212377190590e-03
7.548257112503051758e-01
7.965747267007827759e-03
-1.516589820384979248e-01
-5.151247605681419373e-02
-4.110248014330863953e-02
-5.554524436593055725e-02
-3.898290693759918213e-01
-1.822251826524734497e-02
-1.063838079571723938e-01
-2.325408160686492920e-01
6.441222876310348511e-02
4.872099310159683228e-02
-1.128424763679504395e+00
7.786069810390472412e-02
-2.999844029545783997e-02
-2.753875553607940674e-01
-4.457926154136657715e-01
4.926179647445678711e-01
-3.869000673294067383e-01
1.383472140878438950e-02
-1.552124470472335815e-01
-3.772770753130316734e-03
-1.255974620580673218e-01
4.925646483898162842e-01
-7.601478695869445801e-01
-1.661862432956695557e-01
9.150421619415283203e-02
-2.155870348215103149e-01
7.845973372459411621e-01
3.290686309337615967e-01
2.038885951042175293e-01
1.944056898355484009e-01
-5.132513046264648438e-01
-4.688603878021240234e-01
2.034775316715240479e-01
2.465328574180603027e-01
3.085136115550994873e-01
3.636130988597869873e-01
1.485074162483215332e-01
5.786555409431457520e-01
6.441969871520996094e-01
7.365227937698364258e-01
-2.525429129600524902e-01
5.184873342514038086e-01
-2.669847905635833740e-01
6.662485003471374512e-02
-3.198702335357666016e-01
1.513393223285675049e-01
-1.051965430378913879e-01
-5.537934303283691406e-01
-6.943019628524780273e-01
8.997947722673416138e-02
-4.413182735443115234e-01
-6.928418278694152832e-01
-8.845025897026062012e-01
3.741618692874908447e-01
-1.741517484188079834e-01
-6.573927402496337891e-02
5.681313946843147278e-02
-1.719978004693984985e-01
-7.162070274353027344e-01
-4.097283184528350830e-01
4.919952452182769775e-01
-1.501950323581695557e-01
2.300315648317337036e-01
-6.338810324668884277e-01
9.752496331930160522e-02
2.627656459808349609e-01
1.769072264432907104e-01
2.944242060184478760e-01
-5.270503163337707520e-01
-4.765845537185668945e-01
-2.047283947467803955e-01
1.281723529100418091e-01
-2.952678799629211426e-01
1.228014938533306122e-02
1.441964693367481232e-02
-2.010433822870254517e-01
5.631174445152282715e-01
-1.587673723697662354e-01
-3.014346957206726074e-01
-1.215637400746345520e-01
1.283043175935745239e-01
3.720548152923583984e-01
-6.646286230534315109e-03
-2.630884051322937012e-01
3.183107972145080566e-01
-2.585258781909942627e-01
-5.141720175743103027e-01
-3.481319248676300049e-01
-3.321687579154968262e-01
1.528329849243164062e-01
-8.786581158638000488e-01
5.853770300745964050e-03
-2.482988238334655762e-01
-1.945186108350753784e-01
-9.213506244122982025e-03
4.306358844041824341e-02
-5.519012212753295898e-01
-1.955375969409942627e-01
-2.624233067035675049e-02
8.539266884326934814e-03
-2.851256132125854492e-01
-5.999197959899902344e-01
-1.348369866609573364e-01
2.269418537616729736e-01
-5.163900256156921387e-01
-3.653003275394439697e-01
5.743685364723205566e-01
-8.277174085378646851e-02
2.552066147327423096e-01
3.812891840934753418e-01
2.007954269647598267e-01
-6.704915165901184082e-01
-5.908527970314025879e-01
-1.176723480224609375e+00
-4.739814102649688721e-01
-1.594794154167175293e+00
-1.424348831176757812e+00
-2.034223556518554688e+00
-2.572449147701263428e-01
6.428742408752441406e-01
-1.577517986297607422e-01
1.354173868894577026e-01
-5.579698085784912109e-02
2.684324383735656738e-01
-1.011044979095458984e-01
-2.767846286296844482e-01
-4.582394361495971680e-01
2.142124921083450317e-01
3.789308667182922363e-01
-1.253374367952346802e-01
-1.034994274377822876e-01
6.582549214363098145e-01
-8.271919190883636475e-02
-3.799358010292053223e-01
-5.734198093414306641e-01
-3.228594362735748291e-02
3.132738545536994934e-02
-2.850613370537757874e-02
4.651557505130767822e-01
-4.040800034999847412e-01
2.481128126382827759e-01
2.721733450889587402e-01
-8.410578221082687378e-02
-1.429277658462524414e-01
-1.277766227722167969e-01
3.721996396780014038e-02
-2.443298846483230591e-01
-4.265820384025573730e-01
-3.485531806945800781e-01
-1.494600325822830200e-01
2.988292276859283447e-01
6.353042088449001312e-03
-2.328775674104690552e-01
-6.994721293449401855e-01
3.860597908496856689e-01
-1.214427351951599121e-01
4.294849634170532227e-01
-3.415126800537109375e-01
2.108006030321121216e-01
9.453651309013366699e-02
-3.070123195648193359e-01
-1.552262157201766968e-01
2.177619189023971558e-01
-7.769808173179626465e-01
2.502328157424926758e-01
-7.087261974811553955e-02
-3.142703473567962646e-01
7.164322584867477417e-02
6.212589740753173828e-01
2.263399511575698853e-01
6.313660144805908203e-01
-1.368774920701980591e-01
2.079278528690338135e-01
2.731939554214477539e-01
-1.621968299150466919e-01
4.687905311584472656e-01
-2.548083066940307617e-01
1.921846568584442139e-01
-1.029912102967500687e-02
-9.390060901641845703e-01
-4.845152795314788818e-02
-3.374796733260154724e-02
-6.743163466453552246e-01
-9.564814567565917969e-01
-1.235930323600769043e+00
-2.501333951950073242e-01
-1.171022891998291016e+00
-4.919286370277404785e-01
-1.329269170761108398e+00
2.332655638456344604e-01
1.123075112700462341e-01
1.647352576255798340e-01
-1.910528168082237244e-02
2.391104400157928467e-01
3.660282194614410400e-01
-6.874606013298034668e-01
-2.823428213596343994e-01
2.566542029380798340e-01
7.553616911172866821e-02
-1.918356716632843018e-01
-5.306496843695640564e-02
2.925206422805786133e-01
9.021680355072021484e-01
-8.311737179756164551e-01
-1.243472576141357422e+00
-2.354478836059570312e-01
5.716649889945983887e-01
-4.816569983959197998e-01
-1.290460973978042603e-01
-6.212015748023986816e-01
-4.552754759788513184e-01
-8.496211469173431396e-02
2.777063660323619843e-02
2.414374984800815582e-02
-7.861905694007873535e-01
-9.788034856319427490e-02
-7.134692370891571045e-02
-2.442148774862289429e-01
3.529740869998931885e-01
6.346754431724548340e-01
-3.688965141773223877e-01
3.790388256311416626e-02
7.822406291961669922e-01
-3.041479885578155518e-01
6.901030242443084717e-02
1.332370936870574951e-01
7.279851436614990234e-01
7.241601347923278809e-01
7.386463284492492676e-01
6.534124612808227539e-01
9.800696969032287598e-01
8.056135177612304688e-01
-7.436585426330566406e-02
-4.609393775463104248e-01
3.857635557651519775e-01
-3.806934356689453125e-01
1.186206459999084473e+00
-5.193888545036315918e-01
2.721064388751983643e-01
-4.321459233760833740e-01
5.293265581130981445e-01
-2.942088060081005096e-02
1.627638489007949829e-01
6.344504952430725098e-01
5.101640820503234863e-01
6.804319620132446289e-01
3.089348375797271729e-01
-8.678241819143295288e-02
-3.154014050960540771e-01
-7.068619728088378906e-01
-3.118421733379364014e-01
5.871660262346267700e-02
5.181823968887329102e-01
-6.576634049415588379e-01
-5.861625075340270996e-02
1.475225538015365601e-01
3.483767807483673096e-01
2.815359234809875488e-01
3.196786046028137207e-01
-2.027290463447570801e-01
3.203901052474975586e-01
5.889357924461364746e-01
-3.718985319137573242e-01
1.401513963937759399e-01
1.349687129259109497e-01
8.680865913629531860e-02
3.319087922573089600e-01
3.211057931184768677e-02
6.423462182283401489e-02
4.164108037948608398e-01
7.956670969724655151e-02
8.958894014358520508e-02
4.834695532917976379e-02
-1.566780209541320801e-01
-2.131384462118148804e-01
4.410079121589660645e-01
2.500126361846923828e-01
-4.137722551822662354e-01
-1.905358582735061646e-01
1.056105047464370728e-01
7.512546181678771973e-01
3.627132177352905273e-01
-1.010862827301025391e+00
6.152030825614929199e-02
4.239934682846069336e-01
1.611762046813964844e+00
-1.213578581809997559e-01
5.467044115066528320e-01
4.708231091499328613e-01
-1.552009433507919312e-01
-6.736319065093994141e-01
-1.641999334096908569e-01
2.063691802322864532e-02
2.829657495021820068e-01
-6.686667203903198242e-01
-9.471005760133266449e-03
-7.414539456367492676e-01
-7.293533086776733398e-01
-1.132604002952575684e+00
-2.754250764846801758e-01
8.876276761293411255e-02
8.842337131500244141e-02
-2.177982330322265625e-01
5.185360088944435120e-02
1.838639378547668457e-01
4.034471809864044189e-01
3.453641533851623535e-01
-2.161609530448913574e-01
5.871312618255615234e-01
7.278638482093811035e-01
-8.502660393714904785e-01
-2.589537501335144043e-01
-8.423642814159393311e-02
5.870782732963562012e-01
1.375139355659484863e+00
8.046489953994750977e-02
-2.389987111091613770e-01
2.716729938983917236e-01
2.416371135041117668e-03
1.623581647872924805e-01
4.803671240806579590e-01
-4.445413500070571899e-02
3.808463690802454948e-03
-2.263909392058849335e-02
4.471049606800079346e-01
-2.545782029628753662e-01
4.069039523601531982e-01
2.539878152310848236e-02
-3.259788155555725098e-01
-8.068984150886535645e-01
-1.683413684368133545e-01
-3.889971673488616943e-01
8.316070772707462311e-03
-3.187625408172607422e-01
-2.950445115566253662e-01
4.154551923274993896e-01
1.965127736330032349e-01
-1.058924462995491922e-04
2.484217435121536255e-01
5.959360003471374512e-01
8.640246987342834473e-01
-6.970403194427490234e-01
1.660125553607940674e-01
-7.828718423843383789e-02
1.036477923393249512e+00
-7.003676146268844604e-02
-1.129492092877626419e-02
5.088403820991516113e-01
-5.206713676452636719e-01
3.553965687751770020e-01
3.444561958312988281e-01
-5.203562378883361816e-01
1.395179033279418945e-01
3.925487697124481201e-01
2.938703447580337524e-02
1.249765381217002869e-01
4.988589882850646973e-01
4.246692657470703125e-01
1.695989072322845459e-01
3.295070827007293701e-01
-7.973740994930267334e-02
1.179152354598045349e-02
1.649060994386672974e-01
1.145840734243392944e-01
-6.748438626527786255e-02
1.326598506420850754e-02
1.255081892013549805e-01
-4.743449389934539795e-01
-3.434263914823532104e-02
-9.902670979499816895e-02
-1.737535148859024048e-01
-2.111684828996658325e-01
-5.663356184959411621e-02
-2.589746415615081787e-01
-1.323595941066741943e-01
-1.209290474653244019e-01
7.000197768211364746e-01
-3.091176971793174744e-02
6.949365735054016113e-01
6.667275428771972656e-01
-6.312442421913146973e-01
2.886970043182373047e-01
4.123963713645935059e-01
4.402173757553100586e-01
8.592267334461212158e-02
-1.070249378681182861e-01
2.523030936717987061e-01
2.174923568964004517e-01
-4.946969151496887207e-01
2.662958763539791107e-02
-3.903850913047790527e-01
-5.453336238861083984e-02
1.105193234980106354e-02
1.181115768849849701e-02
3.288812637329101562e-01
-3.639967739582061768e-01
1.130896713584661484e-02
-5.859874188899993896e-02
-2.044350951910018921e-01
4.670312404632568359e-01
6.666353344917297363e-02
9.046163558959960938e-01
-3.998124897480010986e-01
9.981952905654907227e-01
8.217136263847351074e-01
7.619516849517822266e-01
5.687003731727600098e-01
-7.277480363845825195e-01
-6.030969619750976562e-01
-4.063472747802734375e-01
-7.470946311950683594e-01
-3.834861516952514648e-01
8.040566444396972656e-01
-1.869309246540069580e-01
-2.971725761890411377e-01
5.593826770782470703e-01
9.292750358581542969e-01
5.448074936866760254e-01
-5.373815894126892090e-01
-2.458433248102664948e-02
1.018364906311035156e+00
5.953028202056884766e-01
4.626268148422241211e-01
-1.928441971540451050e-01
-1.828825175762176514e-01
4.671413898468017578e-01
-9.166003763675689697e-02
-4.268919527530670166e-01
-6.896358728408813477e-01
9.699937701225280762e-01
-4.139297604560852051e-01
1.149082481861114502e-01
-5.020707845687866211e-01
2.071706652641296387e-01
-6.499865055084228516e-01
-2.868669629096984863e-01
2.983818650245666504e-01
3.368993103504180908e-01
4.843842089176177979e-01
-3.112808465957641602e-01
-5.143566131591796875e-01
-3.738394379615783691e-01
6.408712863922119141e-01
-5.896210074424743652e-01
-1.646221756935119629e+00
-8.347299098968505859e-01
-5.070474743843078613e-01
3.744111955165863037e-01
-1.185839548707008362e-01
1.323802322149276733e-01
-4.194817543029785156e-01
2.373224943876266479e-01
-3.061375617980957031e-01
-1.289661675691604614e-01
-3.050620555877685547e-01
-1.242710202932357788e-01
-4.123580455780029297e-01
4.179581627249717712e-02
5.959118008613586426e-01
4.177816957235336304e-02
6.901131868362426758e-01
5.887959003448486328e-01
2.998283207416534424e-01
-2.101360112428665161e-01
4.458130300045013428e-01
-5.811756849288940430e-01
2.825307548046112061e-01
-5.566070973873138428e-02
-3.118199706077575684e-01
-3.762014508247375488e-01
-1.969702541828155518e-01
1.666799187660217285e-01
-7.762261480093002319e-02
-1.427240967750549316e-01
-4.217970073223114014e-01
6.851491332054138184e-01
-3.040962815284729004e-01
-1.690982580184936523e-01
-6.220862269401550293e-01
3.059748113155364990e-01
-1.451488584280014038e-01
2.402882725000381470e-01
2.816250026226043701e-01
1.901647299528121948e-01
4.773631393909454346e-01
-3.336342573165893555e-01
2.590588033199310303e-01
3.981611728668212891e-01
-7.697218656539916992e-01
-3.888432383537292480e-01
1.710034459829330444e-01
2.542927265167236328e-01
-9.224731922149658203e-01
-3.340695798397064209e-01
1.039068680256605148e-02
-1.530422091484069824e+00
-9.383570402860641479e-02
2.883463501930236816e-01
1.030847523361444473e-02
-1.166577935218811035e-01
-8.527539372444152832e-01
-3.006543219089508057e-01
5.723799467086791992e-01
-2.965663969516754150e-01
1.410326734185218811e-02
2.891424000263214111e-01
-1.738432049751281738e-01
2.414136379957199097e-02
-3.081964552402496338e-01
-5.164790153503417969e-01
-8.956099152565002441e-01
-1.425403952598571777e-01
-1.025332212448120117e+00
-9.671294689178466797e-01
-7.673227190971374512e-01
-3.326417803764343262e-01
-6.299732327461242676e-01
-5.501953884959220886e-02
1.262966245412826538e-01
-1.371190994977951050e-01
-3.512389063835144043e-01
4.369019567966461182e-01
1.294134616851806641e+00
3.403477668762207031e-01
3.997568413615226746e-02
8.444903790950775146e-02
3.197731971740722656e-01
2.956409156322479248e-01
-7.775668054819107056e-02
-1.538532506674528122e-02
-4.749324023723602295e-01
-7.184249907732009888e-02
-2.515220046043395996e-01
-2.546498924493789673e-02
-1.387000679969787598e-01
3.654697835445404053e-01
2.807119488716125488e-01
4.317146539688110352e-01
2.704121768474578857e-01
8.484916388988494873e-02
1.444295346736907959e-01
1.938592344522476196e-01
-6.997568607330322266e-01
2.206370383501052856e-01
1.880010515451431274e-01
-2.907118797302246094e-01
-7.088065743446350098e-01
3.932356238365173340e-01
3.974587023258209229e-01
-9.430143237113952637e-02
-7.538315057754516602e-01
-4.463592916727066040e-02
-1.803316771984100342e-01
-6.259878724813461304e-02
-6.306742131710052490e-02
4.699563682079315186e-01
-6.289467215538024902e-01
-3.984763622283935547e-01
-2.202207446098327637e-01
-3.576692640781402588e-01
-4.278124272823333740e-01
-5.677792429924011230e-01
-3.978700339794158936e-01
-6.519196033477783203e-01
-4.065137505531311035e-01
-5.523871779441833496e-01
-1.303056955337524414e+00
6.280808150768280029e-02
9.794288873672485352e-02
-1.746463007293641567e-03
1.087882757186889648e+00
-4.303649365901947021e-01
-2.992990612983703613e-01
7.364120483398437500e-01
1.772369146347045898e-01
4.610797762870788574e-01
-5.422261357307434082e-01
6.168657541275024414e-01
7.598365545272827148e-01
1.025586202740669250e-01
3.097596019506454468e-02
-8.039591312408447266e-01
6.183164119720458984e-01
8.395962417125701904e-03
3.169493377208709717e-01
8.094153553247451782e-02
7.185235619544982910e-01
3.128625750541687012e-01
5.330081656575202942e-02
1.738808155059814453e-01
-7.164213657379150391e-01
-1.900220513343811035e-01
1.774629056453704834e-01
-9.107517451047897339e-02
-3.281530141830444336e-01
3.016319572925567627e-01
-4.460858702659606934e-01
1.541259884834289551e-01
-3.565756678581237793e-01
2.077850550413131714e-01
1.462986171245574951e-01
3.617230355739593506e-01
7.808167338371276855e-01
3.374316096305847168e-01
-3.438250720500946045e-01
-4.562262594699859619e-01
-1.568167358636856079e-01
3.985370397567749023e-01
1.500311642885208130e-01
-2.207645773887634277e-02
2.017640471458435059e-01
2.253525108098983765e-01
4.364985823631286621e-01
7.547770440578460693e-02
5.311402305960655212e-02
-7.054190039634704590e-01
4.503031671047210693e-01
5.992584228515625000e-01
3.116841055452823639e-02
-4.921216368675231934e-01
3.507914841175079346e-01
-5.596018396317958832e-03
4.794514477252960205e-01
4.932652413845062256e-01
1.807750575244426727e-02
5.247849822044372559e-01
1.474026292562484741e-01
-2.839550971984863281e-01
2.192546427249908447e-02
-6.106591597199440002e-02
-3.867393434047698975e-01
-7.445775717496871948e-02
-5.419548749923706055e-01
-2.649046182632446289e-01
6.885571777820587158e-02
-1.574956178665161133e-01
-3.687743544578552246e-01
-4.883836507797241211e-01
1.150589108467102051e+00
4.463215768337249756e-01
-1.362625241279602051e+00
-3.716872632503509521e-01
-3.851175308227539062e-01
4.093102365732192993e-02
-5.960782170295715332e-01
-3.173278868198394775e-01
-1.261771172285079956e-01
7.353978157043457031e-01
8.079908788204193115e-02
-4.293642938137054443e-02
-7.762911170721054077e-02
1.227263435721397400e-01
-4.544574618339538574e-01
-1.233466621488332748e-02
-3.457716703414916992e-01
-5.758522152900695801e-01
-3.385124206542968750e-01
-2.357954531908035278e-01
-2.285406440496444702e-01
-6.058021187782287598e-01
-1.107927680015563965e+00
1.020444929599761963e-02
-2.618983685970306396e-01
4.573861658573150635e-01
1.807174831628799438e-01
2.336896359920501709e-01
-5.452690720558166504e-01
1.566320508718490601e-01
2.586431503295898438e-01
6.730929017066955566e-01
5.248472690582275391e-01
4.257181286811828613e-01
3.456028103828430176e-01
-3.653355836868286133e-01
-5.392559170722961426e-01
-2.520054578781127930e-01
1.089423671364784241e-01
-2.201479375362396240e-01
-2.376673817634582520e-01
-1.488069444894790649e-01
-8.848181962966918945e-01
1.266259234398603439e-03
3.419948916416615248e-04
-2.265897542238235474e-01
-8.282435536384582520e-01
-1.715487986803054810e-01
-1.222982779145240784e-01
1.431945264339447021e-01
-3.581276834011077881e-01
1.102193474769592285e+00
-6.444175541400909424e-02
3.506444692611694336e-01
-7.120749354362487793e-01
8.761529922485351562e-01
-1.170666739344596863e-01
-2.972423136234283447e-01
-3.295550644397735596e-01
-8.310594558715820312e-01
2.902078926563262939e-01
1.580305695533752441e-01
6.434013694524765015e-02
-6.991442441940307617e-01
-4.407994449138641357e-01
-1.152843385934829712e-01
-7.112734764814376831e-02
-4.742886424064636230e-01
-2.103050798177719116e-01
6.117295026779174805e-01
-3.541118800640106201e-01
-2.727824449539184570e-01
-8.642910718917846680e-01
7.970330715179443359e-01
5.871458649635314941e-01
3.707614839076995850e-01
1.475963890552520752e-01
-4.470957219600677490e-01
1.468290239572525024e-01
-2.648978829383850098e-01
-4.756260514259338379e-01
-3.327685296535491943e-01
-4.997586086392402649e-02
-3.666689097881317139e-01
-4.909800291061401367e-01
5.923863053321838379e-01
-3.279504776000976562e-01
1.875839680433273315e-01
9.304729104042053223e-02
2.475551813840866089e-01
4.761722087860107422e-01
2.082728147506713867e-01
-7.702535390853881836e-02
-2.429531216621398926e-01
2.206180989742279053e-01
-3.963580727577209473e-01
6.206487417221069336e-01
4.413002729415893555e-01
5.920397639274597168e-01
-1.290964931249618530e-01
4.054198414087295532e-02
2.550876736640930176e-01
-5.656228661537170410e-01
5.430070161819458008e-01
8.290106058120727539e-02
-4.930663108825683594e-01
-4.357861578464508057e-01
-2.741658985614776611e-01
3.392624557018280029e-01
5.768954157829284668e-01
1.049755141139030457e-01
7.615783065557479858e-02
6.458120346069335938e-01
5.499083399772644043e-01
2.775427140295505524e-02
-4.816417098045349121e-01
2.720438241958618164e-01
5.600982308387756348e-01
-2.449108869768679142e-04
1.657327711582183838e-01
5.392556190490722656e-01
-5.495406389236450195e-01
-4.272373318672180176e-01
-5.816246867179870605e-01
-2.290049940347671509e-02
-1.479364335536956787e-01
-3.225208222866058350e-01
-4.887158423662185669e-02
4.445732533931732178e-01
-3.156720846891403198e-02
-1.168842762708663940e-01
-4.062359407544136047e-02
5.179671645164489746e-01
-1.274482011795043945e-01
4.328620731830596924e-01
7.149680852890014648e-01
5.040955543518066406e-01
-2.626436948776245117e-01
1.986700296401977539e-01
3.211728036403656006e-01
9.466073662042617798e-02
-6.029982119798660278e-03
-4.855866432189941406e-01
4.708402976393699646e-02
3.335104882717132568e-01
-1.416072398424148560e-01
3.220917284488677979e-02
-1.497486382722854614e-01
-4.528342187404632568e-01
-2.711205780506134033e-01
1.858699023723602295e-01
4.832332134246826172e-01
-2.156474739313125610e-01
-8.568748086690902710e-02
1.179625317454338074e-01
-1.073273420333862305e-01
3.661717772483825684e-01
-4.015766382217407227e-01
-2.250627428293228149e-02
2.262025326490402222e-01
-5.008737444877624512e-01
-2.387157529592514038e-01
-4.509459733963012695e-01
-1.347344368696212769e-01
-4.700106382369995117e-01
8.628879487514495850e-02
-5.305074453353881836e-01
-2.183977961540222168e-01
3.493790328502655029e-01
-9.711068868637084961e-01
-1.180662870407104492e+00
6.797055155038833618e-02
-7.699475288391113281e-01
-5.638475418090820312e-01
1.501593291759490967e-01
7.427035272121429443e-02
-6.504645943641662598e-02
-9.511874914169311523e-01
-3.831352666020393372e-02
-2.010962516069412231e-01
1.070917174220085144e-01
1.896314620971679688e-01
-4.417656958103179932e-01
-6.059798002243041992e-01
-4.211529195308685303e-01
-2.127139568328857422e-01
-3.676494061946868896e-01
3.857070580124855042e-03
-1.663213372230529785e-01
-6.594118475914001465e-01
2.641862928867340088e-01
3.548764288425445557e-01
-2.917486131191253662e-01
1.046403869986534119e-02
5.509530380368232727e-02
5.495562553405761719e-01
-8.401295542716979980e-01
-5.261490941047668457e-01
-5.560606718063354492e-01
8.813557624816894531e-01
-9.882762283086776733e-02
5.123553276062011719e-01
1.202983021736145020e+00
-1.238409206271171570e-01
-1.037358641624450684e+00
2.358328700065612793e-01
6.325702071189880371e-01
-2.602861262857913971e-02
1.005520448088645935e-01
2.680093944072723389e-01
4.178513586521148682e-01
-3.165287673473358154e-01
-1.053114309906959534e-01
1.717062294483184814e-01
4.285891056060791016e-01
1.338696032762527466e-01
-3.414812982082366943e-01
-1.559229474514722824e-02
-6.006653904914855957e-01
-6.602263450622558594e-01
-6.691725850105285645e-01
1.152086034417152405e-01
3.775768876075744629e-01
-2.492073625326156616e-01
-5.710376501083374023e-01
-4.071162641048431396e-01
-3.119201585650444031e-02
-1.073878556489944458e-01
1.660836040973663330e-01
2.354055345058441162e-01
-1.774185299873352051e-01
4.736077487468719482e-01
6.450746655464172363e-01
-7.967991381883621216e-02
-1.900709271430969238e-01
4.148150980472564697e-01
-1.913619190454483032e-01
-2.876084446907043457e-01
-2.430655509233474731e-01
3.035367727279663086e-01
-1.464405655860900879e-01
1.759863495826721191e-01
-2.443753331899642944e-01
-1.714982986450195312e-01
8.829817175865173340e-02
1.227418184280395508e-01
6.050856113433837891e-01
1.178922280669212341e-01
-3.923072516918182373e-01
-1.258441060781478882e-01
-4.368629679083824158e-02
-3.288037329912185669e-02
1.348275393247604370e-01
-9.219127148389816284e-02
-1.151628140360116959e-02
1.689867526292800903e-01
1.135823011398315430e+00
5.724703073501586914e-01
-1.118754148483276367e-01
-4.319744408130645752e-01
6.726149916648864746e-01
4.276536107063293457e-01
-6.854403614997863770e-01
-2.817355655133724213e-02
3.511690497398376465e-01
-5.255686640739440918e-01
1.416048705577850342e-01
-7.458567023277282715e-01
2.718972861766815186e-01
1.661992967128753662e-01
9.394443035125732422e-02
-1.474644690752029419e-01
4.772200286388397217e-01
2.867376506328582764e-01
-2.191976308822631836e-01
-3.278830945491790771e-01
1.217393949627876282e-01
3.345501422882080078e-01
6.130970120429992676e-01
-7.266034483909606934e-01
2.247816155431792140e-04
1.663807183504104614e-01
-3.151475191116333008e-01
-5.008977055549621582e-01
1.383255571126937866e-01
-4.277499318122863770e-01
-1.321801245212554932e-01
-5.862141847610473633e-01
-3.742151856422424316e-01
7.484651207923889160e-01
-2.681601047515869141e-01
-8.410731703042984009e-02
3.430280387401580811e-01
3.371599689126014709e-02
-7.241522073745727539e-01
-5.759801715612411499e-02
1.098838329315185547e+00
-4.967331141233444214e-02
3.266881406307220459e-01
-3.083584308624267578e-01
1.274370551109313965e-01
-1.459793299436569214e-01
2.381664365530014038e-01
-6.155923381447792053e-02
-2.337593138217926025e-01
-5.399636626243591309e-01
4.706919491291046143e-01
4.182646423578262329e-02
1.172131821513175964e-01
6.065855622291564941e-01
4.632391035556793213e-01
-1.395522356033325195e-01
-5.099103227257728577e-02
2.975388057529926300e-02
1.134443759918212891e+00
-4.153475761413574219e-01
-1.582314372062683105e-01
8.506862521171569824e-01
3.595118820667266846e-01
-3.569940850138664246e-02
3.479401469230651855e-01
2.073398381471633911e-01
1.796675175428390503e-01
2.434157431125640869e-01
-2.880730926990509033e-01
2.771749198436737061e-01
-2.855404913425445557e-01
-2.799246311187744141e-01
-6.540117263793945312e-01
2.488579973578453064e-02
-1.550940722227096558e-01
-2.943183779716491699e-01
2.104929238557815552e-01
7.085273414850234985e-02
1.229933276772499084e-01
-9.216561913490295410e-02
4.621909186244010925e-02
8.521998673677444458e-02
-2.703747153282165527e-01
1.316723227500915527e-01
2.077624648809432983e-01
8.691283315420150757e-02
-2.729392349720001221e-01
2.217052578926086426e-01
8.734074980020523071e-02
-1.232110410928726196e-01
-2.482432126998901367e-02
-3.014331161975860596e-01
2.342860400676727295e-01
-6.265711188316345215e-01
-9.239523112773895264e-02
2.226743102073669434e-01
-9.630598872900009155e-02
2.382776588201522827e-01
-3.723029792308807373e-01
-9.690601378679275513e-02
4.071697592735290527e-01
1.902217417955398560e-01
1.402625814080238342e-02
-1.460044085979461670e-01
5.448083579540252686e-02
-7.841501235961914062e-01
-7.676281929016113281e-01
3.694403171539306641e-01
-2.163083106279373169e-02
-1.128211855888366699e+00
1.820238679647445679e-01
-3.788586258888244629e-01
7.511810958385467529e-02
-5.128970146179199219e-01
-1.681901365518569946e-01
-1.892626136541366577e-01
4.386864900588989258e-01
8.067224025726318359e-01
-4.263654053211212158e-01
-9.929026961326599121e-01
-7.224473357200622559e-01
-7.607722878456115723e-01
2.006718665361404419e-01
-3.869260251522064209e-01
7.234737277030944824e-02
-5.162475109100341797e-01
-6.551177054643630981e-02
-2.033877819776535034e-01
-1.245755609124898911e-02
1.797247827053070068e-01
-2.958706617355346680e-01
-3.751736879348754883e-01
-4.519847333431243896e-01
-4.375069141387939453e-01
-4.607641100883483887e-01
-5.322835445404052734e-01
-4.382078349590301514e-01
1.493603363633155823e-02
3.114039003849029541e-01
5.523173213005065918e-01
3.529531061649322510e-01
1.099648252129554749e-01
2.627704739570617676e-01
1.389410495758056641e-01
6.063191890716552734e-01
6.023808568716049194e-02
8.559939265251159668e-01
3.025561869144439697e-01
-1.364199072122573853e-01
-3.761103749275207520e-01
-1.398016232997179031e-02
1.735595464706420898e-01
3.039694726467132568e-01
-1.028072014451026917e-01
9.532469511032104492e-02
6.201713085174560547e-01
-1.134263277053833008e-01
3.431330025196075439e-01
-2.264979630708694458e-01
2.883096411824226379e-02
-3.609285652637481689e-01
1.944495290517807007e-01
6.999822258949279785e-01
-3.017736971378326416e-02
-3.432222604751586914e-01
-1.047799214720726013e-01
5.123730301856994629e-01
-6.137226819992065430e-01
4.423289597034454346e-01
-2.109287530183792114e-01
-3.003441393375396729e-01
2.229247093200683594e-01
3.809695243835449219e-01
-5.787785053253173828e-01
-4.905372560024261475e-01
-1.903221942484378815e-02
4.606978297233581543e-01
-7.755697965621948242e-01
-4.550585746765136719e-01
-3.539041876792907715e-01
-2.033920437097549438e-01
5.638841390609741211e-01
-1.389255404472351074e+00
-7.742924690246582031e-01
3.125693798065185547e-01
3.301608264446258545e-01
1.396490186452865601e-01
5.866950005292892456e-02
4.300537109375000000e-01
3.107532262802124023e-01
3.116182386875152588e-01
6.384926289319992065e-02
6.439464688301086426e-01
5.988483130931854248e-02
-1.151024997234344482e-01
1.559089571237564087e-01
2.375747412443161011e-01
-5.108959674835205078e-01
6.072365641593933105e-01
-2.086657434701919556e-01
-4.075373113155364990e-01
-1.602862924337387085e-01
-3.456448912620544434e-01
-4.045143723487854004e-01
6.933024525642395020e-01
-2.002874854952096939e-03
3.411388695240020752e-01
5.142940953373908997e-02
-1.255411952733993530e-01
-8.978985995054244995e-02
-8.380873501300811768e-02
-3.081678748130798340e-01
1.986570060253143311e-01
-9.090375900268554688e-02
-1.812747716903686523e-01
-3.849901854991912842e-01
4.092880487442016602e-01
-2.906011641025543213e-01
1.668911278247833252e-01
-1.755955517292022705e-01
-6.843822542577981949e-03
-1.285240948200225830e-01
-5.534293502569198608e-02
-3.332073092460632324e-01
8.079902082681655884e-02
5.049955844879150391e-01
-5.553069114685058594e-01
-4.492237567901611328e-01
2.075677067041397095e-01
3.193123936653137207e-01
1.307985484600067139e-01
-6.203636527061462402e-01
-3.409368097782135010e-01
-9.342520236968994141e-01
-1.598455607891082764e-01
1.708769053220748901e-01
-1.859281808137893677e-01
-4.504478573799133301e-01
3.864922821521759033e-01
-1.711014807224273682e-01
4.284084960818290710e-02
-8.815563917160034180e-01
-5.168956518173217773e-01
-2.019057571887969971e-01
-1.097583994269371033e-01
-5.274390578269958496e-01
-6.482652425765991211e-01
3.558713793754577637e-01
-1.902914345264434814e-01
-2.442365288734436035e-01
-1.205612495541572571e-01
-5.032528042793273926e-01
-1.616099476814270020e-01
8.048455715179443359e-01
-9.879174828529357910e-02
-1.542536020278930664e-01
1.525093056261539459e-02
2.960817217826843262e-01
-2.347950264811515808e-02
3.360024094581604004e-02
-2.327006012201309204e-01
-3.692167345434427261e-03
7.738336920738220215e-01
-1.890423148870468140e-01
-4.417277872562408447e-01
-4.781488701701164246e-02
7.886642962694168091e-02
-2.700396776199340820e-01
3.438826799392700195e-01
-1.492698397487401962e-02
-1.045682653784751892e-01
-1.005992144346237183e-01
-1.840463257394731045e-03
-2.219277471303939819e-01
-4.507684707641601562e-01
-3.005635142326354980e-01
2.264139205217361450e-01
5.605789273977279663e-02
-5.042002201080322266e-01
-1.132601857185363770e+00
2.507840096950531006e-01
-1.299427628517150879e+00
1.111690402030944824e+00
-2.495261132717132568e-01
2.365501224994659424e-01
-1.490876823663711548e-01
1.769810356199741364e-02
3.150492012500762939e-01
-2.249497920274734497e-01
-3.738544881343841553e-02
-4.118383228778839111e-01
-2.696823775768280029e-01
2.548997104167938232e-01
4.254633784294128418e-01
-7.047642022371292114e-02
-8.315288424491882324e-01
1.492503136396408081e-01
1.029155969619750977e+00
-1.201266236603260040e-02
1.912899762392044067e-01
-1.800709776580333710e-02
3.395004570484161377e-01
8.059163689613342285e-01
1.706618070602416992e-01
-7.101771235466003418e-01
-8.571576327085494995e-02
9.297746419906616211e-02
-2.934468984603881836e-01
-1.014860749244689941e+00
1.663735359907150269e-01
-5.833747386932373047e-01
1.493298560380935669e-01
-9.201152920722961426e-01
-1.411499619483947754e+00
-7.248951792716979980e-01
9.714464545249938965e-01
9.689528346061706543e-01
-3.380990922451019287e-01
1.913124620914459229e-01
5.531828999519348145e-01
4.801934957504272461e-01
-1.260593056678771973e+00
3.236194550991058350e-01
1.029171198606491089e-01
5.874201059341430664e-01
-8.446109890937805176e-01
-2.096749693155288696e-01
3.660719692707061768e-01
1.831896454095840454e-01
9.728291630744934082e-02
3.993880152702331543e-01
8.068242073059082031e-01
5.096465945243835449e-01
-1.943970918655395508e-01
-3.673832118511199951e-01
9.507814049720764160e-02
-5.605788230895996094e-01
-2.424621731042861938e-01
-2.397592812776565552e-01
-6.077497601509094238e-01
4.046927690505981445e-01
-4.140608906745910645e-01
-5.381534099578857422e-01
-1.043969467282295227e-01
4.594693779945373535e-01
-3.443070650100708008e-01
4.199037253856658936e-01
3.578918753191828728e-03
-9.538669884204864502e-02
4.145093560218811035e-01
4.863533005118370056e-02
5.814328193664550781e-01
1.463796347379684448e-01
-6.928777098655700684e-01
-7.819762825965881348e-01
5.935715511441230774e-02
-1.110776811838150024e-01
-5.218182206153869629e-01
-3.973186314105987549e-01
3.413562774658203125e-01
2.248876839876174927e-01
-4.668886661529541016e-01
-2.074749320745468140e-01
-4.156870841979980469e-01
3.399501740932464600e-01
-1.051060914993286133e+00
4.353120625019073486e-01
8.307707309722900391e-02
-3.280832469463348389e-01
-4.373102486133575439e-01
2.852414920926094055e-02
-1.200801655650138855e-01
-1.431695669889450073e-01
1.158858016133308411e-01
3.326569497585296631e-01
-8.972954005002975464e-02
-2.844143807888031006e-01
1.667746454477310181e-01
4.837246537208557129e-01
-1.535440087318420410e-01
1.998879611492156982e-01
1.452391147613525391e-01
2.949572354555130005e-02
-8.083069920539855957e-01
2.688085436820983887e-01
1.291385293006896973e-01
2.931525409221649170e-01
-7.853712886571884155e-02
1.364271640777587891e-01
8.623690009117126465e-01
-4.990724846720695496e-02
1.015209257602691650e-01
1.009103935211896896e-02
-3.264163136482238770e-01
-5.218474194407463074e-02
2.565389275550842285e-01
3.660037517547607422e-01
1.325956732034683228e-01
7.533014565706253052e-02
-2.874811887741088867e-01
-2.101585641503334045e-02
2.289055585861206055e-01
3.436790704727172852e-01
-1.720722168684005737e-01
-7.179130911827087402e-01
1.822316050529479980e-01
3.530389070510864258e-01
-5.917201191186904907e-02
-3.606552779674530029e-01
-5.771761536598205566e-01
2.578988373279571533e-01
7.867946028709411621e-01
-2.507529854774475098e-01
2.087661623954772949e-01
1.111739203333854675e-01
-6.430800259113311768e-02
-2.922930717468261719e-01
-4.700869023799896240e-01
-3.898096382617950439e-01
-3.734641671180725098e-01
6.807597279548645020e-01
-4.922527074813842773e-01
-3.489910066127777100e-01
-9.527717828750610352e-01
-7.777037620544433594e-01
-1.135694608092308044e-01
6.056517958641052246e-01
1.450754255056381226e-01
-5.746449828147888184e-01
3.260546922683715820e-02
-3.252238780260086060e-02
7.056097388267517090e-01
2.755858600139617920e-01
2.405818104743957520e-01
-3.252396360039710999e-02
5.956367850303649902e-01
6.149203777313232422e-01
5.996502563357353210e-02
-1.934366375207901001e-01
3.204682767391204834e-01
3.026329278945922852e-01
1.312387585639953613e-01
1.241504922509193420e-01
-7.954645156860351562e-02
-1.127348184585571289e+00
1.098569557070732117e-01
-1.278948932886123657e-01
3.889628648757934570e-01
3.791820108890533447e-01
-2.314998656511306763e-01
-1.151781249791383743e-02
-1.052203059196472168e+00
-3.215911090373992920e-01
-1.881249099969863892e-01
-5.419653654098510742e-01
1.796752214431762695e-02
-6.847538948059082031e-01
-2.246629595756530762e-01
-1.606859266757965088e-02
-2.804214358329772949e-01
4.971334934234619141e-01
4.498730003833770752e-01
-1.923393756151199341e-01
2.724280357360839844e-01
2.927218675613403320e-01
1.887937486171722412e-01
7.500417828559875488e-01
3.662938177585601807e-01
1.173842325806617737e-01
1.235049664974212646e-01
8.282931447029113770e-01
1.936651468276977539e-01
4.965258538722991943e-01
1.509675085544586182e-01
8.000636100769042969e-02
7.482963800430297852e-02
5.101308822631835938e-01
-2.439068406820297241e-01
-4.045163393020629883e-01
4.128727316856384277e-01
5.439154058694839478e-02
-9.759235382080078125e-01
-6.275087594985961914e-01
-9.343739598989486694e-02
-3.465740084648132324e-01
-2.985914051532745361e-01
-6.343448907136917114e-02
5.981114227324724197e-03
-6.909156441688537598e-01
4.072005450725555420e-01
-3.536477088928222656e-01
-6.419488042593002319e-02
1.888362169265747070e-01
3.618068099021911621e-01
-6.894061565399169922e-01
7.210670411586761475e-02
1.484702080488204956e-01
-7.403098512440919876e-03
-5.487083196640014648e-01
-1.921407282352447510e-01
1.416655480861663818e-01
-1.592024266719818115e-01
-5.017086267471313477e-01
2.285816222429275513e-01
2.397993952035903931e-01
6.227203458547592163e-02
-7.282884120941162109e-01
6.657857447862625122e-02
-3.693275153636932373e-01
4.868435859680175781e-01
-1.804404705762863159e-01
6.124335527420043945e-01
-4.781371355056762695e-01
-7.944269180297851562e-01
6.416126489639282227e-01
-1.526311278343200684e+00
6.746327280998229980e-01
2.505038976669311523e-01
-5.751797556877136230e-01
-3.171107769012451172e-01
7.868703454732894897e-02
1.611814349889755249e-01
4.079319536685943604e-01
-4.150524735450744629e-01
-3.654100298881530762e-01
-2.295835763216018677e-01
1.995277553796768188e-01
-6.049882173538208008e-01
-2.659177184104919434e-01
-6.805589795112609863e-02
3.791206702589988708e-02
-4.313725531101226807e-01
-6.934908032417297363e-02
2.329445481300354004e-01
5.189393162727355957e-01
-4.119367301464080811e-01
-1.291398555040359497e-01
3.321026563644409180e-01
-1.049438584595918655e-02
2.378933429718017578e-01
-6.548661589622497559e-01
4.273112118244171143e-01
7.585118412971496582e-01
-2.380829155445098877e-01
1.819100826978683472e-01
2.129971981048583984e-01
-1.089837551116943359e+00
1.122482195496559143e-01
1.693384796380996704e-01
-3.796143531799316406e-01
-1.959417104721069336e+00
-4.759181141853332520e-01
5.838732123374938965e-01
2.975867986679077148e-01
-1.687913574278354645e-02
8.882389068603515625e-01
1.088052988052368164e-01
-4.727651774883270264e-01
4.211509972810745239e-02
-4.710593223571777344e-01
-5.848561525344848633e-01
-9.554383158683776855e-02
5.598924756050109863e-01
1.103511080145835876e-01
4.393486380577087402e-01
5.763185620307922363e-01
8.527617454528808594e-01
2.208092361688613892e-01
-5.962343811988830566e-01
6.676608324050903320e-01
-2.730332314968109131e-01
-2.709929645061492920e-02
2.740215975791215897e-03
-9.914807230234146118e-02
-3.883743286132812500e-01
4.013215377926826477e-02
-4.096060991287231445e-01
2.949776053428649902e-01
-1.517167985439300537e-01
-6.505796313285827637e-01
-6.418617814779281616e-02
-9.810160845518112183e-02
4.484515190124511719e-01
-3.407810330390930176e-01
-2.250769734382629395e-01
6.432102918624877930e-01
7.555142045021057129e-01
-2.926897108554840088e-01
-1.462118774652481079e-01
-3.746872544288635254e-01
2.971102483570575714e-02
-4.467494487762451172e-01
-5.653250217437744141e-01
9.771717339754104614e-02
1.404898017644882202e-01
1.561326384544372559e-01
9.053295850753784180e-02
-1.050701811909675598e-01
2.430305071175098419e-02
3.657363653182983398e-01
1.273385137319564819e-01
9.262803010642528534e-03
1.568705439567565918e-01
4.694429039955139160e-02
3.766932785511016846e-01
5.189920961856842041e-02
-2.590663544833660126e-02
1.601700484752655029e-01
-1.494894176721572876e-01
2.781376242637634277e-01
4.366123974323272705e-01
6.997913122177124023e-03
-1.783411204814910889e-01
-1.549228578805923462e-01
3.768895864486694336e-01
-1.454862300306558609e-02
-5.916210636496543884e-02
-1.171742320060729980e+00
2.535431683063507080e-01
-4.654316902160644531e-01
6.037229299545288086e-02
-4.013215899467468262e-01
-1.090847775340080261e-01
6.403471231460571289e-01
7.091650366783142090e-01
-1.254012465476989746e+00
-6.501709818840026855e-01
-8.103200197219848633e-01
3.067037165164947510e-01
-1.490894556045532227e-01
7.795598506927490234e-01
5.087783932685852051e-01
4.767973124980926514e-01
-2.320809960365295410e-01
1.028095841407775879e+00
2.659800052642822266e-01
-1.264555603265762329e-01
-3.876743614673614502e-01
-8.790822029113769531e-01
-1.411806344985961914e-01
-2.679108083248138428e-01
3.898462355136871338e-01
3.875328004360198975e-01
-6.781019568443298340e-01
-2.628496885299682617e-01
4.550943076610565186e-01
-1.577556133270263672e-01
3.677184581756591797e-01
1.476585745811462402e+00
-1.669946312904357910e-01
3.888048231601715088e-02
-5.094221979379653931e-02
-2.816703915596008301e-01
7.044902443885803223e-02
-4.229536056518554688e-01
1.226600110530853271e-01
-5.897846817970275879e-01
5.293706655502319336e-01
-2.640188336372375488e-01
-1.233225911855697632e-01
3.228672146797180176e-01
3.612371534109115601e-02
-8.090016245841979980e-01
1.057602882385253906e+00
1.358043670654296875e+00
-7.275237441062927246e-01
4.786635041236877441e-01
1.005407929420471191e+00
-3.398106694221496582e-01
1.190276816487312317e-01
-1.102571040391921997e-01
-2.523756921291351318e-01
2.659319154918193817e-02
6.246220320463180542e-02
-8.875054121017456055e-02
-4.882947728037834167e-02
-2.981271445751190186e-01
-2.174658477306365967e-01
-2.344046905636787415e-02
-2.176212370395660400e-01
-4.006609916687011719e-01
-8.801490068435668945e-01
2.071915268898010254e-01
-1.396779417991638184e-01
3.321231529116630554e-02
5.494053289294242859e-02
-1.317481845617294312e-01
-2.339020371437072754e-01
-1.705728322267532349e-01
-3.340404331684112549e-01
-5.326481461524963379e-01
2.409953624010086060e-01
-5.746801570057868958e-02
2.677448391914367676e-01
-1.031768560409545898e+00
9.485993534326553345e-02
-5.155414342880249023e-01
4.388846158981323242e-01
-1.035769283771514893e-01
-1.635084003210067749e-01
-7.615832239389419556e-02
3.363326489925384521e-01
1.266300082206726074e-01
-1.971079260110855103e-01
-6.437177062034606934e-01
-2.311348766088485718e-01
-1.283355802297592163e-01
-2.087141871452331543e-01
-7.817282080650329590e-01
3.757375478744506836e-01
-2.222770303487777710e-01
8.237093091011047363e-01
1.622245311737060547e-01
2.712939679622650146e-01
-1.798870712518692017e-01
1.045663580298423767e-01
-1.222165003418922424e-01
4.636741280555725098e-01
-6.640348434448242188e-01
2.821965813636779785e-01
5.839878320693969727e-01
3.029453456401824951e-01
8.823154121637344360e-02
-5.313611626625061035e-01
1.351172029972076416e-01
-4.408720731735229492e-01
6.380350589752197266e-01
-8.997459709644317627e-02
3.069077432155609131e-01
-4.056172072887420654e-01
-2.495802380144596100e-02
2.988278567790985107e-01
8.480470627546310425e-02
1.269334256649017334e-01
2.757805287837982178e-01
4.105013906955718994e-01
-1.973443478345870972e-01
-1.240096017718315125e-01
5.429713129997253418e-01
-4.692237451672554016e-02
-1.919840425252914429e-01
1.074046939611434937e-01
8.854151964187622070e-01
-2.939302325248718262e-01
1.244562119245529175e-01
-4.019173979759216309e-01
-7.372789978981018066e-01
-4.008917212486267090e-01
2.733725607395172119e-01
9.593204259872436523e-01
-5.697146058082580566e-01
-3.905510902404785156e-01
3.465588092803955078e-01
-4.617273509502410889e-01
-1.139318108558654785e+00
2.380468845367431641e-01
2.660308033227920532e-02
1.818485409021377563e-01
-1.054576277732849121e+00
7.295224070549011230e-01
3.013940155506134033e-01
-3.446763157844543457e-01
3.190374970436096191e-01
-4.290829598903656006e-01
-1.197976544499397278e-01
8.379150629043579102e-01
4.114708006381988525e-01
2.736519873142242432e-01
2.165834754705429077e-01
-3.328950703144073486e-01
3.359582722187042236e-01
1.166466902941465378e-02
7.978525757789611816e-02
3.835141956806182861e-01
2.779261469841003418e-01
-2.673317305743694305e-02
6.014877557754516602e-01
-5.107570439577102661e-02
3.447042405605316162e-01
1.545456703752279282e-02
4.595506191253662109e-01
2.401044368743896484e-01
-1.929745972156524658e-01
2.787534296512603760e-01
1.663838475942611694e-01
-2.948398292064666748e-01
-5.938933491706848145e-01
1.629507988691329956e-01
-1.576279699802398682e-01
-6.808571517467498779e-02
-7.179548591375350952e-02
-1.740121245384216309e-01
-1.242935955524444580e-01
1.846425831317901611e-01
2.179150283336639404e-01
5.212994813919067383e-01
-5.524551868438720703e-02
7.931170463562011719e-01
1.274142414331436157e-01
1.111323758959770203e-02
-3.978378698229789734e-02
3.503675758838653564e-01
-1.340475976467132568e-01
6.869778633117675781e-01
8.759772777557373047e-02
1.835525929927825928e-01
-9.683111310005187988e-01
-1.126772642135620117e+00
1.016336493194103241e-02
-6.545372009277343750e-01
-6.786642670631408691e-01
2.159631252288818359e-01
7.746963948011398315e-02
-1.386946346610784531e-02
-1.273452937602996826e-01
9.876438416540622711e-03
-3.742170035839080811e-01
2.265192568302154541e-01
1.063329815864562988e+00
8.362792730331420898e-01
-2.594068348407745361e-01
1.685937643051147461e-01
1.386439204216003418e-01
6.016565561294555664e-01
-4.193379282951354980e-01
6.309020519256591797e-02
-2.394742071628570557e-01
-2.596391439437866211e-01
-4.019213020801544189e-01
-1.749523431062698364e-01
2.560866773128509521e-01
3.072001338005065918e-01
4.505800902843475342e-01
1.167165189981460571e-01
3.631483614444732666e-01
2.252574712038040161e-01
-9.461798518896102905e-02
-8.042719960212707520e-01
7.219560444355010986e-02
1.967934966087341309e-01
-9.841363131999969482e-02
-8.920627832412719727e-01
-2.648126780986785889e-01
-4.912019968032836914e-01
-3.170576095581054688e-01
-8.473990857601165771e-02
-4.248208925127983093e-02
-3.128519356250762939e-01
-4.282638430595397949e-01
-2.942292392253875732e-01
-1.926431655883789062e-01
-3.838271498680114746e-01
-6.931309700012207031e-01
2.836921513080596924e-01
5.687646865844726562e-01
3.241856396198272705e-01
2.594323158264160156e-01
3.937760889530181885e-01
1.169819012284278870e-01
-2.363557070493698120e-01
2.299253046512603760e-01
8.025987148284912109e-01
-1.309185475111007690e-01
3.595370054244995117e-01
5.526059865951538086e-01
-1.117022559046745300e-01
-2.013745754957199097e-01
2.473669797182083130e-01
3.343968093395233154e-01
-3.158096373081207275e-01
-4.042300581932067871e-01
-2.615125775337219238e-01
1.927701383829116821e-01
-2.142685204744338989e-01
-6.974580287933349609e-01
-2.677670419216156006e-01
-1.717856526374816895e+00
6.958905458450317383e-01
-3.897390365600585938e-01
-3.244171142578125000e-01
-6.564701199531555176e-01
2.967477142810821533e-01
-1.108948066830635071e-01
3.841903991997241974e-03
5.089584365487098694e-02
1.015445217490196228e-01
-3.288798630237579346e-01
7.917655259370803833e-02
4.049019142985343933e-02
1.476495414972305298e-01
3.870605826377868652e-01
3.680300116539001465e-01
4.099116474390029907e-02
-3.912262618541717529e-02
2.288194298744201660e-01
2.715017497539520264e-01
2.162591964006423950e-01
-6.372569799423217773e-01
-6.500930190086364746e-01
1.492031812667846680e-01
4.967999458312988281e-02
2.044067233800888062e-01
-8.000028878450393677e-02
-7.439223527908325195e-01
-5.234018564224243164e-01
-1.080420136451721191e+00
-8.484796285629272461e-01
1.607182919979095459e-01
-3.213331699371337891e-01
-8.410206437110900879e-01
-2.165609598159790039e-01
-2.163864970207214355e-01
-9.588311612606048584e-02
2.558051347732543945e-01
-4.480050206184387207e-01
1.902824193239212036e-01
2.098470181226730347e-01
-9.638362377882003784e-02
5.364056676626205444e-02
1.922090351581573486e-01
-1.918653100728988647e-01
-2.399252116447314620e-04
1.013004407286643982e-01
2.332641184329986572e-01
5.462962985038757324e-01
-2.980906069278717041e-01
-2.256273180246353149e-01
-1.107267513871192932e-01
-1.622912883758544922e-01
5.166632533073425293e-01
3.616249263286590576e-01
9.197844266891479492e-01
1.973393559455871582e-01
3.082720637321472168e-01
2.353186160326004028e-02
-2.919471561908721924e-01
-2.904630899429321289e-01
2.406070381402969360e-01
2.229754775762557983e-01
4.821901619434356689e-01
1.557377129793167114e-01
-5.475826859474182129e-01
-2.728126943111419678e-01
-3.844608962535858154e-01
-1.899439282715320587e-02
-5.379488319158554077e-02
-4.194221645593643188e-02
3.383074700832366943e-01
-1.813336610794067383e-01
7.803457975387573242e-01
-1.827732622623443604e-01
3.592001795768737793e-01
1.075586751103401184e-01
-5.054285526275634766e-01
-2.774375379085540771e-01
3.509002625942230225e-01
2.223431617021560669e-01
-8.317128568887710571e-02
1.713212877511978149e-01
4.340851008892059326e-01
2.494099438190460205e-01
1.332242041826248169e-01
4.934052824974060059e-01
5.505969375371932983e-02
4.541521072387695312e-01
-1.324182003736495972e-01
3.233719244599342346e-02
1.386618055403232574e-02
2.569875419139862061e-01
-2.166015356779098511e-01
3.336253762245178223e-01
4.787302911281585693e-01
-2.545226216316223145e-01
2.034768164157867432e-01
3.341431617736816406e-01
-2.481705397367477417e-01
-5.430161356925964355e-01
3.134896978735923767e-02
-3.316531181335449219e-01
-4.921084046363830566e-01
-7.938442379236221313e-02
9.211066365242004395e-02
-3.284420073032379150e-01
-3.012707829475402832e-01
1.482622027397155762e-01
6.401339769363403320e-01
3.702224791049957275e-01
4.145102202892303467e-01
-3.964954316616058350e-01
-9.743109345436096191e-02
4.296564459800720215e-01
3.564530014991760254e-01
-1.868693232536315918e-01
-3.634287118911743164e-01
4.434748366475105286e-02
9.552427567541599274e-03
-5.249501205980777740e-03
-6.682583689689636230e-01
-1.800637096166610718e-01
1.497439593076705933e-01
-7.030256837606430054e-02
4.180565774440765381e-01
-6.492616534233093262e-01
-8.966112136840820312e-02
7.289753109216690063e-02
1.414188593626022339e-01
-3.551431894302368164e-01
2.271776050329208374e-01
-3.886362910270690918e-01
1.251335442066192627e-01
5.676621198654174805e-01
2.670406103134155273e-01
1.372721791267395020e-01
3.217790424823760986e-01
2.021718919277191162e-01
-4.717344045639038086e-01
-2.832719683647155762e-01
-4.807221591472625732e-01
-9.708400368690490723e-01
1.089932024478912354e-01
2.430600970983505249e-01
1.370886564254760742e-01
1.199998781085014343e-01
-1.932392269372940063e-01
-1.698501557111740112e-01
3.662036657333374023e-01
4.426043629646301270e-01
-6.350088119506835938e-02
1.810447126626968384e-01
-8.198451250791549683e-02
1.695394515991210938e-01
9.314750134944915771e-02
2.898374795913696289e-01
9.647465497255325317e-02
2.298034280538558960e-01
3.703793883323669434e-01
-2.154687494039535522e-01
2.039825022220611572e-01
3.819325268268585205e-01
2.475974559783935547e-01
4.470236599445343018e-01
3.373584747314453125e-01
-3.012527525424957275e-01
8.120259642601013184e-01
3.872230052947998047e-01
2.148611992597579956e-01
-2.609138488769531250e-01
6.774517893791198730e-01
-3.005222417414188385e-02
-3.531201183795928955e-01
-1.015627309679985046e-01
-1.316701471805572510e-01
-1.833940297365188599e-01
-1.288406252861022949e-01
2.044567316770553589e-01
-1.564232259988784790e-01
-2.431778609752655029e-01
-1.391551643610000610e-01
2.519332766532897949e-01
7.472845911979675293e-02
1.907428354024887085e-01
-1.565474867820739746e-01
3.582555055618286133e-01
-4.744265675544738770e-01
2.536437241360545158e-03
8.098927140235900879e-01
1.129649400711059570e+00
-4.097323492169380188e-02
5.211307667195796967e-03
7.434106431901454926e-03
2.755573093891143799e-01
1.083017438650131226e-01
5.546826869249343872e-02
-4.984852969646453857e-01
-8.432055115699768066e-01
2.872392535209655762e-01
4.200477004051208496e-01
-1.986800134181976318e-01
9.062270075082778931e-02
-8.171892762184143066e-01
2.626491189002990723e-01
-2.257922887802124023e-01
-1.060836315155029297e+00
-5.608737468719482422e-01
-2.482835352420806885e-01
-6.714031100273132324e-01
5.935896039009094238e-01
7.801227569580078125e-01
-2.271959483623504639e-01
-3.739566206932067871e-01
-9.358123689889907837e-02
-1.879608035087585449e-01
-7.464939951896667480e-01
1.674607247114181519e-01
-2.878134846687316895e-01
2.384090982377529144e-02
-2.463850528001785278e-01
2.464481592178344727e-01
5.736886262893676758e-01
-4.915210902690887451e-01
-7.806847095489501953e-01
-1.106313109397888184e+00
-2.935172617435455322e-01
-7.784394621849060059e-01
-2.104481011629104614e-01
7.590992003679275513e-02
5.237603187561035156e-01
-7.848236560821533203e-01
6.624802350997924805e-01
1.010930895805358887e+00
-6.462067961692810059e-01
5.589819326996803284e-02
-2.859579026699066162e-01
5.522234439849853516e-01
-7.538028359413146973e-01
-3.269845545291900635e-01
3.121684193611145020e-01
1.865242868661880493e-01
-4.107871279120445251e-02
6.244404315948486328e-01
-9.344965964555740356e-02
-3.399759531021118164e-01
-5.591782927513122559e-01
2.933577597141265869e-01
-3.112646043300628662e-01
4.083974063396453857e-01
3.243954181671142578e-01
4.163726270198822021e-01
5.817332863807678223e-01
5.361647009849548340e-01
1.969810426235198975e-01
-1.774092316627502441e-01
1.712050586938858032e-01
-1.314789652824401855e-01
-2.765750288963317871e-01
-1.008837372064590454e-01
-1.928445547819137573e-01
-1.873568296432495117e-01
-5.227553844451904297e-01
3.736120881512761116e-03
3.437098562717437744e-01
4.905579984188079834e-01
3.656246066093444824e-01
-2.659950554370880127e-01
-1.800525188446044922e-02
-2.410317808389663696e-01
-1.256023198366165161e-01
3.494382137432694435e-03
-3.524452745914459229e-01
-3.143423199653625488e-01
-2.753260135650634766e-01
2.248260825872421265e-01
6.531602889299392700e-02
1.001309752464294434e-01
3.409036397933959961e-01
-1.293454021215438843e-01
1.694689244031906128e-01
4.453326165676116943e-01
1.264701485633850098e-01
-6.555801033973693848e-01
-3.524475693702697754e-01
1.492853611707687378e-01
-3.904281556606292725e-01
-4.207968115806579590e-01
3.126642107963562012e-01
7.211732864379882812e-02
-1.216311752796173096e-01
5.510917305946350098e-01
3.172234296798706055e-01
7.249052822589874268e-02
4.807093441486358643e-01
1.021865829825401306e-01
1.101664751768112183e-01
-4.782235920429229736e-01
2.980354428291320801e-01
-2.018541991710662842e-01
-4.961282312870025635e-01
3.884930014610290527e-01
-3.048788607120513916e-01
4.023617804050445557e-01
4.927010834217071533e-02
2.210525572299957275e-01
5.073115229606628418e-01
8.115547299385070801e-01
1.170755505561828613e+00
-3.240790367126464844e-01
-5.583071112632751465e-01
-4.097338020801544189e-01
1.341061759740114212e-02
2.225251048803329468e-01
-4.982540011405944824e-02
-2.734457552433013916e-01
-2.268490009009838104e-02
4.412916898727416992e-01
-7.432862371206283569e-02
1.074866726994514465e-01
1.381753291934728622e-02
5.751812458038330078e-01
1.316867768764495850e-01
-1.961452364921569824e-01
1.180213809013366699e+00
5.518412217497825623e-02
-1.348448246717453003e-01
-6.992985308170318604e-02
2.065508067607879639e-01
3.502909243106842041e-01
-6.286141276359558105e-01
4.588973522186279297e-01
2.359921336174011230e-01
-1.022199839353561401e-01
5.441982671618461609e-02
4.179247319698333740e-01
-3.131462037563323975e-01
3.647321462631225586e-01
2.244137674570083618e-01
4.507972300052642822e-01
-5.557689070701599121e-01
-3.703365325927734375e-01
-7.998159527778625488e-01
-7.000216841697692871e-02
-5.891839861869812012e-01
-5.591208487749099731e-02
7.810369729995727539e-01
7.074866294860839844e-01
-5.992789864540100098e-01
-2.062095552682876587e-01
-5.641253665089607239e-02
-2.633918635547161102e-02
5.716746672987937927e-02
2.724013328552246094e-01
-1.327529251575469971e-01
-6.149486303329467773e-01
-9.360682964324951172e-02
6.434742808341979980e-01
3.824959099292755127e-01
-1.082581639289855957e+00
-2.121276408433914185e-01
-5.218628644943237305e-01
-1.088328123092651367e+00
-1.651742607355117798e-01
3.350444734096527100e-01
-3.233894407749176025e-01
1.249879077076911926e-01
4.206961020827293396e-02
3.886071741580963135e-01
-9.407835453748703003e-02
-9.201240539550781250e-02
2.242210656404495239e-01
6.603741049766540527e-01
1.802259236574172974e-01
-1.523969620466232300e-01
3.011094033718109131e-01
1.705485582351684570e-01
-7.003378868103027344e-01
-1.928465366363525391e-01
-6.556085497140884399e-02
6.575154066085815430e-01
2.254322767257690430e-01
-2.391100227832794189e-01
-2.074246108531951904e-01
1.742119491100311279e-01
2.802222371101379395e-01
3.067732751369476318e-01
-5.716682970523834229e-02
-2.505108416080474854e-01
3.118532299995422363e-01
6.076446771621704102e-01
1.654032319784164429e-01
3.337370753288269043e-01
1.357254981994628906e-01
-5.994107723236083984e-01
-2.526699602603912354e-01
6.027367115020751953e-01
-2.084136456251144409e-01
-4.504597783088684082e-01
-4.674396812915802002e-01
-4.545207619667053223e-01
3.819837793707847595e-02
4.706128835678100586e-01
5.906755104660987854e-02
-9.206399321556091309e-01
-4.521715641021728516e-01
-1.512858271598815918e-01
-2.979779839515686035e-01
1.066736578941345215e-01
-3.106708824634552002e-01
-5.080828666687011719e-01
5.459277033805847168e-01
2.428282201290130615e-01
4.632028043270111084e-01
-4.003911018371582031e-01
1.384747177362442017e-01
3.989855647087097168e-01
3.148630559444427490e-01
-2.110224366188049316e-01
3.896250724792480469e-01
4.016270637512207031e-01
4.537919163703918457e-01
2.786979079246520996e-01
8.034453988075256348e-01
8.078837394714355469e-01
5.412147045135498047e-01
-2.281385362148284912e-01
-7.201110720634460449e-01
1.242146134376525879e+00
6.725323945283889771e-02
2.065190523862838745e-01
-6.873455643653869629e-02
1.441016942262649536e-01
8.679177165031433105e-01
6.733605265617370605e-01
-4.311336278915405273e-01
2.766451537609100342e-01
3.467874825000762939e-01
-6.488957256078720093e-02
5.803194046020507812e-01
1.539628654718399048e-01
4.218662977218627930e-01
-7.558377385139465332e-01
1.203996911644935608e-01
2.797491252422332764e-01
-1.085386499762535095e-01
6.591216921806335449e-01
5.796816349029541016e-01
7.433243989944458008e-01
5.437820553779602051e-01
-1.153991460800170898e+00
-7.027095556259155273e-01
2.851846162229776382e-03
-7.881494760513305664e-01
-6.752669811248779297e-01
4.444458186626434326e-01
-1.478510051965713501e-01
-2.364395856857299805e-01
8.505301475524902344e-01
1.706335544586181641e-01
-2.057275623083114624e-01
-2.907236814498901367e-01
-1.448845565319061279e-01
-8.582676202058792114e-02
2.332948148250579834e-01
-3.102414906024932861e-01
-2.848242521286010742e-01
6.109454631805419922e-01
-3.966490030288696289e-01
1.273192167282104492e+00
3.990774750709533691e-01
5.534555912017822266e-01
3.022207617759704590e-01
3.330311477184295654e-01
2.182679437100887299e-02
-1.488640308380126953e-01
1.104368329048156738e+00
-1.655204594135284424e-01
4.805262088775634766e-01
2.086188197135925293e-01
-2.214432060718536377e-01
-6.219141930341720581e-02
4.142670631408691406e-01
-1.140814423561096191e-01
-3.212407231330871582e-01
-2.652455270290374756e-01
-2.703089118003845215e-01
2.425101101398468018e-01
-2.274391651153564453e-01
2.202197611331939697e-01
-1.572777777910232544e-01
5.045070052146911621e-01
1.160770535469055176e+00
9.141503274440765381e-02
-6.608856469392776489e-02
-2.157959491014480591e-01
-2.779581546783447266e-01
-7.444087266921997070e-01
-2.193184942007064819e-01
-8.480167984962463379e-01
-4.870520830154418945e-01
-7.221957445144653320e-01
-4.844969809055328369e-01
-2.294211536645889282e-01
-1.168019771575927734e+00
-6.323499679565429688e-01
-3.153337538242340088e-01
2.206230461597442627e-01
-3.636242747306823730e-01
8.538866788148880005e-02
-7.184289097785949707e-01
-3.713988363742828369e-01
1.954748183488845825e-01
-6.238507628440856934e-01
4.124235808849334717e-01
-4.681879580020904541e-01
2.758701443672180176e-01
-4.903812110424041748e-01
-3.068275516852736473e-03
-4.781281352043151855e-01
-1.034085005521774292e-01
-1.435665607452392578e+00
-2.862889468669891357e-01
2.314314097166061401e-01
-7.325007915496826172e-01
-1.609138697385787964e-01
-3.018391132354736328e-01
-6.073675155639648438e-01
6.019203662872314453e-01
3.632059097290039062e-01
5.215733051300048828e-01
-7.896011471748352051e-01
-4.493461549282073975e-02
-5.707610398530960083e-02
2.898509800434112549e-01
-8.262647688388824463e-02
2.611324489116668701e-01
2.068598866462707520e-01
5.508520826697349548e-02
-2.743313908576965332e-01
-6.680442690849304199e-01
8.160341531038284302e-03
-2.130200862884521484e-01
4.244958758354187012e-01
-4.467716217041015625e-01
3.636618554592132568e-01
1.509901583194732666e-01
3.373611867427825928e-01
-1.422033309936523438e-01
4.392775893211364746e-02
-1.589826643466949463e-01
2.421325296163558960e-01
-9.440162777900695801e-02
4.587837457656860352e-01
6.797777861356735229e-02
3.310624957084655762e-01
-1.312905848026275635e-01
-3.866616785526275635e-01
1.829454600811004639e-01
-2.164358198642730713e-01
-5.396940708160400391e-01
4.858691245317459106e-02
4.013308584690093994e-01
4.789552390575408936e-01
6.930916309356689453e-01
5.436239764094352722e-02
3.306845948100090027e-02
2.075024694204330444e-01
-1.939572691917419434e-01
1.021897140890359879e-02
9.652733802795410156e-01
5.390622615814208984e-01
-2.245939336717128754e-02
-3.500899672508239746e-01
-4.220059812068939209e-01
-5.968499779701232910e-01
-9.422373175621032715e-01
3.660151362419128418e-01
3.782668709754943848e-01
6.820593774318695068e-02
7.184769958257675171e-03
-2.170172035694122314e-01
3.603151738643646240e-01
-4.681468009948730469e-01
-1.648598313331604004e-01
-2.392183840274810791e-01
-4.093870520591735840e-02
-2.823209762573242188e-01
1.863532215356826782e-01
6.737552285194396973e-01
8.693948984146118164e-01
4.498341381549835205e-01
3.405306339263916016e-01
2.507872581481933594e-01
-5.739021673798561096e-02
-5.695004463195800781e-01
2.666809856891632080e-01
7.060030698776245117e-01
1.442727744579315186e-01
-4.728675484657287598e-01
-5.905386209487915039e-01
7.293378710746765137e-01
4.651065766811370850e-01
-2.985403537750244141e-01
3.671690821647644043e-01
6.508989334106445312e-01
-4.406037628650665283e-01
-8.079032897949218750e-01
-2.760432194918394089e-03
1.954958885908126831e-01
-2.121407836675643921e-01
-6.997017860412597656e-01
-1.961447447538375854e-01
-1.762255877256393433e-01
-3.072334453463554382e-03
-1.103970110416412354e-01
7.434045076370239258e-01
-1.187021732330322266e-01
-6.435740739107131958e-02
8.777107000350952148e-01
5.324444174766540527e-01
5.406728386878967285e-01
4.845084249973297119e-01
5.414701700210571289e-01
2.572707831859588623e-01
4.041804969310760498e-01
-2.231780439615249634e-01
-6.695718318223953247e-02
-2.246440947055816650e-01
-5.606018304824829102e-01
-1.957166343927383423e-01
5.932309031486511230e-01
-4.781306385993957520e-01
6.686890125274658203e-02
-5.944941043853759766e-01
4.540891349315643311e-01
-7.334086298942565918e-02
6.325662136077880859e-01
-1.393451243638992310e-01
3.355699777603149414e-02
2.763066254556179047e-02
2.439379990100860596e-01
-1.449954789131879807e-02
1.915154047310352325e-02
9.545668214559555054e-02
4.459564983844757080e-01
-4.238055348396301270e-01
-4.287558495998382568e-01
-3.290406465530395508e-01
3.319130539894104004e-01
-5.842309594154357910e-01
-4.776343703269958496e-01
9.582654573023319244e-03
1.772584170103073120e-01
-5.533643364906311035e-01
-1.110497042536735535e-01
5.119886994361877441e-01
1.322029083967208862e-01
4.477540552616119385e-01
2.488197237253189087e-01
6.182816028594970703e-01
-3.233907818794250488e-01
1.030167713761329651e-01
-1.014432072639465332e+00
1.158523678779602051e+00
-1.566280052065849304e-02
-2.212966233491897583e-01
6.272725462913513184e-01
3.577164411544799805e-01
-1.117131933569908142e-01
1.573083102703094482e-01
2.016368955373764038e-01
2.249605953693389893e-01
-2.597486674785614014e-01
-3.698693215847015381e-01
-3.259430825710296631e-01
-2.453267723321914673e-01
-7.793568968772888184e-01
-6.951553225517272949e-01
4.524326026439666748e-01
1.900115907192230225e-01
1.837642788887023926e-01
1.552523970603942871e-01
-2.043408900499343872e-01
-4.844570755958557129e-01
2.989763319492340088e-01
-2.505442798137664795e-01
-4.487314224243164062e-01
-5.375907197594642639e-02
-1.079363524913787842e-01
7.772477865219116211e-01
-3.782527446746826172e-01
-3.789732977747917175e-02
1.688451915979385376e-01
2.497283369302749634e-01
6.011875271797180176e-01
-1.165338754653930664e-01
6.244874596595764160e-01
7.835364341735839844e-01
7.157588005065917969e-01
3.170166909694671631e-01
-3.656826317310333252e-01
-5.475910305976867676e-01
-2.657357156276702881e-01
8.322324752807617188e-01
-3.447082340717315674e-01
1.127118542790412903e-01
-7.115714997053146362e-02
-4.835968017578125000e-01
5.829214453697204590e-01
1.095621228218078613e+00
-7.143900394439697266e-01
-9.014587998390197754e-01
-7.394905090332031250e-01
-4.211348295211791992e-01
-4.576056897640228271e-01
-1.003550529479980469e+00
4.393027722835540771e-02
-2.937103211879730225e-01
-7.363348603248596191e-01
6.500973701477050781e-01
2.099326401948928833e-01
1.723156869411468506e-01
-1.007691502571105957e+00
-1.621059477329254150e-01
-4.245782792568206787e-01
2.996917963027954102e-01
-1.572842150926589966e-01
2.429975718259811401e-01
-1.998646110296249390e-01
6.209543347358703613e-01
1.027375817298889160e+00
6.886164844036102295e-02
-3.041642010211944580e-01
5.032565593719482422e-01
4.284909367561340332e-01
-4.982670843601226807e-01
-8.683965355157852173e-02
-5.510606169700622559e-01
9.598556160926818848e-01
-4.517086744308471680e-01
1.870038807392120361e-01
-5.696592330932617188e-01
3.286395668983459473e-01
-6.405431628227233887e-01
3.609652444720268250e-02
-1.920677721500396729e-01
-4.758046865463256836e-01
-9.781755208969116211e-01
-6.690593808889389038e-02
-6.915004849433898926e-01
5.254786834120750427e-02
6.079602241516113281e-01
-3.515776991844177246e-02
-1.457889378070831299e-01
-6.303431838750839233e-02
-1.438166946172714233e-01
-2.478637993335723877e-01
4.046072363853454590e-01
1.918112188577651978e-01
-7.296037077903747559e-01
4.380893427878618240e-03
1.211759299039840698e-01
8.491802215576171875e-02
-1.230744242668151855e+00
-1.118723154067993164e+00
-3.542786538600921631e-01
5.316871404647827148e-01
-1.377195715904235840e-01
-7.298592925071716309e-01
-2.975668907165527344e-01
1.196885555982589722e-01
-7.293464243412017822e-02
1.018768697977066040e-01
-1.104215085506439209e-01
-1.107557043433189392e-01
-1.835491508245468140e-01
-1.064449071884155273e+00
-6.841549277305603027e-01
6.769228726625442505e-02
1.016538590192794800e-02
7.454219460487365723e-01
-2.418386042118072510e-01
5.316668190062046051e-03
4.456470906734466553e-01
1.124179139733314514e-01
4.897825792431831360e-02
-5.518422126770019531e-01
-1.314937919378280640e-01
1.008685082197189331e-01
1.228957530111074448e-02
-4.168798327445983887e-01
5.351589620113372803e-02
-3.607706427574157715e-01
-4.556040167808532715e-01
5.297855734825134277e-01
2.284496873617172241e-01
4.450792670249938965e-01
1.488060355186462402e-01
-2.431322187185287476e-01
6.338075399398803711e-01
5.625333189964294434e-01
-2.600347995758056641e-01
3.622384965419769287e-01
-1.438736796379089355e+00
3.235889375209808350e-01
-2.615588903427124023e-01
6.512107700109481812e-02
-7.139085531234741211e-01
9.587213397026062012e-02
2.472137510776519775e-01
4.255569279193878174e-01
1.373276710510253906e-01
-4.673589766025543213e-02
3.996010422706604004e-01
-4.197080433368682861e-01
-6.381614804267883301e-01
-7.122831791639328003e-02
-4.745497703552246094e-01
-5.557578206062316895e-01
-1.503592282533645630e-01
2.976625859737396240e-01
-6.583708524703979492e-01
-1.256308436393737793e+00
-9.832316040992736816e-01
-4.655513763427734375e-01
-8.273007273674011230e-01
-1.630696654319763184e+00
-1.824572920799255371e+00
-3.055019080638885498e-01
-7.280115038156509399e-02
6.945231556892395020e-01
-2.250339537858963013e-01
-4.708487093448638916e-01
-3.499610424041748047e-01
1.577090770006179810e-01
-1.629473417997360229e-01
-2.410514503717422485e-01
-2.173516750335693359e-01
-3.845626115798950195e-01
2.147941440343856812e-01
3.546246886253356934e-02
1.272317618131637573e-01
5.603421330451965332e-01
2.202782034873962402e-01
3.206000626087188721e-01
5.986063480377197266e-01
-1.755881756544113159e-01
2.837865352630615234e-01
-2.529695034027099609e-01
-1.926407516002655029e-01
-6.093480437994003296e-02
-2.592812478542327881e-01
-2.337690889835357666e-01
-1.712305247783660889e-01
5.934259295463562012e-01
-1.391976624727249146e-01
1.049933955073356628e-01
2.099165022373199463e-01
-5.022695660591125488e-01
-4.204695522785186768e-01
6.461490988731384277e-01
-1.120429515838623047e+00
1.549993276596069336e+00
-1.759949624538421631e-01
1.362401843070983887e-01
7.502281665802001953e-02
7.119504362344741821e-02
4.484638199210166931e-02
1.851775646209716797e-01
8.724102973937988281e-01
1.607495099306106567e-01
1.939873844385147095e-01
-1.888196766376495361e-01
-8.785834535956382751e-03
-8.823627978563308716e-02
-4.775392711162567139e-01
2.701002657413482666e-01
-6.346746087074279785e-01
6.230468153953552246e-01
-7.132179737091064453e-01
3.885378688573837280e-02
3.182533085346221924e-01
9.326647967100143433e-03
-3.795508295297622681e-02
3.388219177722930908e-01
2.293242812156677246e-01
-2.025787346065044403e-02
-3.110364079475402832e-01
-7.713439874351024628e-03
-1.486238837242126465e-01
1.218980476260185242e-01
-3.087683916091918945e-01
5.133895874023437500e-01
-8.970033377408981323e-02
-2.173664420843124390e-01
-1.060482207685709000e-02
1.460737138986587524e-01
5.606098473072052002e-02
-2.604472041130065918e-01
5.714189633727073669e-02
-2.685274183750152588e-01
4.554866813123226166e-03
3.836651742458343506e-01
-1.209253296256065369e-01
5.061779022216796875e-01
9.482470154762268066e-02
1.440321505069732666e-01
1.861757785081863403e-02
2.351332223042845726e-03
3.144933581352233887e-01
-3.698281645774841309e-01
-1.753519475460052490e-01
6.672914326190948486e-02
3.800947964191436768e-01
-5.617453455924987793e-01
-5.331072807312011719e-01
3.212303519248962402e-01
-2.779074311256408691e-01
9.325590133666992188e-01
1.742797940969467163e-01
-1.124466583132743835e-01
3.378314971923828125e-01
2.154816687107086182e-01
-8.141149282455444336e-01
1.171676814556121826e-01
8.246639966964721680e-01
-6.084840893745422363e-01
-4.393108785152435303e-01
-3.416780382394790649e-02
7.540707588195800781e-01
-4.764743745326995850e-01
2.135130614042282104e-01
3.511637449264526367e-01
3.320384025573730469e-02
6.129474639892578125e-01
5.001004934310913086e-01
-5.632728934288024902e-01
-3.003671467304229736e-01
1.370349526405334473e-01
-1.043398976325988770e-01
2.834943234920501709e-01
-7.117946743965148926e-01
-6.177175641059875488e-01
-1.125473678112030029e-01
4.932195320725440979e-02
1.633978933095932007e-01
-6.184279918670654297e-01
-1.564663834869861603e-02
-2.037555724382400513e-01
-1.504079103469848633e-01
1.174919605255126953e-01
1.467706710100173950e-01
-7.818015813827514648e-01
-1.163004875183105469e+00
-6.339906454086303711e-01
-4.767327010631561279e-01
5.639593005180358887e-01
-9.756405651569366455e-02
-9.596869945526123047e-01
7.933390140533447266e-02
4.054360389709472656e-01
-1.387281417846679688e-01
3.547110259532928467e-01
3.707495629787445068e-01
-4.557116329669952393e-02
-1.031040400266647339e-01
2.730089426040649414e-02
-4.563415646553039551e-01
-1.060381159186363220e-01
-1.183400630950927734e+00
-5.512616634368896484e-01
-2.000855207443237305e-01
-2.026076614856719971e-01
-1.289057284593582153e-01
4.489838778972625732e-01
-7.068774104118347168e-01
-5.833087563514709473e-01
8.853806257247924805e-01
6.796974223107099533e-03
-1.148774743080139160e+00
3.079774379730224609e-01
4.725842773914337158e-01
3.347238004207611084e-01
-5.909111499786376953e-01
-3.844691812992095947e-01
-3.038410544395446777e-01
4.239841997623443604e-01
-7.068617939949035645e-01
3.958155214786529541e-01
-1.470838952809572220e-02
5.938536673784255981e-02
1.176689028739929199e+00
-2.388825118541717529e-01
4.306357204914093018e-01
-6.999031901359558105e-01
1.501279950141906738e+00
-1.226668730378150940e-01
-1.415530145168304443e-01
-9.407920837402343750e-01
3.475836813449859619e-01
-3.516491129994392395e-02
9.597977250814437866e-02
-5.929997563362121582e-01
-1.728465318679809570e+00
-1.936136633157730103e-01
-1.316720694303512573e-01
2.175035923719406128e-01
7.992143034934997559e-01
9.806873649358749390e-02
-1.150656840763986111e-03
5.186548456549644470e-02
-5.712351296097040176e-03
-2.301267236471176147e-01
-2.324575036764144897e-01
2.257790118455886841e-01
4.478102326393127441e-01
7.604973316192626953e-01
-4.589280784130096436e-01
-2.650087773799896240e-01
3.111613392829895020e-01
6.522761583328247070e-01
-4.398620426654815674e-01
-8.682575821876525879e-02
-8.073127269744873047e-01
1.959083834663033485e-03
5.021691787987947464e-03
-5.973628535866737366e-02
-8.570505976676940918e-01
5.667565464973449707e-01
-3.909487426280975342e-01
7.664855122566223145e-01
6.974759101867675781e-01
1.660729050636291504e-01
1.291242092847824097e-01
1.914102286100387573e-01
1.574265360832214355e-01
5.484240595251321793e-03
-2.743514180183410645e-01
-5.670946240425109863e-01
-3.571642935276031494e-01
3.577880561351776123e-01
1.200388893485069275e-01
1.757299751043319702e-01
-3.090266883373260498e-01
-6.545903682708740234e-01
-5.731246899813413620e-03
-1.197263002395629883e-01
3.372122943401336670e-01
2.730453610420227051e-01
-2.120758444070816040e-01
7.445056438446044922e-01
2.248751372098922729e-01
-1.689576953649520874e-01
5.582150071859359741e-02
2.876063585281372070e-01
1.670034229755401611e-01
4.379775524139404297e-01
-2.998977899551391602e-01
-2.532006800174713135e-02
-1.142220258712768555e+00
4.322069883346557617e-01
-7.608113437891006470e-02
8.461952209472656250e-02
-1.069894582033157349e-01
6.806202698498964310e-03
-5.494802072644233704e-02
2.155201435089111328e-01
5.146747827529907227e-01
-4.156006872653961182e-01
2.723381817340850830e-01
4.523386955261230469e-01
7.158175706863403320e-01
-3.323596119880676270e-01
-2.459392547607421875e-01
-4.341945052146911621e-02
5.439209192991256714e-02
3.228724747896194458e-02
-4.438541233539581299e-01
6.743968278169631958e-02
-4.233398139476776123e-01
7.149960994720458984e-01
-7.103850841522216797e-01
-4.693616628646850586e-01
2.337582409381866455e-01
1.381344720721244812e-02
-5.491570830345153809e-01
1.417676359415054321e-01
-7.749485969543457031e-01
2.164747714996337891e-01
3.270795345306396484e-01
-2.672647535800933838e-01
-1.956216543912887573e-01
-3.874552249908447266e-01
-1.952839195728302002e-01
-3.079633116722106934e-01
-5.001274347305297852e-01
-4.583505392074584961e-01
3.304726183414459229e-01
4.059871733188629150e-01
-6.117449998855590820e-01
2.823916077613830566e-01
5.082109570503234863e-02
2.894845306873321533e-01
-9.485321491956710815e-02
-1.238035783171653748e-01
3.873392045497894287e-01
-5.424857139587402344e-01
-1.439217925071716309e-01
4.497715532779693604e-01
-1.432425379753112793e-01
-8.977011442184448242e-01
1.179089993238449097e-01
3.473346829414367676e-01
-1.131090670824050903e-01
3.951878249645233154e-01
2.675301861017942429e-03
-2.484893500804901123e-01
2.069344222545623779e-01
-3.239654004573822021e-01
6.806491017341613770e-01
-4.785220921039581299e-01
2.495623677968978882e-01
8.063994348049163818e-02
4.801997914910316467e-03
-1.081707328557968140e-01
7.618729025125503540e-02
4.557390883564949036e-02
1.936393603682518005e-02
6.150275468826293945e-01
5.837876796722412109e-01
-4.417478442192077637e-01
-4.391971528530120850e-01
-5.131193399429321289e-01
2.304560989141464233e-01
4.142664372920989990e-01
-1.066197603940963745e-01
-2.347363382577896118e-01
1.335354894399642944e-01
-3.041827678680419922e-01
-4.213290810585021973e-01
2.833114862442016602e-01
3.088044226169586182e-01
-4.186097979545593262e-01
3.273086249828338623e-01
-4.584302008152008057e-02
3.479277491569519043e-01
2.013389319181442261e-01
-6.070132255554199219e-01
-1.613311618566513062e-01
4.381801187992095947e-01
-1.214630305767059326e-01
3.312143385410308838e-01
-9.847557544708251953e-01
-1.605710834264755249e-01
-1.585391312837600708e-01
2.561299800872802734e-01
-3.213152289390563965e-01
5.755835771560668945e-01
1.477612257003784180e-01
-3.645153641700744629e-01
-7.507048249244689941e-01
2.102290540933609009e-01
-1.547714024782180786e-01
-3.723140954971313477e-01
-3.353597819805145264e-01
9.679783135652542114e-02
4.972170591354370117e-01
2.579838335514068604e-01
4.340026378631591797e-01
1.523776054382324219e-01
-7.502064704895019531e-01
9.786749631166458130e-02
3.860524892807006836e-01
7.943605184555053711e-01
8.183804750442504883e-01
7.327076047658920288e-02
-1.390396058559417725e-01
2.394515424966812134e-01
-4.490239024162292480e-01
-6.089928746223449707e-01
4.794763028621673584e-01
-1.577396988868713379e-01
-4.441490769386291504e-02
-8.915501832962036133e-01
1.751797944307327271e-01
-2.247314602136611938e-01
6.785271167755126953e-01
-4.664366841316223145e-01
-3.521448969841003418e-01
-2.165757864713668823e-01
-2.928332686424255371e-01
4.546509683132171631e-01
9.773164242506027222e-02
-4.930635094642639160e-01
6.974173784255981445e-01
6.756012439727783203e-01
2.580399513244628906e-01
2.798710465431213379e-01
-3.106089532375335693e-01
2.776734828948974609e-01
-1.714207082986831665e-01
9.358651936054229736e-03
-2.757975459098815918e-02
2.615624666213989258e-01
-8.640056252479553223e-01
4.840751290321350098e-01
4.080781042575836182e-01
-2.407592833042144775e-01
7.163189649581909180e-01
-3.860277533531188965e-01
-3.937757611274719238e-01
-9.684982150793075562e-02
-2.512661814689636230e-01
-3.423582315444946289e-01
-1.782280951738357544e-01
-9.277070313692092896e-02
4.587297141551971436e-01
3.780341148376464844e-01
-2.958517372608184814e-01
2.126077860593795776e-01
6.829944849014282227e-01
-1.664153337478637695e-01
-1.143032237887382507e-01
2.149177491664886475e-01
2.505539655685424805e-01
-7.885074615478515625e-01
-9.970743209123611450e-03
1.851475983858108521e-02
5.094164609909057617e-01
-1.636963337659835815e-01
-2.826435565948486328e-01
-5.382487773895263672e-01
5.122754573822021484e-01
-2.382507547736167908e-02
4.677142575383186340e-02
-9.303655624389648438e-01
-1.253903388977050781e+00
-1.080612093210220337e-02
1.991439610719680786e-01
-9.155262112617492676e-01
-1.475465483963489532e-02
-3.718648254871368408e-01
-4.440235793590545654e-01
-6.262844204902648926e-01
6.845643278211355209e-03
7.482287287712097168e-01
3.999248147010803223e-01
4.153608977794647217e-01
-1.215080246329307556e-01
-6.233103275299072266e-01
4.895221590995788574e-01
2.343856245279312134e-01
-2.656548023223876953e-01
-6.564415693283081055e-01
4.319621324539184570e-01
1.355383753776550293e+00
-3.712103068828582764e-01
2.188516110181808472e-01
2.678373456001281738e-01
4.964929819107055664e-01
6.084949374198913574e-01
-3.206451535224914551e-01
3.975743949413299561e-01
3.238705992698669434e-01
1.376882493495941162e-01
8.312580734491348267e-02
-9.625393897294998169e-02
2.633916735649108887e-01
6.709994673728942871e-01
1.895727515220642090e-01
7.922859191894531250e-01
-6.577232480049133301e-02
-1.162889078259468079e-01
-1.972202062606811523e-01
1.450383663177490234e-01
-3.100779354572296143e-01
-8.869633823633193970e-02
1.689386814832687378e-01
-2.830828428268432617e-01
6.447145342826843262e-01
6.344407200813293457e-01
5.937836170196533203e-01
5.226297304034233093e-02
6.815446168184280396e-02
-5.312131643295288086e-01
5.433539748191833496e-01
3.726484477519989014e-01
-4.139376580715179443e-01
-5.956872105598449707e-01
5.841601639986038208e-02
2.558946013450622559e-01
-3.957972824573516846e-01
-8.786910027265548706e-02
4.787730872631072998e-01
-5.683372616767883301e-01
3.363942503929138184e-01
3.627005219459533691e-01
2.190765738487243652e-01
-7.515755891799926758e-01
-1.745532751083374023e-01
-7.351592183113098145e-02
-3.430431485176086426e-01
2.414378523826599121e-01
-3.243488967418670654e-01
5.359616279602050781e-01
-6.116346716880798340e-01
-2.109396606683731079e-01
7.329921722412109375e-01
3.756429255008697510e-01
5.172207951545715332e-01
3.645538911223411560e-02
-2.172370553016662598e-01
5.414684489369392395e-02
-8.810039609670639038e-02
-7.065994292497634888e-02
5.492274761199951172e-01
6.376424431800842285e-02
-3.394147157669067383e-01
-5.276983976364135742e-01
-1.233859300613403320e+00
1.419593095779418945e-01
-7.404802441596984863e-01
-8.972674012184143066e-01
-4.675577282905578613e-01
3.019388020038604736e-01
1.801791973412036896e-02
-1.910939067602157593e-01
-1.054878830909729004e-01
-6.129534840583801270e-01
-3.833845257759094238e-01
-1.106582507491111755e-01
-6.991507411003112793e-01
1.541029661893844604e-01
-3.616511821746826172e-01
-9.940978884696960449e-01
-1.258368611335754395e+00
3.553721606731414795e-01
1.290232612518593669e-04
-6.638882160186767578e-01
-1.930584460496902466e-01
-5.324422717094421387e-01
7.732317317277193069e-03
5.512894392013549805e-01
1.620540171861648560e-01
1.463759541511535645e-01
1.731914579868316650e-01
-1.814788323827087879e-03
-3.744151592254638672e-01
-4.555933475494384766e-01
-1.895879805088043213e-01
-5.484819039702415466e-02
-1.338309645652770996e-01
1.593500524759292603e-01
7.004091143608093262e-01
6.274271011352539062e-01
9.232099652290344238e-01
7.382302880287170410e-01
-2.377226948738098145e-01
2.947917580604553223e-01
-1.383996754884719849e-01
-1.621162444353103638e-01
-1.152868494391441345e-01
-6.324250996112823486e-02
-7.388895750045776367e-02
3.802180755883455276e-03
-4.583234488964080811e-01
3.112131953239440918e-01
7.377429008483886719e-01
2.526630461215972900e-01
4.754708707332611084e-02
-2.003140151500701904e-01
4.859653413295745850e-01
2.451445758342742920e-01
1.521777510643005371e-01
-4.383618831634521484e-01
1.011548995971679688e+00
5.466569662094116211e-01
-2.829795479774475098e-01
-2.030817121267318726e-01
4.870530962944030762e-02
7.788835167884826660e-01
-4.808092713356018066e-01
7.225394248962402344e-02
-3.235407173633575439e-01
5.054688453674316406e-02
-2.041124999523162842e-01
2.713741064071655273e-01
-3.216351866722106934e-01
1.750832796096801758e-02
-1.913373768329620361e-01
2.533162534236907959e-01
3.324796853121370077e-04
-5.851342082023620605e-01
-1.827788501977920532e-01
1.451722264289855957e+00
1.583081126213073730e+00
-7.863430976867675781e-01
-2.063450813293457031e-01
7.130064964294433594e-01
3.066701292991638184e-01
-7.842618972063064575e-02
-4.576587080955505371e-01
-2.134220898151397705e-01
1.106364727020263672e-01
1.700537949800491333e-01
-4.676496088504791260e-01
3.023031651973724365e-01
-3.006190359592437744e-01
3.903436064720153809e-01
-8.335138857364654541e-02
6.882310509681701660e-01
4.279246926307678223e-01
-5.214243754744529724e-02
8.687877058982849121e-01
9.582902789115905762e-01
-9.058265388011932373e-02
-8.741877079010009766e-01
4.866504967212677002e-01
1.040019020438194275e-01
2.506139278411865234e-01
1.024670824408531189e-01
-1.952840238809585571e-01
5.961355566978454590e-01
1.253333408385515213e-02
-2.335535436868667603e-01
-7.367850095033645630e-02
-7.509690523147583008e-01
6.356180310249328613e-01
-5.311647653579711914e-01
-2.485708799213171005e-03
2.372555285692214966e-01
6.060565710067749023e-01
7.209049463272094727e-01
-4.045725464820861816e-01
7.885202169418334961e-01
-7.844303846359252930e-01
2.238195836544036865e-01
1.640378534793853760e-01
5.739791393280029297e-01
3.708824887871742249e-02
-7.415284961462020874e-02
5.283766984939575195e-01
1.405880451202392578e-01
-7.907328754663467407e-02
3.844406902790069580e-01
5.017850399017333984e-01
8.818185329437255859e-02
-1.088873147964477539e-01
3.357234001159667969e-01
-5.596082210540771484e-01
-5.208518728613853455e-02
5.085373297333717346e-02
3.272466957569122314e-01
2.487786412239074707e-01
-7.251701354980468750e-01
-1.950930207967758179e-01
-6.102146580815315247e-02
3.344202339649200439e-01
-6.411767005920410156e-01
1.657639145851135254e-01
8.366303890943527222e-02
-2.600654587149620056e-02
-2.885152120143175125e-03
-1.385863684117794037e-02
7.020380347967147827e-02
-3.043330311775207520e-01
-3.578940406441688538e-02
1.214561909437179565e-01
-7.787985354661941528e-02
-3.326912522315979004e-01
-7.197504490613937378e-02
-2.376073449850082397e-01
-2.095740139484405518e-01
-1.200361922383308411e-01
6.671943664550781250e-01
5.261259078979492188e-01
6.875913739204406738e-01
-4.739808142185211182e-01
3.988502025604248047e-01
-2.097007185220718384e-01
3.762428089976310730e-02
-1.426254510879516602e-01
-1.558469831943511963e-01
-3.865403532981872559e-01
-6.752237677574157715e-01
1.569189131259918213e-01
5.273905396461486816e-01
3.367406427860260010e-01
2.295139804482460022e-02
4.332823455333709717e-01
-2.461776286363601685e-01
1.971942372620105743e-02
1.849669665098190308e-01
-4.567925631999969482e-01
-5.791543126106262207e-01
-5.693458318710327148e-01
1.647241264581680298e-01
-2.550318278372287750e-02
-2.160848379135131836e-01
-1.275052070617675781e+00
5.245032534003257751e-02
-1.654012948274612427e-01
-1.845314726233482361e-02
5.168586969375610352e-01
-9.999860525131225586e-01
1.003413319587707520e+00
9.471669048070907593e-02
3.943424224853515625e-01
6.362281441688537598e-01
3.266218602657318115e-01
5.861991643905639648e-01
-4.824589490890502930e-01
-5.267461538314819336e-01
-8.436689525842666626e-02
1.050071939826011658e-01
1.073836311697959900e-01
-5.507038906216621399e-02
-1.738891005516052246e-01
-1.526401937007904053e-01
-9.571521729230880737e-02
-1.737884879112243652e-01
-2.654437720775604248e-01
-2.119552642107009888e-01
2.557228207588195801e-01
4.676660895347595215e-02
6.969487667083740234e-01
1.121138036251068115e-01
-3.939000666141510010e-01
-4.922468215227127075e-02
-8.559898287057876587e-02
3.981240689754486084e-01
-3.445771932601928711e-01
6.463781595230102539e-01
-2.334713041782379150e-01
-1.777012646198272705e-01
-6.555227637290954590e-01
-3.276585042476654053e-01
4.079032540321350098e-01
-2.170158326625823975e-01
2.716634236276149750e-02
-1.935343295335769653e-01
-1.815402954816818237e-01
-6.146917939186096191e-01
2.662133872509002686e-01
-2.110410332679748535e-01
6.615569442510604858e-02
-4.114665687084197998e-01
2.312844097614288330e-01
-1.346761703491210938e+00
-9.416792988777160645e-01
1.981468498706817627e-01
3.026900291442871094e-01
-3.908905684947967529e-01
-8.424854874610900879e-01
3.030010759830474854e-01
-1.114232465624809265e-01
-4.818705022335052490e-01
1.606311500072479248e-01
5.617519617080688477e-01
-5.628844350576400757e-02
-8.309537768363952637e-01
1.230446249246597290e-01
6.210467219352722168e-01
1.433374136686325073e-01
-1.115415543317794800e-01
-5.899333860725164413e-03
2.479242682456970215e-01
2.528661787509918213e-01
1.038616802543401718e-02
1.595990657806396484e-01
5.275225043296813965e-01
4.551840722560882568e-01
1.327321771532297134e-02
2.699564024806022644e-02
7.699580192565917969e-01
1.240668594837188721e-01
2.400499284267425537e-01
6.084546074271202087e-02
-9.446796774864196777e-02
-9.736889973282814026e-03
-7.360311597585678101e-02
